SVM-light Version V6.02
0 # kernel type
3 # kernel parameter -d 
1 # kernel parameter -g 
1 # kernel parameter -s 
1 # kernel parameter -r 
empty# kernel parameter -u 
8 # highest feature index 
7137 # number of training documents 
7042 # number of support vectors plus 1 
0 # threshold b, each following line is a SV (starting with alpha*y)
-0.071800068370097031023036038277496 1:0.43288642 2:0.38562033 3:2 4:0 5:0 6:4.6051702 7:1 8:0 #
0.0055230821823151589680667150616955 1:0.33782157 2:0.19287397 3:1 4:0 5:0 6:2.8134108 7:1 8:0 #
-0.18226171201640012364819654067105 1:0.33782157 2:0.19287397 3:1 4:0 5:0 6:2.8134108 7:1 8:0 #
-0.11598472582861832358425147049275 1:0.33466384 2:0.19284515 3:1 4:0 5:0 6:2.8134108 7:1 8:0 #
-0.0055230821823151624375136670153097 1:0.9626444 2:0.57813025 3:3 4:0 5:0 6:5.8983388 7:1 8:0 #
0.20435404074566071441765302552085 1:0.62986714 2:0.38530418 3:2 4:0 5:0 6:4.6051702 7:1 8:0 #
-0.21540020511029100980238126794575 1:0.33996019 2:0.19289319 3:1 4:0 5:0 6:2.8134108 7:1 8:0 #
0.12703089019324864672455532854656 1:0.41680974 2:0.38521108 3:2 4:0 5:0 6:2.3025851 7:1 8:0 #
0.049707739640836405559110033891557 1:0.3226037 2:0.19273023 3:1 4:0 5:0 6:2.8134108 7:1 8:0 #
0.13807705455787894210928357097146 1:0.32553622 2:0.19275892 3:1 4:0 5:0 6:2.8134108 7:1 8:0 #
-0.049707739640836405559110033891557 1:0.33996019 2:0.19289319 3:1 4:0 5:0 6:2.8134108 7:1 8:0 #
-0.16016938328713953287874005582125 1:0.08928857 2:0.19243303 3:1 4:0 5:0 6:2.8134108 7:1 8:0 #
-0.082846232734727354163339896331308 1:6.4702826 2:3.8566532 3:20 4:0 5:0 6:4.1674695 7:0 8:1 #
0.10493856146398800044394761243893 1:0.098222598 2:0.19277516 3:1 4:0 5:0 6:2.8134108 7:1 8:0 #
0.082846232734727368041127704145765 1:0.34103972 2:0.19290282 3:1 4:0 5:0 6:2.8134108 7:0 8:1 #
-0.093892397099357677303643754385121 1:0.08928857 2:0.19243303 3:1 4:0 5:0 6:5.6268215 7:1 8:0 #
-0.038661575276206096296593983652201 1:0.33570981 2:0.19285475 3:1 4:0 5:0 6:2.8134108 7:1 8:0 #
-0.22644636947492130518710951037065 1:0.39361948 2:0.38497829 3:2 4:0 5:0 6:4.6051702 7:1 8:0 #
-0.12703089019324864672455532854656 1:0.43288642 2:0.38562033 3:2 4:0 5:0 6:4.6051702 7:0 8:1 #
0.16016938328713953287874005582125 1:0.098222598 2:0.19277516 3:1 4:0 5:0 6:2.8134108 7:0 8:1 #
0.027615410911575797442418789273688 1:0.72932929 2:0.57783306 3:3 4:0 5:0 6:7.8644514 7:1 8:0 #
0.21540020511029100980238126794575 1:6.4702826 2:3.8566532 3:20 4:0 5:0 6:1.1907057 7:1 8:0 #
-0.10493856146398800044394761243893 1:0.33466384 2:0.19284515 3:1 4:0 5:0 6:2.8134108 7:1 8:0 #
-0.20435404074566071441765302552085 1:0.08928857 2:0.19243303 3:1 4:0 5:0 6:2.8134108 7:1 8:0 #
0.17121554765176982826346829824615 1:0 2:0 3:0 4:0 5:0 6:0 7:0 8:1 #
0.14912321892250923749401181339636 1:0.08928857 2:0.19243303 3:1 4:0 5:0 6:2.8134108 7:0 8:1 #
0.19330787638103041903292478309595 1:0.3226037 2:0.19273023 3:1 4:0 5:0 6:2.8134108 7:1 8:0 #
-0.016569246546945474302114931219876 1:0.30433092 2:0.19254528 3:1 4:0 5:0 6:2.8134108 7:1 8:0 #
-0.14912321892250923749401181339636 1:1.7358249 2:1.1563879 3:6 4:0 5:0 6:8.0824423 7:1 8:0 #
0.11598472582861832358425147049275 1:0.75549012 2:0.57835054 3:3 4:0 5:0 6:5.8983388 7:1 8:0 #
0.071800068370097031023036038277496 1:0.73742849 2:0.57792217 3:3 4:0 5:0 6:5.8983388 7:0 8:1 #
0.093892397099357677303643754385121 1:0 2:0 3:0 4:0 5:0 6:0 7:0 8:1 #
-0.19330787638103041903292478309595 1:0 2:0 3:0 4:0 5:0 6:0 7:0 8:1 #
0.016569246546945467363221027312647 1:0.08928857 2:0.19243303 3:1 4:0 5:0 6:2.8134108 7:1 8:0 #
-0.17121554765176982826346829824615 1:0.33888748 2:0.19288358 3:1 4:0 5:0 6:2.8134108 7:1 8:0 #
-0.027615410911575787034077933412846 1:0.67566997 2:0.38574794 3:2 4:0 5:0 6:4.6051702 7:0 8:1 #
0.18226171201640012364819654067105 1:2.5086715 2:1.7349014 3:9 4:0 5:0 6:8.7082558 7:0 8:1 #
0.060753904005466714821626084130912 1:0.3226037 2:0.19273023 3:1 4:0 5:0 6:2.8134108 7:1 8:0 #
0.038661575276206096296593983652201 1:1.0124456 2:0.57861233 3:3 4:0 5:0 6:5.8983388 7:1 8:0 #
0.22644636947492130518710951037065 1:6.671001 2:4.2423477 3:22 4:0 5:0 6:0.73752362 7:1 8:0 #
-0.13807705455787894210928357097146 1:0.33466384 2:0.19284515 3:1 4:0 5:0 6:2.8134108 7:1 8:0 #
-0.060753904005466714821626084130912 1:0.33782157 2:0.3858099 3:2 4:0 5:0 6:4.6051702 7:1 8:0 #
0.1546463011048243851863759346088 1:1.8411121 2:1.4453676 3:5 4:0 5:0 6:7.7667422 7:0 8:1 #
0.044184657458521250927852008771879 1:1.4657035 2:0.86747092 3:3 4:0 5:0 6:6.0160007 7:0 8:1 #
0.06627698618778186945288410925059 1:0.091006286 2:0.28877848 3:1 4:0 5:0 6:2.8526313 7:1 8:0 #
0.12150780801093348515440339951965 1:0.19273669 2:0.57824427 3:2 4:0 5:0 6:4.6836114 7:0 8:1 #
0.1767386298340849759558324194586 1:1.5021149 2:0.2890828 3:1 4:0 5:0 6:2.8526313 7:1 8:0 #
-0.12150780801093348515440339951965 1:0.46472809 2:0.28909865 3:1 4:0 5:0 6:2.8526313 7:1 8:0 #
0.077323150552412192593187967304402 1:0.097321294 2:0.28917971 3:1 4:0 5:0 6:2.8526313 7:0 8:1 #
0.11046164364630316201409954146584 1:0.096841305 2:0.28915089 3:1 4:0 5:0 6:2.8526313 7:0 8:1 #
-0.077323150552412192593187967304402 1:17.167236 2:7.2278876 3:25 4:0 5:0 6:1.8641362 7:0 8:1 #
-0.14360013674019408980164769218391 1:1.4196477 2:0.28893942 3:1 4:0 5:0 6:2.8526313 7:1 8:0 #
-0.088369314917042515733491825358215 1:3.830379 2:2.6021132 3:9 4:0 5:0 6:9.0612431 7:1 8:0 #
-5.2041704279304212832357734441757e-18 1:11.31969 2:2.891351 3:10 4:0 5:0 6:10.880655 7:1 8:0 #
0.13255397237556379441691944975901 1:3.4368153 2:1.7341723 3:6 4:0 5:0 6:12.476649 7:0 8:1 #
0.011046164364630309262516050239356 1:0.097321294 2:0.28917971 3:1 4:0 5:0 6:2.8526313 7:0 8:1 #
-0.1546463011048243851863759346088 1:1.8843758 2:0.86722827 3:3 4:0 5:0 6:6.0160007 7:1 8:0 #
0.099415479281672838873795683412027 1:1.2715409 2:0.28914028 3:1 4:0 5:0 6:2.8526313 7:1 8:0 #
0.088369314917042515733491825358215 1:1.2715409 2:0.28914028 3:1 4:0 5:0 6:2.8526313 7:0 8:1 #
-0.066276986187781883330671917065047 1:16.786173 2:5.7824945 3:20 4:0 5:0 6:5.2287765 7:1 8:0 #
0.14360013674019408980164769218391 1:0.19321668 2:0.57827306 3:2 4:0 5:0 6:4.6836114 7:1 8:0 #
-0.044184657458521264805639816586336 1:15.707189 2:6.9387221 3:24 4:0 5:0 6:1.0696216 7:0 8:1 #
-0.033138493093890941665335958532523 1:1.538147 2:0.28914031 3:1 4:0 5:0 6:2.8526313 7:0 8:1 #
0.055230821823151560190368059011234 1:0.92555451 2:0.57815444 3:2 4:0 5:0 6:4.6836114 7:1 8:0 #
-0.011046164364630316201409954146584 1:0.097321294 2:0.28917971 3:1 4:0 5:0 6:2.8526313 7:0 8:1 #
-0.099415479281672838873795683412027 1:3.830379 2:2.6021132 3:9 4:0 5:0 6:9.0612431 7:1 8:0 #
-0.1656924654694546805711041770337 1:15.41731 2:5.2041745 3:18 4:0 5:0 6:6.1258645 7:1 8:0 #
-0.11046164364630316201409954146584 1:0.46472809 2:0.28909865 3:1 4:0 5:0 6:2.8526313 7:0 8:1 #
0.033138493093890941665335958532523 1:1.2715409 2:0.28914028 3:1 4:0 5:0 6:2.8526313 7:0 8:1 #
0.022092328729260625463926004385939 1:0.18620427 2:0.57782876 3:2 4:0 5:0 6:2.3418057 7:0 8:1 #
-0.055230821823151560190368059011234 1:0 2:0.2891902 3:1 4:0 5:0 6:2.8526313 7:0 8:1 #
-0.13255397237556379441691944975901 1:1.377326 2:1.1563139 3:4 4:0 5:0 6:10.524115 7:0 8:1 #
0.1656924654694546805711041770337 1:1.538147 2:0.28914031 3:1 4:0 5:0 6:2.8526313 7:0 8:1 #
-0.022092328729260632402819908293168 1:1.538147 2:0.28914031 3:1 4:0 5:0 6:2.8526313 7:1 8:0 #
-0.1767386298340849759558324194586 1:7.8053699 2:3.7584763 3:13 4:0 5:0 6:8.5202894 7:1 8:0 #
-0.044184657458521250927852008771879 1:4.6000729 2:1.2301532 3:8 4:0 5:0 6:1.4969735 7:0 8:1 #
0.022092328729260628933372956339554 1:1.9573014 2:0.46131146 3:3 4:0 5:0 6:4.1588831 7:0 8:1 #
0.044184657458521250927852008771879 1:0 2:0.15374641 3:1 4:0 5:0 6:2.2335923 7:0 8:1 #
0.055230821823151560190368059011234 1:0 2:0.15368529 3:1 4:0 5:0 6:2.2335923 7:0 8:1 #
-0.022092328729260628933372956339554 1:0 2:0.15374641 3:1 4:0 5:0 6:2.2335923 7:0 8:1 #
0.01104616436463031273196300219297 1:0 2:0.15376939 3:1 4:0 5:0 6:2.2335923 7:0 8:1 #
-0.06627698618778186945288410925059 1:0.4046571 2:0.15368944 3:1 4:0 5:0 6:2.2335923 7:0 8:1 #
-0.055230821823151560190368059011234 1:0 2:0.15374641 3:1 4:0 5:0 6:2.2335923 7:0 8:1 #
-0.033138493093890941665335958532523 1:4.6000729 2:1.5376613 3:10 4:0 5:0 6:1.4384104 7:0 8:1 #
0.033138493093890941665335958532523 1:0 2:0.15368529 3:1 4:0 5:0 6:2.2335923 7:0 8:1 #
-1.7347234759768070944119244813919e-18 1:4.6000729 2:1.9988624 3:13 4:0 5:0 6:5.7097201 7:1 8:0 #
0.06627698618778186945288410925059 1:0.4046571 2:0.15368944 3:1 4:0 5:0 6:2.2335923 7:1 8:0 #
-0.011046164364630314466686478169777 1:0.4046571 2:0.15368944 3:1 4:0 5:0 6:2.2335923 7:1 8:0 #
-0.033138493093890906970866438996381 1:2.5869436 2:0.37055716 3:1 4:1 5:1 6:2.4277482 7:1 8:0 #
0.06627698618778186945288410925059 1:11.050239 2:2.2232904 3:6 4:0 5:0 6:6.7298779 7:1 8:0 #
5.2041704279304212832357734441757e-18 1:0.14315979 2:0.3704882 3:1 4:0 5:0 6:2.4277482 7:0 8:1 #
0.01104616436463031273196300219297 1:2.5602574 2:0.37053871 3:1 4:1 5:1 6:2.4277482 7:1 8:0 #
0.088369314917042515733491825358215 1:2.4689813 2:0.37057137 3:1 4:1 5:1 6:2.4277482 7:1 8:0 #
0.049707739640836405559110033891557 1:7.4912729 2:1.4818795 3:4 4:0 5:0 6:3.9874079 7:0 8:1 #
0.033138493093890941665335958532523 1:2.6996839 2:0.37063095 3:1 4:1 5:1 6:2.4277482 7:1 8:0 #
-0.088369314917042515733491825358215 1:2.4689813 2:0.37057137 3:1 4:1 5:1 6:2.4277482 7:1 8:0 #
-0.099415479281672838873795683412027 1:18.640528 2:5.188046 3:14 4:0 5:0 6:2.0678411 7:0 8:1 #
-0.077323150552412192593187967304402 1:2.5602574 2:0.37053871 3:1 4:1 5:1 6:2.4277482 7:1 8:0 #
-0.016569246546945508996584450756018 1:2.3215418 2:0.3703548 3:1 4:0 5:0 6:2.4277482 7:0 8:1 #
0.099415479281672838873795683412027 1:1.2018167 2:0.37052634 3:1 4:1 5:1 6:2.4277482 7:1 8:0 #
-0.044184657458521250927852008771879 1:4.5456095 2:1.4820135 3:4 4:0 5:0 6:5.3165436 7:1 8:0 #
-0.060753904005466714821626084130912 1:0.14049196 2:0.37041458 3:1 4:1 5:1 6:2.4277482 7:1 8:0 #
0.033138493093890941665335958532523 1:0.14315979 2:0.3704882 3:1 4:1 5:1 6:7.2832446 7:1 8:0 #
0.044184657458521250927852008771879 1:1.9790068 2:0.37060854 3:1 4:1 5:1 6:2.4277482 7:1 8:0 #
0.071800068370097031023036038277496 1:1.2018167 2:0.37052634 3:1 4:0 5:0 6:2.4277482 7:0 8:1 #
-0.055230821823151560190368059011234 1:4.4024496 2:1.1115253 3:3 4:0 5:0 6:4.7413511 7:1 8:0 #
-0.022092328729260628933372956339554 1:0.14315979 2:0.3704882 3:1 4:0 5:0 6:2.4277482 7:1 8:0 #
-0.022092328729260628933372956339554 1:3.0996256 2:0.43764889 3:1 4:0 5:0 6:1.9924302 7:1 8:0 #
0.077323150552412192593187967304402 1:2.5124083 2:1.7505141 3:4 4:0 5:0 6:2.6814537 7:0 8:1 #
0.06627698618778186945288410925059 1:1.1897385 2:0.43757647 3:1 4:0 5:0 6:1.9924302 7:1 8:0 #
0.011046164364630316201409954146584 1:12.028389 2:2.6253369 3:6 4:0 5:0 6:0.52609313 7:0 8:1 #
-0.033138493093890941665335958532523 1:7.6861329 2:1.3130699 3:3 4:0 5:0 6:3.4353969 7:1 8:0 #
-0.055230821823151560190368059011234 1:2.2442157 2:0.43765604 3:1 4:0 5:0 6:1.9924302 7:1 8:0 #
0.044184657458521250927852008771879 1:1.8200208 2:0.43752038 3:1 4:0 5:0 6:1.9924302 7:1 8:0 #
0.055230821823151560190368059011234 1:0.33920315 2:0.43771678 3:1 4:0 5:0 6:1.9924302 7:1 8:0 #
-0.077323150552412192593187967304402 1:2.861438 2:1.3124633 3:3 4:0 5:0 6:3.4353969 7:1 8:0 #
-0.06627698618778186945288410925059 1:3.0996256 2:0.43764889 3:1 4:0 5:0 6:1.9924302 7:1 8:0 #
-0.044184657458521250927852008771879 1:1.3324964 2:0.43717009 3:1 4:0 5:0 6:1.9924302 7:1 8:0 #
-0.011046164364630316201409954146584 1:2.3422914 2:0.43776503 3:1 4:0 5:0 6:1.9924302 7:1 8:0 #
0.033138493093890941665335958532523 1:12.028389 2:2.6253369 3:6 4:0 5:0 6:3.1565585 7:1 8:0 #
5.2041704279304212832357734441757e-18 1:4.3422556 2:1.3122669 3:3 4:0 5:0 6:1.1451323 7:0 8:1 #
0.022092328729260628933372956339554 1:1.3324964 2:0.43717009 3:1 4:0 5:0 6:1.9924302 7:1 8:0 #
0.0055230821823151572333432390848884 1:1.6656685 2:2.2886856 3:6 4:0 5:0 6:0.2964319 7:0 8:1 #
-0.016569246546945470832667979266262 1:1.6656685 2:2.2886856 3:6 4:0 5:0 6:1.2598355 7:0 8:1 #
-0.0055230821823151572333432390848884 1:0.61725003 2:0.38138738 3:1 4:0 5:0 6:1.5404451 7:0 8:1 #
0.016569246546945470832667979266262 1:1.6656685 2:2.2886856 3:6 4:0 5:0 6:0.44464782 7:0 8:1 #
0.027615410911575783564630981459231 1:1.5043333 2:0.20392857 3:1 4:0 5:0 6:2.1594841 7:1 8:0 #
-0.027615410911575787034077933412846 1:0.49749923 2:0.20402569 3:1 4:0 5:0 6:2.1594841 7:1 8:0 #
0.016569246546945470832667979266262 1:1.5043333 2:0.20392857 3:1 4:0 5:0 6:2.1594841 7:1 8:0 #
0.038661575276206096296593983652201 1:2.187171 2:0.6120382 3:3 4:0 5:0 6:3.9365592 7:0 8:1 #
-0.016569246546945470832667979266262 1:8.066453 2:2.4479229 3:12 4:0 5:0 6:1.7257113 7:1 8:0 #
0.0055230821823151572333432390848884 1:1.9344279 2:0.20392184 3:1 4:0 5:0 6:2.1594841 7:1 8:0 #
-0.0055230821823151572333432390848884 1:3.2035756 2:0.61196822 3:3 4:0 5:0 6:3.9365592 7:1 8:0 #
-0.038661575276206096296593983652201 1:8.066453 2:2.4479229 3:12 4:0 5:0 6:3.5690849 7:0 8:1 #
0.022092328729260628933372956339554 1:13.56312 2:4.0172348 3:17 4:0 5:0 6:0.18232156 7:1 8:0 #
0.033138493093890941665335958532523 1:13.879048 2:4.4898238 3:19 4:0 5:0 6:4.5205865 7:0 8:1 #
0.044184657458521250927852008771879 1:0.61521345 2:0.70871025 3:3 4:0 5:0 6:5.3752785 7:1 8:0 #
0.01104616436463031273196300219297 1:14.201917 2:4.7262006 3:20 4:0 5:0 6:0.024097551 7:0 8:1 #
-0.044184657458521250927852008771879 1:0.46428323 2:0.23624101 3:1 4:0 5:0 6:2.6390574 7:0 8:1 #
-0.011046164364630314466686478169777 1:14.201917 2:4.7262006 3:20 4:0 5:0 6:3.8074131 7:1 8:0 #
-0.022092328729260628933372956339554 1:7.8735209 2:0.7088812 3:3 4:0 5:0 6:5.3752785 7:1 8:0 #
-0.033138493093890941665335958532523 1:0.93980032 2:0.47255698 3:2 4:0 5:0 6:4.2564635 7:1 8:0 #
0.027615410911575787034077933412846 1:5.4703288 2:1.2342718 3:6 4:0 5:0 6:1.3016896 7:1 8:0 #
0.016569246546945470832667979266262 1:5.4703288 2:1.4400921 3:7 4:0 5:0 6:8.7514343 7:1 8:0 #
0.0055230821823151572333432390848884 1:0 2:0.20582035 3:1 4:0 5:0 6:1.7917595 7:0 8:1 #
-0.027615410911575787034077933412846 1:5.4703288 2:1.2342718 3:6 4:0 5:0 6:1.3016896 7:0 8:1 #
-0.016569246546945470832667979266262 1:5.4703288 2:1.4400921 3:7 4:0 5:0 6:18.049833 7:0 8:1 #
-0.0055230821823151572333432390848884 1:1.0137862 2:0.41146311 3:2 4:0 5:0 6:1.2809339 7:1 8:0 #
0.071800068370097031023036038277496 1:2.8399069 2:0.33465141 3:1 4:0 5:0 6:6.1205416 7:1 8:0 #
0.11598472582861832358425147049275 1:0.87869638 2:0.33475113 3:1 4:0 5:0 6:3.0602708 7:1 8:0 #
-0.049707739640836405559110033891557 1:0.74097037 2:0.33468425 3:1 4:0 5:0 6:3.0602708 7:0 8:1 #
-0.038661575276206096296593983652201 1:6.3293138 2:0.66929287 3:2 4:0 5:0 6:5.0988903 7:0 8:1 #
-0.0055230821823151554986197631080813 1:1.9501214 2:0.33447787 3:1 4:0 5:0 6:3.0602708 7:1 8:0 #
0.038661575276206096296593983652201 1:0 2:0.33471015 3:1 4:0 5:0 6:3.0602708 7:1 8:0 #
-0.093892397099357677303643754385121 1:11.303924 2:2.6767612 3:8 4:0 5:0 6:13.256698 7:1 8:0 #
-0.060753904005466714821626084130912 1:44.712742 2:10.374576 3:31 4:0 5:0 6:4.8347454 7:0 8:1 #
-0.071800068370097031023036038277496 1:18.141117 2:3.6806815 3:11 4:0 5:0 6:13.304055 7:1 8:0 #
0.093892397099357677303643754385121 1:32.750519 2:7.6967549 3:23 4:0 5:0 6:14.510568 7:1 8:0 #
-0.12703089019324864672455532854656 1:2.8399069 2:0.33465141 3:1 4:0 5:0 6:3.0602708 7:1 8:0 #
0.10493856146398800044394761243893 1:7.3955226 2:2.0076885 3:6 4:0 5:0 6:7.9696689 7:0 8:1 #
0.12703089019324864672455532854656 1:44.712742 2:10.374576 3:31 4:0 5:0 6:2.2677634 7:1 8:0 #
0.0055230821823151554986197631080813 1:5.6983514 2:1.3389238 3:4 4:0 5:0 6:7.8466339 7:0 8:1 #
0.049707739640836405559110033891557 1:1.9501214 2:0.33447787 3:1 4:0 5:0 6:3.0602708 7:1 8:0 #
-0.082846232734727354163339896331308 1:1.7357888 2:0.33484095 3:1 4:0 5:0 6:3.0602708 7:0 8:1 #
-0.10493856146398800044394761243893 1:1.9852234 2:0.33479518 3:1 4:0 5:0 6:3.0602708 7:1 8:0 #
0.060753904005466714821626084130912 1:0 2:0 3:0 4:0 5:0 6:0 7:0 8:1 #
0.027615410911575783564630981459231 1:44.712742 2:10.374576 3:31 4:0 5:0 6:4.6457653 7:0 8:1 #
0.082846232734727354163339896331308 1:5.1986923 2:0.6693064 3:2 4:0 5:0 6:5.0988903 7:1 8:0 #
0.016569246546945474302114931219876 1:0.33195335 2:0.33466354 3:1 4:0 5:0 6:3.0602708 7:1 8:0 #
-0.016569246546945470832667979266262 1:0.33195335 2:0.33466354 3:1 4:0 5:0 6:3.0602708 7:1 8:0 #
-0.02761541091157579050352488536646 1:36.211655 2:6.3584385 3:19 4:0 5:0 6:10.401751 7:0 8:1 #
-0.11598472582861832358425147049275 1:30.428049 2:7.0271955 3:21 4:0 5:0 6:19.088783 7:0 8:1 #
-0.0055230821823151572333432390848884 1:3.0576379 2:1.0367683 3:3 4:1 5:1 6:2.7725887 7:1 8:0 #
0.0055230821823151572333432390848884 1:3.0576379 2:1.0367683 3:3 4:1 5:1 6:3.4657359 7:1 8:0 #
0.016569246546945470832667979266262 1:0.3489489 2:0.34560531 3:1 4:0 5:0 6:1.5404451 7:1 8:0 #
-0.016569246546945470832667979266262 1:3.0576379 2:1.0367683 3:3 4:1 5:1 6:2.0794415 7:1 8:0 #
-0.016569246546945467363221027312647 1:0.01488318 2:0.10224169 3:1 4:0 5:0 6:3.0602708 7:0 8:1 #
0.016569246546945474302114931219876 1:0.015171022 2:0.10231261 3:1 4:0 5:0 6:3.0602708 7:1 8:0 #
0.027615410911575783564630981459231 1:0.015362017 2:0.10235842 3:1 4:0 5:0 6:3.0602708 7:1 8:0 #
0.038661575276206096296593983652201 1:0.12103886 2:0.81841981 3:8 4:0 5:0 6:11.931027 7:1 8:0 #
0.071800068370097031023036038277496 1:0.47059831 2:3.1717553 3:31 4:0 5:0 6:0.36221221 7:0 8:1 #
0.060753904005466714821626084130912 1:0.030638319 2:0.20469645 3:2 4:0 5:0 6:5.0988903 7:1 8:0 #
-0.060753904005466714821626084130912 1:0.029726075 2:0.20447327 3:2 4:0 5:0 6:5.0988903 7:0 8:1 #
0.16016938328713953287874005582125 1:0.014863038 2:0.10223664 3:1 4:0 5:0 6:3.0602708 7:0 8:1 #
0.10493856146398800044394761243893 1:0.18217729 2:1.2277775 3:12 4:0 5:0 6:11.280087 7:1 8:0 #
0.19330787638103041903292478309595 1:0.01488318 2:0.10224169 3:1 4:0 5:0 6:3.0602708 7:0 8:1 #
-0.17121554765176982826346829824615 1:0.015192009 2:0.10231769 3:1 4:0 5:0 6:3.0602708 7:1 8:0 #
-0.093892397099357677303643754385121 1:0.015087652 2:0.10229395 3:1 4:0 5:0 6:3.0602708 7:0 8:1 #
-0.10493856146398800044394761243893 1:0.01488318 2:0.10224169 3:1 4:0 5:0 6:3.0602708 7:0 8:1 #
-0.14912321892250923749401181339636 1:0.090759434 2:0.61380982 3:6 4:0 5:0 6:9.5636024 7:1 8:0 #
-0.027615410911575783564630981459231 1:0.01488318 2:0.10224169 3:1 4:0 5:0 6:3.0602708 7:0 8:1 #
-0.049707739640836405559110033891557 1:0.014863038 2:0.10223664 3:1 4:0 5:0 6:3.0602708 7:1 8:0 #
-0.11598472582861832358425147049275 1:0.014863038 2:0.10223664 3:1 4:0 5:0 6:3.0602708 7:0 8:1 #
-0.19330787638103041903292478309595 1:0.16616315 2:1.1252614 3:11 4:0 5:0 6:11.257277 7:1 8:0 #
-0.18226171201640012364819654067105 1:0.014863038 2:0.10223664 3:1 4:0 5:0 6:3.0602708 7:1 8:0 #
0.11598472582861832358425147049275 1:0.01488318 2:0.10224169 3:1 4:0 5:0 6:3.0602708 7:0 8:1 #
0.12703089019324864672455532854656 1:0.030159719 2:0.20457973 3:2 4:0 5:0 6:5.0988903 7:0 8:1 #
0.0055230821823151589680667150616955 1:0.01488318 2:0.10224169 3:1 4:0 5:0 6:6.1205416 7:1 8:0 #
-0.071800068370097031023036038277496 1:0.27267596 2:1.841526 3:18 4:0 5:0 6:8.2194777 7:0 8:1 #
-0.13807705455787894210928357097146 1:0.12137677 2:0.81850123 3:8 4:0 5:0 6:11.931027 7:1 8:0 #
0.14912321892250923749401181339636 1:0.015087652 2:0.10229395 3:1 4:0 5:0 6:3.0602708 7:0 8:1 #
-0.038661575276206096296593983652201 1:0.029726075 2:0.20447327 3:2 4:0 5:0 6:5.0988903 7:0 8:1 #
-0.0055230821823151589680667150616955 1:0.015255319 2:0.10233295 3:1 4:0 5:0 6:3.0602708 7:0 8:1 #
0.17121554765176982826346829824615 1:0.12098719 2:0.81840664 3:8 4:0 5:0 6:10.605358 7:0 8:1 #
0.093892397099357677303643754385121 1:0.014863038 2:0.10223664 3:1 4:0 5:0 6:3.0602708 7:1 8:0 #
0.049707739640836405559110033891557 1:0.015319159 2:0.10234822 3:1 4:0 5:0 6:3.0602708 7:0 8:1 #
0.082846232734727368041127704145765 1:0.014863038 2:0.10223664 3:1 4:0 5:0 6:3.0602708 7:0 8:1 #
-0.082846232734727368041127704145765 1:0.21203211 2:1.4322857 3:14 4:0 5:0 6:11.082222 7:0 8:1 #
-0.12703089019324864672455532854656 1:0.015087652 2:0.10229395 3:1 4:0 5:0 6:6.1205416 7:1 8:0 #
0.13807705455787894210928357097146 1:0.015087652 2:0.10229395 3:1 4:0 5:0 6:3.0602708 7:1 8:0 #
0.18226171201640012364819654067105 1:0.47059831 2:3.1717553 3:31 4:0 5:0 6:6.094614 7:0 8:1 #
-0.16016938328713953287874005582125 1:0.014863038 2:0.10223664 3:1 4:0 5:0 6:3.0602708 7:1 8:0 #
-0.055230821823151560190368059011234 1:0.517232 2:0.34333596 3:1 4:0 5:0 6:1.9924302 7:1 8:0 #
-1.7347234759768070944119244813919e-18 1:1.0129042 2:0.34351078 3:1 4:0 5:0 6:1.9924302 7:1 8:0 #
-0.044184657458521250927852008771879 1:0.98933166 2:0.34345952 3:1 4:0 5:0 6:1.9924302 7:1 8:0 #
0.044184657458521250927852008771879 1:5.582077 2:2.0609436 3:6 4:0 5:0 6:3.1565585 7:0 8:1 #
-0.01104616436463031273196300219297 1:0.54704267 2:0.34335154 3:1 4:0 5:0 6:1.9924302 7:0 8:1 #
-0.022092328729260632402819908293168 1:7.3142853 2:3.0916486 3:9 4:0 5:0 6:2.6388626 7:1 8:0 #
-0.06627698618778186945288410925059 1:0.517232 2:0.34333596 3:1 4:0 5:0 6:1.9924302 7:1 8:0 #
0.01104616436463031273196300219297 1:1.0642747 2:0.68668753 3:2 4:0 5:0 6:1.4816046 7:0 8:1 #
0.033138493093890941665335958532523 1:2.1322148 2:1.0304902 3:3 4:0 5:0 6:3.4353969 7:0 8:1 #
0.055230821823151560190368059011234 1:0.517232 2:0.34333596 3:1 4:0 5:0 6:1.9924302 7:0 8:1 #
-0.033138493093890941665335958532523 1:7.3142853 2:3.4354029 3:10 4:0 5:0 6:3.4890013 7:0 8:1 #
0.022092328729260628933372956339554 1:3.9507301 2:1.373751 3:4 4:0 5:0 6:6.2567253 7:0 8:1 #
0.06627698618778186945288410925059 1:1.0129042 2:0.34351078 3:1 4:0 5:0 6:1.9924302 7:1 8:0 #
-0.016569246546945467363221027312647 1:2.4266872 2:0.4005391 3:2 4:0 5:0 6:4.2564635 7:0 8:1 #
0.016569246546945470832667979266262 1:0.81439561 2:0.60056311 3:3 4:0 5:0 6:5.3752785 7:0 8:1 #
-0.071800068370097031023036038277496 1:0.82013583 2:0.20035033 3:1 4:0 5:0 6:2.6390574 7:0 8:1 #
0.027615410911575783564630981459231 1:5.4161601 2:0.80101961 3:4 4:0 5:0 6:7.7022252 7:1 8:0 #
-0.082846232734727354163339896331308 1:2.2098193 2:0.20022987 3:1 4:0 5:0 6:2.6390574 7:1 8:0 #
-0.027615410911575783564630981459231 1:13.124706 2:3.0035663 3:15 4:0 5:0 6:4.5552363 7:0 8:1 #
-0.0055230821823151572333432390848884 1:6.7526822 2:1.8017709 3:9 4:0 5:0 6:7.1390758 7:1 8:0 #
0.038661575276206096296593983652201 1:7.2571454 2:1.6020755 3:8 4:0 5:0 6:4.5222812 7:0 8:1 #
0.049707739640836405559110033891557 1:0.42193577 2:0.20022854 3:1 4:0 5:0 6:2.6390574 7:0 8:1 #
0.082846232734727354163339896331308 1:0.85528159 2:0.60081112 3:3 4:0 5:0 6:5.3752785 7:1 8:0 #
0.060753904005466714821626084130912 1:1.6696773 2:1.00105 3:5 4:0 5:0 6:8.0386457 7:0 8:1 #
0.0055230821823151554986197631080813 1:6.7526822 2:1.8017709 3:9 4:0 5:0 6:7.1390758 7:1 8:0 #
0.071800068370097031023036038277496 1:1.6696773 2:1.00105 3:5 4:0 5:0 6:8.0386457 7:0 8:1 #
-0.038661575276206096296593983652201 1:3.1246665 2:0.40026546 3:2 4:0 5:0 6:4.2564635 7:1 8:0 #
-0.060753904005466714821626084130912 1:3.9390621 2:0.80050433 3:4 4:0 5:0 6:6.1617804 7:1 8:0 #
-0.049707739640836405559110033891557 1:5.1758566 2:1.0008186 3:5 4:0 5:0 6:9.3784208 7:1 8:0 #
0.038661575276206096296593983652201 1:3.9754941 2:0.346432 3:1 4:0 5:0 6:2.3025851 7:1 8:0 #
-0.038661575276206096296593983652201 1:0 2:0.34643489 3:1 4:0 5:0 6:2.3025851 7:0 8:1 #
0.016569246546945470832667979266262 1:1.3054981 2:0.34647992 3:1 4:0 5:0 6:2.3025851 7:1 8:0 #
0.027615410911575787034077933412846 1:3.9754941 2:0.346432 3:1 4:0 5:0 6:2.3025851 7:1 8:0 #
-0.049707739640836405559110033891557 1:25.692099 2:4.8503499 3:14 4:0 5:0 6:4.6784143 7:0 8:1 #
-0.016569246546945470832667979266262 1:5.2809925 2:0.69291192 3:2 4:0 5:0 6:3.583519 7:1 8:0 #
-0.0055230821823151554986197631080813 1:4.8877239 2:0.34655797 3:1 4:0 5:0 6:2.3025851 7:1 8:0 #
-0.027615410911575787034077933412846 1:7.4705768 2:1.385811 3:4 4:0 5:0 6:7.2238369 7:0 8:1 #
0.0055230821823151572333432390848884 1:3.9754941 2:0.346432 3:1 4:0 5:0 6:2.3025851 7:1 8:0 #
0.049707739640836405559110033891557 1:0 2:0.34643489 3:1 4:0 5:0 6:2.3025851 7:1 8:0 #
-0.044184657458521250927852008771879 1:4.3376098 2:1.0688448 3:3 4:0 5:0 6:6.6389189 7:1 8:0 #
-0.2098771229279758621100171467333 1:4.2749143 2:0.71186405 3:2 4:0 5:0 6:5.0988903 7:1 8:0 #
0.1988309585633455667252889043084 1:0.36410266 2:0.35613069 3:1 4:0 5:0 6:3.0602708 7:1 8:0 #
0.13807705455787894210928357097146 1:6.934835 2:1.068633 3:3 4:0 5:0 6:4.4259458 7:0 8:1 #
0.20435404074566071441765302552085 1:1.8460792 2:0.35628337 3:1 4:0 5:0 6:3.0602708 7:0 8:1 #
-0.2209232872926061574947453891582 1:30.165821 2:5.343133 3:15 4:1 5:1 6:9.423646 7:1 8:0 #
0.055230821823151560190368059011234 1:1.7278575 2:0.35567892 3:1 4:0 5:0 6:3.0602708 7:1 8:0 #
0.12703089019324861896897971291764 1:1.7003282 2:0.35624942 3:1 4:0 5:0 6:3.0602708 7:0 8:1 #
0.13255397237556379441691944975901 1:2.1353893 2:0.35600251 3:1 4:0 5:0 6:3.0602708 7:1 8:0 #
-0.099415479281672838873795683412027 1:2.2153382 2:0.35630569 3:1 4:0 5:0 6:3.0602708 7:1 8:0 #
-0.26510794475112742230038520574453 1:30.165821 2:5.343133 3:15 4:0 5:0 6:9.423646 7:1 8:0 #
-0.1877847941987152713405606618835 1:2.5852957 2:1.0685965 3:3 4:0 5:0 6:6.6389189 7:1 8:0 #
-0.24853869820418192371214161084936 1:33.967175 2:6.0558753 3:17 4:0 5:0 6:9.0530252 7:0 8:1 #
-0.077323150552412192593187967304402 1:4.2749143 2:0.71186405 3:2 4:0 5:0 6:5.0988903 7:1 8:0 #
0.2209232872926061574947453891582 1:45.026775 2:6.0560412 3:17 4:0 5:0 6:9.0530252 7:1 8:0 #
-0.12150780801093348515440339951965 1:2.5470567 2:0.35618511 3:1 4:1 5:1 6:3.0602708 7:1 8:0 #
0.088369314917042515733491825358215 1:5.6155605 2:0.71192974 3:2 4:1 5:1 6:2.5494452 7:1 8:0 #
0.099415479281672838873795683412027 1:9.6527061 2:1.4245003 3:4 4:0 5:0 6:7.8466339 7:1 8:0 #
0.022092328729260625463926004385939 1:7.7398496 2:2.1374156 3:6 4:0 5:0 6:9.5636024 7:1 8:0 #
-0.2209232872926061574947453891582 1:0 2:0.35639295 3:1 4:0 5:0 6:3.0602708 7:1 8:0 #
0.28720027348038812409214415310998 1:47.858028 2:6.7685356 3:19 4:0 5:0 6:11.887714 7:0 8:1 #
0.24301561602186674826420187400799 1:53.365322 2:11.044296 3:31 4:0 5:0 6:2.078783 7:1 8:0 #
-0.1767386298340849759558324194586 1:9.0285101 2:2.4935181 3:7 4:0 5:0 6:10.15583 7:1 8:0 #
-0.2098771229279758621100171467333 1:10.731161 2:1.4249177 3:4 4:1 5:1 6:7.8466339 7:1 8:0 #
0.049707739640836405559110033891557 1:1.7278575 2:0.35567892 3:1 4:1 5:1 6:3.0602708 7:1 8:0 #
-0.1656924654694546805711041770337 1:2.2153382 2:0.35630569 3:1 4:0 5:0 6:3.0602708 7:1 8:0 #
-0.13255397237556379441691944975901 1:2.2153382 2:0.35630569 3:1 4:0 5:0 6:3.0602708 7:1 8:0 #
-0.060753904005466714821626084130912 1:4.7623949 2:0.7124908 3:2 4:1 5:1 6:5.0988903 7:1 8:0 #
-0.1988309585633455667252889043084 1:4.2749143 2:0.71186405 3:2 4:0 5:0 6:5.0988903 7:1 8:0 #
0.03866157527620610323548788755943 1:3.8877032 2:0.35625082 3:1 4:0 5:0 6:3.0602708 7:0 8:1 #
-0.06627698618778186945288410925059 1:4.2749143 2:0.71186405 3:2 4:0 5:0 6:5.0988903 7:1 8:0 #
0.17121554765176982826346829824615 1:9.901185 2:1.7803828 3:5 4:0 5:0 6:7.043951 7:0 8:1 #
0.033138493093890948604229862439752 1:35.439854 2:8.1941633 3:23 4:0 5:0 6:4.0135612 7:1 8:0 #
-0.011046164364630309262516050239356 1:2.5416992 2:0.35617235 3:1 4:0 5:0 6:3.0602708 7:1 8:0 #
-0.13255397237556379441691944975901 1:2.2153382 2:0.35630569 3:1 4:0 5:0 6:3.0602708 7:0 8:1 #
0.28167719129807294864420441626862 1:1.7278575 2:0.35567892 3:1 4:0 5:0 6:6.1205416 7:0 8:1 #
-0.1767386298340849759558324194586 1:2.2153382 2:0.35630569 3:1 4:0 5:0 6:3.0602708 7:0 8:1 #
-0.033138493093890948604229862439752 1:12.083174 2:2.1372354 3:6 4:0 5:0 6:11.157537 7:1 8:0 #
0.2098771229279758621100171467333 1:9.867835 2:1.7809297 3:5 4:0 5:0 6:7.043951 7:1 8:0 #
-0.055230821823151560190368059011234 1:0.44990641 2:0.71259397 3:2 4:0 5:0 6:5.0988903 7:1 8:0 #
0.011046164364630309262516050239356 1:3.8521461 2:1.7811649 3:5 4:0 5:0 6:8.8049393 7:1 8:0 #
0.27615410911575777319626467942726 1:16.25647 2:2.8495142 3:8 4:0 5:0 6:11.931027 7:0 8:1 #
-0.2319694516572364528794736315831 1:19.065432 2:3.56194 3:10 4:1 5:1 6:8.9148855 7:1 8:0 #
-0.2098771229279758621100171467333 1:8.1894617 2:1.0687532 3:3 4:1 5:1 6:6.6389189 7:1 8:0 #
0.25406178038649707140450573206181 1:0.36410266 2:0.35613069 3:1 4:0 5:0 6:3.0602708 7:1 8:0 #
0.12703089019324864672455532854656 1:1.9954695 2:1.0687976 3:3 4:0 5:0 6:6.6389189 7:0 8:1 #
0.14912321892250923749401181339636 1:10.880451 2:2.1373162 3:6 4:0 5:0 6:4.7818012 7:0 8:1 #
0.11046164364630316201409954146584 1:16.25647 2:2.8495142 3:8 4:0 5:0 6:14.582367 7:1 8:0 #
-0.022092328729260632402819908293168 1:3.7847085 2:0.71269214 3:2 4:0 5:0 6:5.0988903 7:1 8:0 #
-5.2041704279304212832357734441757e-18 1:46.231789 2:6.4124417 3:18 4:0 5:0 6:12.055234 7:1 8:0 #
-0.1656924654694546805711041770337 1:2.2153382 2:0.35630569 3:1 4:0 5:0 6:3.0602708 7:0 8:1 #
-0.23749253383955160057183775279555 1:1.2050136 2:0.35640088 3:1 4:1 5:1 6:3.0602708 7:1 8:0 #
0.26510794475112742230038520574453 1:3.8013525 2:0.71274233 3:2 4:0 5:0 6:5.0988903 7:1 8:0 #
0.12150780801093348515440339951965 1:6.0877647 2:1.0688729 3:3 4:0 5:0 6:4.4259458 7:1 8:0 #
0.06627698618778186945288410925059 1:1.7278575 2:0.35567892 3:1 4:0 5:0 6:3.0602708 7:1 8:0 #
-0.093892397099357677303643754385121 1:2.3042126 2:0.92371762 3:5 4:0 5:0 6:5.3590975 7:0 8:1 #
0.049707739640836405559110033891557 1:0.69851923 2:0.18472914 3:1 4:0 5:0 6:2.6390574 7:1 8:0 #
-0.027615410911575783564630981459231 1:6.2175064 2:2.0323572 3:11 4:0 5:0 6:7.2261047 7:0 8:1 #
0.038661575276206096296593983652201 1:1.038128 2:0.55424345 3:3 4:0 5:0 6:3.583519 7:0 8:1 #
0.0055230821823151572333432390848884 1:0.16605307 2:0.18469743 3:1 4:0 5:0 6:2.6390574 7:1 8:0 #
-0.082846232734727354163339896331308 1:0.72862124 2:0.18481188 3:1 4:0 5:0 6:2.6390574 7:1 8:0 #
0.016569246546945467363221027312647 1:1.0403665 2:0.55428016 3:3 4:0 5:0 6:5.3752785 7:1 8:0 #
-0.0055230821823151554986197631080813 1:2.0793333 2:1.108496 3:6 4:0 5:0 6:7.0363216 7:1 8:0 #
-0.071800068370097031023036038277496 1:0.17117602 2:0.18478008 3:1 4:0 5:0 6:2.6390574 7:1 8:0 #
-0.060753904005466714821626084130912 1:1.4133155 2:0.36950418 3:2 4:0 5:0 6:4.2564635 7:1 8:0 #
0.082846232734727354163339896331308 1:0.86779076 2:0.36943576 3:2 4:0 5:0 6:4.2564635 7:1 8:0 #
0.071800068370097031023036038277496 1:2.4772544 2:1.1086168 3:6 4:0 5:0 6:7.0363216 7:1 8:0 #
0.093892397099357677303643754385121 1:0.72862124 2:0.18481188 3:1 4:0 5:0 6:2.6390574 7:1 8:0 #
-0.049707739640836405559110033891557 1:0.7017377 2:0.18473832 3:1 4:0 5:0 6:2.6390574 7:0 8:1 #
-0.016569246546945470832667979266262 1:2.0793333 2:1.108496 3:6 4:0 5:0 6:7.0363216 7:1 8:0 #
0.060753904005466714821626084130912 1:0.72862124 2:0.18481188 3:1 4:0 5:0 6:2.6390574 7:1 8:0 #
-0.038661575276206096296593983652201 1:0.70939606 2:0.55418307 3:3 4:0 5:0 6:5.3752785 7:1 8:0 #
0.027615410911575783564630981459231 1:0.7017377 2:0.18473832 3:1 4:0 5:0 6:2.6390574 7:0 8:1 #
0.016569246546945470832667979266262 1:1.9847149 2:0.3596406 3:2 4:0 5:0 6:5.1682997 7:1 8:0 #
-0.038661575276206096296593983652201 1:2.8459907 2:0.17986703 3:1 4:0 5:0 6:2.2335923 7:1 8:0 #
0.0055230821823151554986197631080813 1:4.8307056 2:0.35967809 3:2 4:0 5:0 6:1.7227666 7:0 8:1 #
-0.027615410911575787034077933412846 1:0 2:0.17982955 3:1 4:0 5:0 6:2.2335923 7:1 8:0 #
0.027615410911575787034077933412846 1:10.48178 2:1.4390614 3:8 4:0 5:0 6:6.9858766 7:0 8:1 #
-0.0055230821823151554986197631080813 1:1.9847149 2:0.17981105 3:1 4:0 5:0 6:2.2335923 7:0 8:1 #
0.038661575276206096296593983652201 1:2.8459907 2:0.5397318 3:3 4:0 5:0 6:4.1588831 7:0 8:1 #
-0.016569246546945470832667979266262 1:1.9847149 2:0.35975689 3:2 4:0 5:0 6:3.4455333 7:0 8:1 #
0.022092328729260635872266860246782 1:3.379813 2:0.72047722 3:4 4:0 5:0 6:7.9697208 7:1 8:0 #
0.24301561602186674826420187400799 1:24.977884 2:3.4225512 3:19 4:0 5:0 6:8.41749 7:0 8:1 #
0.088369314917042515733491825358215 1:9.9562082 2:1.6210916 3:9 4:0 5:0 6:12.452158 7:1 8:0 #
0.1546463011048243851863759346088 1:0 2:0.36026675 3:2 4:0 5:0 6:5.1604338 7:1 8:0 #
-0.25406178038649707140450573206181 1:28.233454 2:4.6836143 3:26 4:0 5:0 6:8.1164246 7:0 8:1 #
0.12150780801093348515440339951965 1:0 2:0.18015128 3:1 4:0 5:0 6:3.0910425 7:1 8:0 #
0.1767386298340849759558324194586 1:0 2:0.18015128 3:1 4:1 5:1 6:3.0910425 7:1 8:0 #
-0.1767386298340849759558324194586 1:2.3087163 2:0.36024681 3:2 4:0 5:0 6:5.1604338 7:1 8:0 #
0.25406178038649707140450573206181 1:4.1624479 2:0.72043681 3:4 4:0 5:0 6:7.9697208 7:1 8:0 #
-0.044184657458521250927852008771879 1:1.6166276 2:0.18015313 3:1 4:0 5:0 6:6.182085 7:0 8:1 #
0.27615410911575777319626467942726 1:1.0281935 2:0.18006769 3:1 4:0 5:0 6:3.0910425 7:0 8:1 #
-0.14360013674019408980164769218391 1:1.0281935 2:0.18006769 3:1 4:0 5:0 6:3.0910425 7:1 8:0 #
-0.1988309585633455667252889043084 1:0 2:0.18011546 3:1 4:0 5:0 6:3.0910425 7:1 8:0 #
-0.12150780801093349903219120733411 1:14.205448 2:2.521908 3:14 4:0 5:0 6:12.335383 7:1 8:0 #
-1.7347234759768070944119244813919e-18 1:1.0590531 2:0.18016613 3:1 4:0 5:0 6:3.0910425 7:1 8:0 #
0.2319694516572364528794736315831 1:19.425686 2:2.8821821 3:16 4:0 5:0 6:8.3177662 7:1 8:0 #
0.033138493093890948604229862439752 1:3.3770683 2:0.72043878 3:4 4:0 5:0 6:5.9772906 7:0 8:1 #
-0.2209232872926061574947453891582 1:0 2:0.18020514 3:1 4:0 5:0 6:3.0910425 7:1 8:0 #
0.1656924654694546805711041770337 1:13.556342 2:2.1614761 3:12 4:0 5:0 6:15.532463 7:0 8:1 #
-0.25958486256881224685244546890317 1:2.3087163 2:0.18006863 3:1 4:1 5:1 6:3.0910425 7:1 8:0 #
-0.2098771229279758621100171467333 1:1.0281935 2:0.18006769 3:1 4:0 5:0 6:3.0910425 7:0 8:1 #
-0.1877847941987152713405606618835 1:1.6389431 2:0.18016209 3:1 4:0 5:0 6:3.0910425 7:1 8:0 #
-0.1656924654694546805711041770337 1:3.8843324 2:0.54031569 3:3 4:0 5:0 6:6.7312336 7:1 8:0 #
-0.011046164364630316201409954146584 1:24.977884 2:3.7828448 3:21 4:0 5:0 6:9.8544559 7:0 8:1 #
0.099415479281672838873795683412027 1:9.9562082 2:1.8012071 3:10 4:0 5:0 6:13.741588 7:1 8:0 #
0.1988309585633455667252889043084 1:0 2:0.18018717 3:1 4:0 5:0 6:3.0910425 7:0 8:1 #
0.26510794475112742230038520574453 1:0 2:0.18015128 3:1 4:0 5:0 6:3.0910425 7:0 8:1 #
-0.088369314917042515733491825358215 1:0 2:0.18014233 3:1 4:0 5:0 6:3.0910425 7:1 8:0 #
0.2098771229279758621100171467333 1:0 2:0.36033845 3:2 4:0 5:0 6:7.7406507 7:0 8:1 #
-0.022092328729260625463926004385939 1:3.1458411 2:0.72055113 3:4 4:0 5:0 6:7.9697208 7:1 8:0 #
-0.060753904005466714821626084130912 1:0.49094832 2:0.3603949 3:2 4:0 5:0 6:2.5802169 7:0 8:1 #
-0.13255397237556379441691944975901 1:10.949877 2:2.161593 3:12 4:0 5:0 6:10.678568 7:1 8:0 #
0.011046164364630316201409954146584 1:2.3461447 2:0.3602109 3:2 4:0 5:0 6:5.1604338 7:1 8:0 #
0.13255397237556379441691944975901 1:6.0607476 2:1.0807453 3:6 4:0 5:0 6:8.1235266 7:1 8:0 #
0.044184657458521264805639816586336 1:1.0281935 2:0.18006769 3:1 4:0 5:0 6:6.182085 7:0 8:1 #
-0.033138493093890941665335958532523 1:2.3461447 2:0.18009543 3:1 4:0 5:0 6:3.0910425 7:1 8:0 #
-0.24301561602186674826420187400799 1:1.6166276 2:0.18015313 3:1 4:0 5:0 6:3.0910425 7:0 8:1 #
-0.1546463011048243851863759346088 1:3.8843324 2:0.54031569 3:3 4:0 5:0 6:6.7312336 7:1 8:0 #
-0.11046164364630316201409954146584 1:2.3461447 2:0.18009543 3:1 4:0 5:0 6:3.0910425 7:0 8:1 #
0.14360013674019408980164769218391 1:4.1624479 2:0.72043681 3:4 4:0 5:0 6:7.9697208 7:1 8:0 #
-0.077323150552412192593187967304402 1:1.8086725 2:0.1801126 3:1 4:0 5:0 6:3.0910425 7:1 8:0 #
0.11046164364630316201409954146584 1:0 2:0.36030263 3:2 4:0 5:0 6:5.1604338 7:0 8:1 #
0.1877847941987152713405606618835 1:0 2:0.18018717 3:1 4:1 5:1 6:3.0910425 7:1 8:0 #
-0.099415479281672838873795683412027 1:0 2:0.18018717 3:1 4:0 5:0 6:3.0910425 7:0 8:1 #
-0.06627698618778186945288410925059 1:0 2:0.18015128 3:1 4:0 5:0 6:3.0910425 7:0 8:1 #
0.055230821823151560190368059011234 1:2.3461447 2:0.18009543 3:1 4:0 5:0 6:3.0910425 7:0 8:1 #
-0.2319694516572364528794736315831 1:1.0364276 2:0.1800945 3:1 4:0 5:0 6:3.0910425 7:1 8:0 #
0.066276986187781883330671917065047 1:30.237988 2:5.764607 3:32 4:0 5:0 6:6.1833262 7:0 8:1 #
0.077323150552412192593187967304402 1:2.0867882 2:0.36023372 3:2 4:0 5:0 6:5.1604338 7:1 8:0 #
0.2209232872926061574947453891582 1:1.8086725 2:0.1801126 3:1 4:0 5:0 6:3.0910425 7:1 8:0 #
-0.27615410911575777319626467942726 1:2.0756598 2:0.36020309 3:2 4:1 5:1 6:2.5802169 7:1 8:0 #
0.20435404074566071441765302552085 1:0.1670797 2:0.096394092 3:1 4:0 5:0 6:2.9267395 7:1 8:0 #
0.082846232734727368041127704145765 1:0.65974814 2:0.38548052 3:4 4:0 5:0 6:7.3125086 7:1 8:0 #
-0.16016938328713953287874005582125 1:0.49863827 2:0.28915349 3:3 4:0 5:0 6:6.2383246 7:1 8:0 #
0.13807705455787894210928357097146 1:2.0507085 2:0.28919852 3:3 4:0 5:0 6:6.2383246 7:0 8:1 #
-0.12703089019324864672455532854656 1:0.49354497 2:0.28909603 3:3 4:0 5:0 6:2.0794415 7:1 8:0 #
0.1656924654694546805711041770337 1:0 2:0 3:0 4:0 5:0 6:0 7:0 8:1 #
-0.20435404074566071441765302552085 1:0 2:0.096378289 3:1 4:0 5:0 6:2.9267395 7:0 8:1 #
0.016569246546945474302114931219876 1:1.8655596 2:0.38554645 3:4 4:0 5:0 6:1.8281271 7:1 8:0 #
-0.038661575276206096296593983652201 1:0.33286124 2:0.19277379 3:2 4:0 5:0 6:4.8318276 7:1 8:0 #
0.14912321892250923749401181339636 1:8.1898413 2:2.5060821 3:26 4:0 5:0 6:4.0744233 7:1 8:0 #
-0.19330787638103041903292478309595 1:0 2:0 3:0 4:0 5:0 6:0 7:0 8:1 #
0.049707739640836405559110033891557 1:0.16664472 2:0.096389294 3:1 4:0 5:0 6:2.9267395 7:1 8:0 #
-0.093892397099357677303643754385121 1:2.0447228 2:0.28913143 3:3 4:0 5:0 6:6.2383246 7:0 8:1 #
-0.027615410911575783564630981459231 1:0.1653533 2:0.096374914 3:1 4:0 5:0 6:2.9267395 7:1 8:0 #
0.027615410911575783564630981459231 1:2.878876 2:0.77108753 3:8 4:0 5:0 6:9.5371065 7:1 8:0 #
-0.016569246546945470832667979266262 1:3.4125051 2:0.38553399 3:4 4:0 5:0 6:7.3125086 7:0 8:1 #
-0.13807705455787894210928357097146 1:0.82724941 2:0.48187941 3:5 4:0 5:0 6:9.7647381 7:1 8:0 #
0.19330787638103041903292478309595 1:2.5506494 2:0.86754453 3:9 4:0 5:0 6:10.809127 7:1 8:0 #
-0.071800068370097031023036038277496 1:7.527132 2:2.120568 3:22 4:0 5:0 6:5.6859193 7:0 8:1 #
-0.10493856146398800044394761243893 1:2.0447228 2:0.28913143 3:3 4:0 5:0 6:6.2383246 7:1 8:0 #
-0.17121554765176982826346829824615 1:0.66485029 2:0.38553798 3:4 4:0 5:0 6:7.3125086 7:0 8:1 #
-0.044184657458521250927852008771879 1:3.0202243 2:1.2528845 3:13 4:0 5:0 6:10.942722 7:1 8:0 #
-0.060753904005466714821626084130912 1:0.33028495 2:0.19274504 3:2 4:0 5:0 6:4.8318276 7:1 8:0 #
-0.18226171201640012364819654067105 1:0.49906877 2:0.38553658 3:4 4:0 5:0 6:7.3125086 7:0 8:1 #
-0.082846232734727354163339896331308 1:0.32774821 2:0.19271632 3:2 4:0 5:0 6:7.2477412 7:0 8:1 #
0.10493856146398800044394761243893 1:0.33285674 2:0.19277379 3:2 4:0 5:0 6:4.8318276 7:0 8:1 #
0.18226171201640012364819654067105 1:0.16621202 2:0.096384495 3:1 4:0 5:0 6:2.9267395 7:0 8:1 #
0.0055230821823151554986197631080813 1:0 2:0.096378289 3:1 4:0 5:0 6:2.9267395 7:1 8:0 #
0.11598472582861832358425147049275 1:8.1898413 2:2.3133349 3:24 4:0 5:0 6:3.2047534 7:0 8:1 #
-0.14912321892250923749401181339636 1:0.16282956 2:0.096346207 3:1 4:0 5:0 6:2.9267395 7:1 8:0 #
0.12703089019324864672455532854656 1:2.0507085 2:0.28919852 3:3 4:0 5:0 6:6.2383246 7:1 8:0 #
-0.11598472582861832358425147049275 1:2.3608332 2:0.67466164 3:7 4:0 5:0 6:5.269206 7:0 8:1 #
0.093892397099357677303643754385121 1:0.16664472 2:0.096389294 3:1 4:0 5:0 6:2.9267395 7:1 8:0 #
0.071800068370097031023036038277496 1:8.1898413 2:2.2169039 3:23 4:0 5:0 6:2.6280613 7:0 8:1 #
0.060753904005466714821626084130912 1:0.32565913 2:0.19269241 3:2 4:0 5:0 6:4.8318276 7:1 8:0 #
0.16016938328713953287874005582125 1:8.1898413 2:2.5060821 3:26 4:0 5:0 6:25.878096 7:0 8:1 #
-0.0055230821823151520291728111544671 1:0 2:0.096378289 3:1 4:0 5:0 6:2.9267395 7:1 8:0 #
0.038661575276206110174381791466658 1:0.49821454 2:0.48189571 3:5 4:0 5:0 6:8.1372824 7:0 8:1 #
0.022092328729260625463926004385939 1:0.89539379 2:0.65926731 3:1 4:0 5:0 6:0.69314718 7:0 8:1 #
0.044184657458521250927852008771879 1:1.1163896 2:1.3183773 3:2 4:0 5:0 6:0.36464313 7:1 8:0 #
-0.033138493093890941665335958532523 1:0.22099583 2:0.65910995 3:1 4:0 5:0 6:0.69314718 7:1 8:0 #
0.033138493093890941665335958532523 1:0.89539379 2:0.65926731 3:1 4:0 5:0 6:0.69314718 7:1 8:0 #
0.01104616436463031273196300219297 1:0.89539379 2:0.65926731 3:1 4:0 5:0 6:0.69314718 7:1 8:0 #
-0.055230821823151560190368059011234 1:0.22099583 2:0.65910995 3:1 4:0 5:0 6:0.69314718 7:1 8:0 #
0.055230821823151560190368059011234 1:1.1163896 2:1.3183773 3:2 4:0 5:0 6:0.36464313 7:1 8:0 #
-0.011046164364630314466686478169777 1:0.89539379 2:0.65926731 3:1 4:0 5:0 6:0.69314718 7:1 8:0 #
-0.044184657458521250927852008771879 1:0.22099583 2:0.65910995 3:1 4:0 5:0 6:0.69314718 7:1 8:0 #
-0.022092328729260632402819908293168 1:0.89539379 2:0.65926731 3:1 4:0 5:0 6:0.69314718 7:1 8:0 #
-0.0055230821823151572333432390848884 1:4.5519519 2:2.5885155 3:10 4:0 5:0 6:1.4688454 7:1 8:0 #
-0.016569246546945470832667979266262 1:0.17275375 2:0.25872186 3:1 4:0 5:0 6:2.0794415 7:1 8:0 #
0.016569246546945470832667979266262 1:1.0329069 2:0.25881633 3:1 4:0 5:0 6:2.0794415 7:1 8:0 #
0.0055230821823151572333432390848884 1:4.5519519 2:2.8472965 3:11 4:0 5:0 6:1.659825 7:1 8:0 #
0.055230821823151560190368059011234 1:0.22743885 2:0.11255217 3:1 4:0 5:0 6:2.5902672 7:1 8:0 #
-0.033138493093890941665335958532523 1:0 2:0.11262907 3:1 4:0 5:0 6:2.5902672 7:1 8:0 #
1.7347234759768070944119244813919e-18 1:2.4520309 2:0.78812706 3:7 4:0 5:0 6:8.8274632 7:1 8:0 #
-0.055230821823151560190368059011234 1:2.1222146 2:1.1259512 3:10 4:0 5:0 6:3.866142 7:0 8:1 #
-0.011046164364630316201409954146584 1:0 2:0.11248952 3:1 4:1 5:1 6:2.5902672 7:1 8:0 #
0.022092328729260628933372956339554 1:7.4040213 2:1.8018503 3:16 4:0 5:0 6:3.0779502 7:1 8:0 #
0.044184657458521250927852008771879 1:1.425047 2:0.11259839 3:1 4:0 5:0 6:2.5902672 7:1 8:0 #
-0.044184657458521250927852008771879 1:1.425047 2:0.11259839 3:1 4:0 5:0 6:2.5902672 7:1 8:0 #
-0.06627698618778186945288410925059 1:7.4040213 2:2.1395812 3:19 4:0 5:0 6:4.5318875 7:0 8:1 #
0.01104616436463031273196300219297 1:1.7561444 2:0.22525129 3:2 4:0 5:0 6:4.1588831 7:1 8:0 #
0.088369314917042515733491825358215 1:0.70780182 2:0.45031375 3:4 4:0 5:0 6:5.9666195 7:0 8:1 #
0.033138493093890941665335958532523 1:0.23075658 2:0.22518675 3:2 4:0 5:0 6:2.0794415 7:1 8:0 #
0.077323150552412192593187967304402 1:0.23330909 2:0.11259128 3:1 4:0 5:0 6:2.5902672 7:0 8:1 #
-0.088369314917042515733491825358215 1:0.70464075 2:0.56292057 3:5 4:0 5:0 6:5.1639366 7:0 8:1 #
-0.077323150552412192593187967304402 1:0.23769113 2:0.11261928 3:1 4:0 5:0 6:2.5902672 7:1 8:0 #
-0.022092328729260628933372956339554 1:2.1390166 2:0.56295133 3:5 4:0 5:0 6:6.4549208 7:1 8:0 #
0.06627698618778186945288410925059 1:0.22743885 2:0.11255217 3:1 4:0 5:0 6:2.5902672 7:0 8:1 #
-0.016569246546945470832667979266262 1:5.8592868 2:2.873956 3:7 4:0 5:0 6:10.835755 7:0 8:1 #
0.049707739640836405559110033891557 1:1.4109623 2:0.4102971 3:1 4:0 5:0 6:2.8134108 7:1 8:0 #
0.093892397099357677303643754385121 1:19.60605 2:5.7474198 3:14 4:0 5:0 6:7.6261806 7:0 8:1 #
0.055230821823151560190368059011234 1:0 2:0 3:0 4:0 5:0 6:0 7:0 8:1 #
0.06627698618778186945288410925059 1:3.9047198 2:0.82098198 3:2 4:0 5:0 6:2.3025851 7:0 8:1 #
0.033138493093890941665335958532523 1:29.065311 2:8.2107496 3:20 4:0 5:0 6:5.1597242 7:0 8:1 #
-0.011046164364630309262516050239356 1:0 2:0 3:0 4:0 5:0 6:0 7:0 8:1 #
-0.093892397099357677303643754385121 1:2.8940339 2:0.82103646 3:2 4:0 5:0 6:4.6051702 7:1 8:0 #
0.027615410911575783564630981459231 1:19.60605 2:5.3367758 3:13 4:0 5:0 6:8.0104198 7:0 8:1 #
-0.071800068370097031023036038277496 1:1.4176888 2:0.82092154 3:2 4:0 5:0 6:4.6051702 7:1 8:0 #
-0.049707739640836405559110033891557 1:1.4176888 2:0.41033882 3:1 4:0 5:0 6:2.8134108 7:0 8:1 #
0.082846232734727354163339896331308 1:30.281858 2:9.4425297 3:23 4:0 5:0 6:7.548799 7:1 8:0 #
0.10493856146398800044394761243893 1:11.200724 2:2.4628778 3:6 4:0 5:0 6:9.4295158 7:0 8:1 #
0.0055230821823151589680667150616955 1:2.1824515 2:1.2321045 3:3 4:0 5:0 6:5.8983388 7:0 8:1 #
-0.082846232734727354163339896331308 1:2.1824515 2:1.2321045 3:3 4:0 5:0 6:5.8983388 7:1 8:0 #
-0.027615410911575783564630981459231 1:1.5711759 2:1.231786 3:3 4:0 5:0 6:5.8983388 7:0 8:1 #
-0.060753904005466714821626084130912 1:2.813689 2:0.41048515 3:1 4:0 5:0 6:2.8134108 7:1 8:0 #
-0.038661575276206096296593983652201 1:1.4176888 2:0.41033882 3:1 4:0 5:0 6:2.8134108 7:0 8:1 #
-0.082846232734727354163339896331308 1:1.4176888 2:0.41033882 3:1 4:1 5:1 6:2.8134108 7:1 8:0 #
0.016569246546945470832667979266262 1:5.4007754 2:0.82108897 3:2 4:0 5:0 6:4.6051702 7:0 8:1 #
-0.13255397237556379441691944975901 1:0 2:0.56214416 3:2 4:0 5:0 6:3.8338451 7:1 8:0 #
-0.099415479281672838873795683412027 1:0 2:0.56214416 3:2 4:0 5:0 6:3.8338451 7:1 8:0 #
0.022092328729260632402819908293168 1:0 2:0.28096086 3:1 4:0 5:0 6:2.4277482 7:1 8:0 #
-0.1546463011048243851863759346088 1:5.4539318 2:1.9684298 3:7 4:0 5:0 6:6.5464826 7:1 8:0 #
0.099415479281672838873795683412027 1:14.938588 2:4.2180886 3:15 4:0 5:0 6:3.1406929 7:0 8:1 #
-0.077323150552412192593187967304402 1:1.0390358 2:0.28129059 3:1 4:0 5:0 6:2.4277482 7:1 8:0 #
0.06627698618778186945288410925059 1:1.0080649 2:0.28115457 3:1 4:0 5:0 6:2.4277482 7:0 8:1 #
-0.06627698618778186945288410925059 1:7.9228964 2:1.9681352 3:7 4:0 5:0 6:5.7281723 7:1 8:0 #
-0.14360013674019408980164769218391 1:6.4619966 2:2.2495844 3:8 4:0 5:0 6:8.3177662 7:1 8:0 #
0.13255397237556379441691944975901 1:0 2:0.2811833 3:1 4:0 5:0 6:2.4277482 7:1 8:0 #
-0.1656924654694546805711041770337 1:1.0390358 2:0.28129059 3:1 4:0 5:0 6:2.4277482 7:1 8:0 #
0.044184657458521257866745912679107 1:15.977624 2:3.6559677 3:13 4:0 5:0 6:0.691571 7:0 8:1 #
1.7347234759768070944119244813919e-18 1:0 2:0.28096086 3:1 4:0 5:0 6:2.4277482 7:1 8:0 #
0.12150780801093348515440339951965 1:0 2:0.2811833 3:1 4:0 5:0 6:2.4277482 7:1 8:0 #
-0.011046164364630309262516050239356 1:6.2935691 2:1.4059466 3:5 4:0 5:0 6:2.2569306 7:0 8:1 #
0.1546463011048243851863759346088 1:0 2:0.28096086 3:1 4:0 5:0 6:2.4277482 7:1 8:0 #
-0.088369314917042515733491825358215 1:1.0390358 2:0.28129059 3:1 4:0 5:0 6:2.4277482 7:1 8:0 #
0.1104616436463031758918873492803 1:3.4595897 2:0.84343278 3:3 4:0 5:0 6:1.5804504 7:1 8:0 #
0.033138493093890941665335958532523 1:3.9119854 2:0.84349149 3:3 4:0 5:0 6:4.7413511 7:1 8:0 #
-0.044184657458521250927852008771879 1:1.5866731 2:0.56249142 3:2 4:0 5:0 6:3.8338451 7:1 8:0 #
-0.12150780801093348515440339951965 1:4.5514388 2:1.4060013 3:5 4:0 5:0 6:6.7707915 7:0 8:1 #
0.055230821823151560190368059011234 1:1.9926615 2:0.56219429 3:2 4:0 5:0 6:3.8338451 7:0 8:1 #
-0.033138493093890948604229862439752 1:0 2:0.56214416 3:2 4:0 5:0 6:3.8338451 7:1 8:0 #
0.077323150552412192593187967304402 1:15.977624 2:3.6559677 3:13 4:0 5:0 6:0.92209464 7:0 8:1 #
0.011046164364630316201409954146584 1:0 2:0.28096086 3:1 4:0 5:0 6:2.4277482 7:0 8:1 #
-0.022092328729260632402819908293168 1:0 2:0.56214416 3:2 4:0 5:0 6:3.8338451 7:1 8:0 #
-0.11046164364630316201409954146584 1:0 2:0.56214416 3:2 4:0 5:0 6:3.8338451 7:0 8:1 #
-0.055230821823151567129261962918463 1:0.98459655 2:0.28103971 3:1 4:0 5:0 6:2.4277482 7:1 8:0 #
0.088369314917042515733491825358215 1:1.5866731 2:0.84345233 3:3 4:0 5:0 6:6.3218017 7:1 8:0 #
0.1656924654694546805711041770337 1:0 2:0.28096086 3:1 4:0 5:0 6:2.4277482 7:1 8:0 #
0.14360013674019408980164769218391 1:3.8672585 2:1.1246712 3:4 4:0 5:0 6:7.9748158 7:0 8:1 #
0.011046164364630314466686478169777 1:11.98905 2:1.5588913 3:5 4:0 5:0 6:7.1537304 7:0 8:1 #
0.033138493093890941665335958532523 1:32.415771 2:3.7413626 3:12 4:0 5:0 6:6.0976558 7:0 8:1 #
-0.011046164364630314466686478169777 1:1.1236227 2:0.31173915 3:1 4:0 5:0 6:2.7300291 7:1 8:0 #
-0.022092328729260628933372956339554 1:32.415771 2:3.7413626 3:12 4:0 5:0 6:7.9269524 7:0 8:1 #
0.022092328729260628933372956339554 1:39.727001 2:6.5474343 3:21 4:0 5:0 6:8.0929537 7:1 8:0 #
-0.033138493093890941665335958532523 1:41.082565 2:6.8592257 3:22 4:0 5:0 6:5.2090011 7:1 8:0 #
-0.044184657458521250927852008771879 1:0 2:0.7416392 3:4 4:0 5:0 6:5.0740452 7:1 8:0 #
0.011046164364630314466686478169777 1:4.3884749 2:0.37096846 3:2 4:0 5:0 6:1.856298 7:0 8:1 #
-0.033138493093890941665335958532523 1:0 2:0.7416392 3:4 4:0 5:0 6:5.0740452 7:1 8:0 #
0.044184657458521250927852008771879 1:1.5766208 2:0.18532576 3:1 4:0 5:0 6:2.3671236 7:1 8:0 #
0.055230821823151560190368059011234 1:11.227644 2:2.7813568 3:15 4:0 5:0 6:1.4286914 7:0 8:1 #
0.022092328729260628933372956339554 1:11.227644 2:2.2249844 3:12 4:0 5:0 6:7.1589422 7:0 8:1 #
-0.01104616436463031273196300219297 1:3.2732131 2:0.37073091 3:2 4:0 5:0 6:3.7125959 7:1 8:0 #
-0.055230821823151560190368059011234 1:0 2:0.18533145 3:1 4:0 5:0 6:2.3671236 7:1 8:0 #
-0.022092328729260628933372956339554 1:0 2:0.3708933 3:2 4:0 5:0 6:3.7125959 7:0 8:1 #
0.033138493093890941665335958532523 1:1.6965922 2:0.18540516 3:1 4:0 5:0 6:2.3671236 7:1 8:0 #
-0.0055230821823151572333432390848884 1:0.033828516 2:0.26904953 3:1 4:0 5:0 6:1.9924302 7:0 8:1 #
0.016569246546945470832667979266262 1:1.6005799 2:0.80708218 3:3 4:1 5:1 6:1.1451323 7:1 8:0 #
-0.016569246546945470832667979266262 1:0 2:0 3:0 4:0 5:0 6:0 7:0 8:1 #
0.0055230821823151572333432390848884 1:0.033260703 2:0.26899597 3:1 4:0 5:0 6:1.9924302 7:0 8:1 #
-0.0055230821823151520291728111544671 1:16.920105 2:0.74047738 3:5 4:0 5:0 6:3.7190726 7:0 8:1 #
0.0055230821823151554986197631080813 1:3.0552032 2:0.14807704 3:1 4:0 5:0 6:2.5389738 7:1 8:0 #
0.049707739640836405559110033891557 1:0 2:0.29601288 3:2 4:0 5:0 6:4.0562963 7:0 8:1 #
0.060753904005466714821626084130912 1:4.5312557 2:0.14811762 3:1 4:0 5:0 6:2.5389738 7:1 8:0 #
0.093892397099357677303643754385121 1:0 2:0.14812423 3:1 4:0 5:0 6:2.5389738 7:1 8:0 #
-0.016569246546945470832667979266262 1:16.920105 2:0.74047738 3:5 4:1 5:1 6:2.4793818 7:1 8:0 #
0.10493856146398800044394761243893 1:0 2:0.14800639 3:1 4:0 5:0 6:2.5389738 7:1 8:0 #
0.082846232734727354163339896331308 1:15.767787 2:2.3691063 3:16 4:0 5:0 6:7.1950083 7:0 8:1 #
0.038661575276206096296593983652201 1:3.0828681 2:0.1480881 3:1 4:0 5:0 6:2.5389738 7:1 8:0 #
0.071800068370097031023036038277496 1:1.9874194 2:0.14803222 3:1 4:0 5:0 6:2.5389738 7:1 8:0 #
-0.060753904005466714821626084130912 1:6.2226048 2:0.44414964 3:3 4:0 5:0 6:5.0750279 7:1 8:0 #
-0.082846232734727354163339896331308 1:3.1110413 2:0.14809547 3:1 4:0 5:0 6:2.5389738 7:1 8:0 #
-0.049707739640836405559110033891557 1:0 2:0.14808732 3:1 4:0 5:0 6:2.5389738 7:0 8:1 #
-0.038661575276206096296593983652201 1:1.9874194 2:0.14803222 3:1 4:0 5:0 6:2.5389738 7:1 8:0 #
0.027615410911575787034077933412846 1:0 2:0.29616728 3:2 4:0 5:0 6:2.0281482 7:0 8:1 #
-0.027615410911575787034077933412846 1:3.0552032 2:0.14807704 3:1 4:1 5:1 6:2.5389738 7:1 8:0 #
-0.10493856146398800044394761243893 1:3.0828681 2:0.44409364 3:3 4:0 5:0 6:6.7667041 7:1 8:0 #
0.016569246546945470832667979266262 1:16.920105 2:0.88858682 3:6 4:0 5:0 6:5.363184 7:1 8:0 #
-0.093892397099357677303643754385121 1:6.1939092 2:0.59218907 3:4 4:0 5:0 6:7.201808 7:1 8:0 #
-0.071800068370097031023036038277496 1:6.2226048 2:0.44414964 3:3 4:0 5:0 6:5.0750279 7:1 8:0 #
0.06627698618778186945288410925059 1:1.3394216 2:0.1864931 3:1 4:0 5:0 6:2.1594841 7:1 8:0 #
-0.011046164364630316201409954146584 1:1.3664563 2:0.18650238 3:1 4:0 5:0 6:4.3189683 7:0 8:1 #
0.044184657458521250927852008771879 1:5.055182 2:0.5594762 3:3 4:0 5:0 6:2.6243727 7:0 8:1 #
-0.055230821823151560190368059011234 1:9.0141439 2:1.4921498 3:8 4:0 5:0 6:3.3990655 7:0 8:1 #
-0.033138493093890941665335958532523 1:7.6886001 2:1.3055336 3:7 4:0 5:0 6:3.8503244 7:0 8:1 #
0.022092328729260625463926004385939 1:0 2:0.18652141 3:1 4:0 5:0 6:2.1594841 7:0 8:1 #
-0.022092328729260628933372956339554 1:9.2121716 2:1.4920577 3:8 4:0 5:0 6:3.8239489 7:0 8:1 #
-0.06627698618778186945288410925059 1:1.016533 2:0.18651213 3:1 4:0 5:0 6:2.1594841 7:0 8:1 #
0.033138493093890941665335958532523 1:5.055182 2:0.5594762 3:3 4:0 5:0 6:3.9365592 7:1 8:0 #
-0.044184657458521250927852008771879 1:0 2:0 3:0 4:0 5:0 6:0 7:0 8:1 #
0.011046164364630314466686478169777 1:11.045691 2:2.2381735 3:12 4:0 5:0 6:3.6083057 7:1 8:0 #
0.055230821823151560190368059011234 1:9.2121716 2:1.4920577 3:8 4:0 5:0 6:3.8239489 7:1 8:0 #
-0.0055230821823151572333432390848884 1:0.76748151 2:0.19809984 3:1 4:0 5:0 6:1.5404451 7:1 8:0 #
0.0055230821823151572333432390848884 1:3.6531081 2:0.3960962 3:2 4:0 5:0 6:2.0592389 7:1 8:0 #
-0.06627698618778186945288410925059 1:0.028537557 2:0.1642368 3:1 4:0 5:0 6:2.3671236 7:0 8:1 #
-0.055230821823151560190368059011234 1:0.11624803 2:0.65710223 3:4 4:0 5:0 6:3.8055339 7:0 8:1 #
0.055230821823151560190368059011234 1:0.057965059 2:0.32853889 3:2 4:0 5:0 6:3.7125959 7:0 8:1 #
0.06627698618778186945288410925059 1:0.028537557 2:0.1642368 3:1 4:0 5:0 6:2.3671236 7:1 8:0 #
-0.033138493093890941665335958532523 1:0.029313235 2:0.16429393 3:1 4:0 5:0 6:2.3671236 7:1 8:0 #
-0.022092328729260625463926004385939 1:0.44113716 2:2.4644995 3:15 4:0 5:0 6:0.25398958 7:0 8:1 #
-0.044184657458521250927852008771879 1:0.14591922 2:0.82142073 3:5 4:0 5:0 6:5.3392034 7:1 8:0 #
0.022092328729260628933372956339554 1:0.028645845 2:0.16424495 3:1 4:0 5:0 6:2.3671236 7:0 8:1 #
0.044184657458521250927852008771879 1:0.057510749 2:0.32850623 3:2 4:0 5:0 6:3.7125959 7:1 8:0 #
-0.011046164364630314466686478169777 1:0.057965059 2:0.32853889 3:2 4:0 5:0 6:3.7125959 7:1 8:0 #
0.033138493093890941665335958532523 1:0 2:0 3:0 4:0 5:0 6:0 7:0 8:1 #
0.01104616436463031273196300219297 1:0.17444777 2:0.98565751 3:6 4:0 5:0 6:5.4047194 7:0 8:1 #
0.06627698618778186945288410925059 1:18.010683 2:2.528059 3:10 4:0 5:0 6:7.3966718 7:0 8:1 #
0.077323150552412192593187967304402 1:3.8988698 2:0.50568819 3:2 4:0 5:0 6:4.3495035 7:0 8:1 #
-0.077323150552412192593187967304402 1:3.8988698 2:0.50568819 3:2 4:0 5:0 6:2.1747518 7:0 8:1 #
-0.022092328729260628933372956339554 1:1.1785377 2:0.2527748 3:1 4:0 5:0 6:2.6855774 7:0 8:1 #
-0.06627698618778186945288410925059 1:5.5867548 2:1.2636592 3:5 4:0 5:0 6:4.1588831 7:0 8:1 #
0.044184657458521250927852008771879 1:13.35758 2:1.516871 3:6 4:0 5:0 6:7.3154416 7:0 8:1 #
-0.055230821823151560190368059011234 1:0 2:0.25281698 3:1 4:0 5:0 6:2.6855774 7:1 8:0 #
-0.044184657458521250927852008771879 1:1.3945255 2:0.25264266 3:1 4:0 5:0 6:2.6855774 7:0 8:1 #
0.022092328729260632402819908293168 1:3.8988698 2:0.75850517 3:3 4:0 5:0 6:5.5148382 7:1 8:0 #
0.055230821823151560190368059011234 1:0 2:0 3:0 4:0 5:0 6:0 7:0 8:1 #
0.011046164364630314466686478169777 1:0 2:0.25281698 3:1 4:0 5:0 6:2.6855774 7:0 8:1 #
-0.033138493093890941665335958532523 1:2.689817 2:0.25286305 3:1 4:0 5:0 6:2.6855774 7:0 8:1 #
0.033138493093890941665335958532523 1:25.430454 2:5.3084269 3:21 4:0 5:0 6:0.96555978 7:1 8:0 #
-1.7347234759768070944119244813919e-18 1:1.2927091 2:0.25275251 3:1 4:0 5:0 6:2.6855774 7:0 8:1 #
-0.01104616436463031273196300219297 1:3.573689 2:0.75836581 3:3 4:0 5:0 6:3.676559 7:0 8:1 #
0.06627698618778186945288410925059 1:0 2:0.37707242 3:1 4:0 5:0 6:2.7300291 7:1 8:0 #
-0.077323150552412192593187967304402 1:5.7523994 2:0.37720019 3:1 4:0 5:0 6:2.7300291 7:1 8:0 #
0.044184657458521257866745912679107 1:0 2:0.37707242 3:1 4:0 5:0 6:2.7300291 7:1 8:0 #
-0.088369314917042515733491825358215 1:11.739135 2:1.1311632 3:3 4:0 5:0 6:7.5309248 7:1 8:0 #
0.099415479281672838873795683412027 1:0 2:0.37727869 3:1 4:0 5:0 6:2.7300291 7:1 8:0 #
0.11046164364630316201409954146584 1:1.1025527 2:0.753995 3:2 4:0 5:0 6:4.4384069 7:1 8:0 #
-0.055230821823151560190368059011234 1:6.2996249 2:0.7541464 3:2 4:0 5:0 6:2.2192035 7:0 8:1 #
-0.099415479281672838873795683412027 1:27.806519 2:2.6402028 3:7 4:0 5:0 6:10.08532 7:1 8:0 #
-0.016569246546945470832667979266262 1:24.138226 2:4.9025388 3:13 4:0 5:0 6:0.53280455 7:0 8:1 #
0.022092328729260625463926004385939 1:2.5800967 2:1.1314913 3:3 4:0 5:0 6:5.6481938 7:1 8:0 #
-0.0055230821823151624375136670153097 1:0.54722553 2:0.75431895 3:2 4:0 5:0 6:2.2192035 7:0 8:1 #
0.077323150552412192593187967304402 1:3.1273224 2:0.75389904 3:2 4:0 5:0 6:4.4384069 7:1 8:0 #
-0.022092328729260632402819908293168 1:0 2:0.37709114 3:1 4:0 5:0 6:2.7300291 7:0 8:1 #
0.088369314917042515733491825358215 1:0.54722553 2:0.37694621 3:1 4:0 5:0 6:2.7300291 7:1 8:0 #
-0.044184657458521250927852008771879 1:27.806519 2:2.6402028 3:7 4:0 5:0 6:10.08532 7:1 8:0 #
0.033138493093890941665335958532523 1:3.6600285 2:0.75450993 3:2 4:0 5:0 6:4.4384069 7:1 8:0 #
0.055230821823151560190368059011234 1:2.7984147 2:0.37695017 3:1 4:0 5:0 6:2.7300291 7:1 8:0 #
-0.06627698618778186945288410925059 1:2.7984147 2:0.37695017 3:1 4:0 5:0 6:2.7300291 7:1 8:0 #
-0.11046164364630316201409954146584 1:3.9866807 2:0.37714431 3:1 4:0 5:0 6:2.7300291 7:1 8:0 #
0.01104616436463031273196300219297 1:2.5800967 2:1.1314913 3:3 4:0 5:0 6:5.6481938 7:1 8:0 #
-0.022092328729260632402819908293168 1:0 2:0.37709114 3:1 4:1 5:1 6:2.7300291 7:1 8:0 #
-0.016569246546945470832667979266262 1:0.97574574 2:0.29016668 3:1 4:0 5:0 6:1.5404451 7:0 8:1 #
-0.0055230821823151572333432390848884 1:0.97574574 2:0.29016668 3:1 4:0 5:0 6:1.5404451 7:1 8:0 #
0.0055230821823151572333432390848884 1:0 2:0.29021302 3:1 4:0 5:0 6:1.5404451 7:0 8:1 #
0.016569246546945470832667979266262 1:0.61764026 2:0.29017696 3:1 4:0 5:0 6:1.5404451 7:0 8:1 #
0.022092328729260625463926004385939 1:0.071744636 2:0.72861481 3:3 4:0 5:0 6:5.0750279 7:1 8:0 #
0.06627698618778186945288410925059 1:0.95978993 2:0.97145534 3:4 4:0 5:0 6:5.7614465 7:1 8:0 #
-0.11046164364630316201409954146584 1:9.3068218 2:3.8858144 3:16 4:0 5:0 6:2.5394149 7:0 8:1 #
0.055230821823151560190368059011234 1:0.45924887 2:0.24287063 3:1 4:0 5:0 6:2.5389738 7:1 8:0 #
-0.055230821823151560190368059011234 1:0.023824815 2:0.24285547 3:1 4:0 5:0 6:2.5389738 7:1 8:0 #
-0.044184657458521250927852008771879 1:1.2669193 2:0.24283504 3:1 4:0 5:0 6:2.5389738 7:1 8:0 #
0.099415479281672838873795683412027 1:0.91413176 2:0.24297094 3:1 4:0 5:0 6:2.5389738 7:0 8:1 #
-0.088369314917042515733491825358215 1:0.024095008 2:0.24290381 3:1 4:0 5:0 6:2.5389738 7:1 8:0 #
-0.011046164364630316201409954146584 1:0.45758596 2:0.24285854 3:1 4:0 5:0 6:2.5389738 7:1 8:0 #
0.088369314917042515733491825358215 1:10.244779 2:4.3716407 3:18 4:0 5:0 6:0.26668248 7:1 8:0 #
-0.099415479281672838873795683412027 1:2.5959797 2:0.48575449 3:2 4:0 5:0 6:4.0562963 7:0 8:1 #
0.044184657458521257866745912679107 1:0.45758596 2:0.24285854 3:1 4:0 5:0 6:2.5389738 7:0 8:1 #
-0.077323150552412192593187967304402 1:2.5959797 2:0.48575449 3:2 4:0 5:0 6:4.0562963 7:1 8:0 #
-0.06627698618778186945288410925059 1:0.023824815 2:0.24285547 3:1 4:0 5:0 6:2.5389738 7:1 8:0 #
0.077323150552412192593187967304402 1:0.048054155 2:0.48578575 3:2 4:0 5:0 6:4.0562963 7:1 8:0 #
0.011046164364630316201409954146584 1:10.244779 2:4.3716407 3:18 4:0 5:0 6:0.48002845 7:0 8:1 #
-0.022092328729260628933372956339554 1:0.023824815 2:0.24285547 3:1 4:0 5:0 6:2.5389738 7:1 8:0 #
-0.033138493093890941665335958532523 1:3.5150599 2:1.6999959 3:7 4:0 5:0 6:6.5067515 7:1 8:0 #
0.11046164364630316201409954146584 1:0.91413176 2:0.24297094 3:1 4:0 5:0 6:2.5389738 7:0 8:1 #
0.033138493093890941665335958532523 1:0.45593506 2:0.24284954 3:1 4:0 5:0 6:2.5389738 7:1 8:0 #
-1.7347234759768070944119244813919e-18 1:0.45758596 2:0.24285854 3:1 4:0 5:0 6:2.5389738 7:1 8:0 #
0.02761541091157579050352488536646 1:10.913408 2:2.4756153 3:4 4:0 5:0 6:9.2103405 7:1 8:0 #
0.10493856146398800044394761243893 1:0.28156736 2:0.61884153 3:1 4:0 5:0 6:3.4011974 7:1 8:0 #
0.14912321892250923749401181339636 1:0 2:0 3:0 4:0 5:0 6:0 7:0 8:1 #
0.20435404074566071441765302552085 1:1.2713174 2:0.61904073 3:1 4:0 5:0 6:3.4011974 7:0 8:1 #
0.18226171201640012364819654067105 1:1.7232302 2:0.61868119 3:1 4:0 5:0 6:3.4011974 7:0 8:1 #
0.049707739640836405559110033891557 1:64.077194 2:25.383337 3:41 4:0 5:0 6:14.979277 7:1 8:0 #
0.21540020511029100980238126794575 1:5.5100632 2:1.2380986 3:2 4:0 5:0 6:5.7807436 7:0 8:1 #
-0.082846232734727354163339896331308 1:1.2713174 2:0.61904073 3:1 4:0 5:0 6:3.4011974 7:1 8:0 #
-0.14912321892250923749401181339636 1:0.2853004 2:0.61914229 3:1 4:0 5:0 6:3.4011974 7:1 8:0 #
-0.17121554765176982826346829824615 1:61.699806 2:19.810665 3:32 4:0 5:0 6:9.7626724 7:0 8:1 #
0.01656924654694547777156188317349 1:10.913408 2:2.4756153 3:4 4:0 5:0 6:9.2103405 7:1 8:0 #
-0.19330787638103041903292478309595 1:1.2713174 2:0.61904073 3:1 4:0 5:0 6:3.4011974 7:0 8:1 #
-0.038661575276206096296593983652201 1:1.7232302 2:0.61868119 3:1 4:0 5:0 6:3.4011974 7:0 8:1 #
0.03866157527620610323548788755943 1:2.9328361 2:1.2373242 3:2 4:0 5:0 6:5.7807436 7:1 8:0 #
-0.14360013674019408980164769218391 1:60.327873 2:20.429596 3:33 4:0 5:0 6:9.4437456 7:0 8:1 #
0.16016938328713953287874005582125 1:5.3623815 2:1.2373013 3:2 4:0 5:0 6:5.7807436 7:0 8:1 #
0.19330787638103041903292478309595 1:2.6512687 2:0.61848271 3:1 4:0 5:0 6:3.4011974 7:1 8:0 #
-0.055230821823151560190368059011234 1:9.7312889 2:4.3325567 3:7 4:0 5:0 6:14.334076 7:1 8:0 #
0.12703089019324864672455532854656 1:38.933765 2:14.858419 3:24 4:0 5:0 6:17.631691 7:0 8:1 #
0.093892397099357677303643754385121 1:36.900234 2:8.6654043 3:14 4:0 5:0 6:14.72268 7:0 8:1 #
0.0055230821823151589680667150616955 1:1.7232302 2:0.61868119 3:1 4:0 5:0 6:6.8023949 7:1 8:0 #
-0.18226171201640012364819654067105 1:0.88792974 2:0.61927933 3:1 4:0 5:0 6:3.4011974 7:0 8:1 #
-0.1104616436463031758918873492803 1:60.330971 2:20.429789 3:33 4:0 5:0 6:9.1486282 7:0 8:1 #
0.14912321892250923749401181339636 1:60.921017 2:19.190969 3:31 4:0 5:0 6:10.343574 7:0 8:1 #
-0.13255397237556379441691944975901 1:8.028019 2:4.3339677 3:7 4:0 5:0 6:12.542316 7:1 8:0 #
-0.093892397099357677303643754385121 1:5.3623815 2:1.2373013 3:2 4:0 5:0 6:5.7807436 7:1 8:0 #
0.060753904005466714821626084130912 1:0.2853004 2:0.61914229 3:1 4:0 5:0 6:3.4011974 7:1 8:0 #
-0.0055230821823151589680667150616955 1:57.288612 2:16.714499 3:27 4:0 5:0 6:12.804389 7:0 8:1 #
-0.027615410911575787034077933412846 1:1.7232302 2:0.61868119 3:1 4:0 5:0 6:3.4011974 7:0 8:1 #
-0.20435404074566071441765302552085 1:5.215209 2:2.4768102 3:4 4:0 5:0 6:9.2103405 7:0 8:1 #
-0.049707739640836419436897841706013 1:9.4718781 2:3.7139614 3:6 4:0 5:0 6:15.478883 7:0 8:1 #
-0.21540020511029100980238126794575 1:4.3246789 2:1.8574692 3:3 4:0 5:0 6:7.6616983 7:1 8:0 #
-0.06627698618778186945288410925059 1:7.9837909 2:3.7135999 3:6 4:0 5:0 6:13.544023 7:1 8:0 #
-0.016569246546945467363221027312647 1:0 2:0 3:0 4:0 5:0 6:0 7:0 8:1 #
0.13807705455787894210928357097146 1:58.751072 2:19.810678 3:32 4:0 5:0 6:22.454145 7:0 8:1 #
0.071800068370097031023036038277496 1:67.493759 2:26.003096 3:42 4:0 5:0 6:9.9455643 7:1 8:0 #
-0.13255397237556379441691944975901 1:60.327873 2:20.429596 3:33 4:0 5:0 6:9.4437456 7:0 8:1 #
-0.12150780801093348515440339951965 1:60.330971 2:20.429789 3:33 4:0 5:0 6:9.1486282 7:0 8:1 #
0.082846232734727354163339896331308 1:0.57018787 2:1.2382538 3:2 4:0 5:0 6:5.7807436 7:0 8:1 #
0.12150780801093348515440339951965 1:8.3095865 2:4.9528093 3:8 4:0 5:0 6:13.33277 7:1 8:0 #
-0.011046164364630314466686478169777 1:0 2:0.39964131 3:2 4:0 5:0 6:1.7509375 7:1 8:0 #
-0.022092328729260628933372956339554 1:0 2:0.19987033 3:1 4:0 5:0 6:1.3862944 7:0 8:1 #
0.01104616436463031273196300219297 1:1.5237287 2:0.19975631 3:1 4:0 5:0 6:1.3862944 7:0 8:1 #
-0.033138493093890941665335958532523 1:0 2:0.19987033 3:1 4:0 5:0 6:1.3862944 7:0 8:1 #
0.022092328729260628933372956339554 1:1.5237287 2:0.5993976 3:3 4:0 5:0 6:1.6169895 7:0 8:1 #
0.033138493093890941665335958532523 1:1.5237287 2:0.19975631 3:1 4:0 5:0 6:1.3862944 7:1 8:0 #
0.016569246546945470832667979266262 1:0 2:0.1428286 3:1 4:0 5:0 6:1.6739764 7:1 8:0 #
-0.027615410911575787034077933412846 1:0 2:0.28551486 3:2 4:0 5:0 6:2.3263016 7:0 8:1 #
0.0055230821823151572333432390848884 1:0 2:0.28545815 3:2 4:0 5:0 6:1.1631508 7:1 8:0 #
-0.016569246546945470832667979266262 1:0 2:0.14276452 3:1 4:0 5:0 6:1.6739764 7:0 8:1 #
0.027615410911575787034077933412846 1:1.023213 2:0.9994784 3:7 4:0 5:0 6:0.51630819 7:0 8:1 #
-0.0055230821823151572333432390848884 1:1.023213 2:0.9994784 3:7 4:0 5:0 6:2.2588482 7:1 8:0 #
-0.0055230821823151572333432390848884 1:0.081753917 2:0.99925238 3:1 4:0 5:0 6:0.98082924 7:0 8:1 #
0.0055230821823151572333432390848884 1:0.081753917 2:0.99925238 3:1 4:0 5:0 6:0.98082924 7:1 8:0 #
-0.016569246546945470832667979266262 1:0.19002262 2:1.9991025 3:2 4:0 5:0 6:0.94000727 7:0 8:1 #
0.016569246546945470832667979266262 1:0.29017115 2:2.9988029 3:3 4:0 5:0 6:0.13353139 7:0 8:1 #
-0.0055230821823151572333432390848884 1:0 2:0.40593317 3:1 4:0 5:0 6:0.98082924 7:0 8:1 #
0.0055230821823151572333432390848884 1:2.7017071 2:0.81215203 3:2 4:0 5:0 6:0.94000727 7:1 8:0 #
-0.06627698618778186945288410925059 1:2.3917377 2:0.63545233 3:4 4:0 5:0 6:5.3165436 7:1 8:0 #
-0.033138493093890948604229862439752 1:8.9175301 2:1.1118168 3:7 4:0 5:0 6:5.7281723 7:1 8:0 #
0.022092328729260628933372956339554 1:3.2810915 2:0.31764305 3:2 4:0 5:0 6:3.8338451 7:1 8:0 #
-0.022092328729260632402819908293168 1:2.3917377 2:0.63545233 3:4 4:0 5:0 6:5.3165436 7:1 8:0 #
-0.044184657458521250927852008771879 1:4.6166978 2:0.47643012 3:3 4:0 5:0 6:4.7413511 7:1 8:0 #
0.06627698618778186945288410925059 1:8.8034878 2:1.9061344 3:12 4:0 5:0 6:8.6095715 7:0 8:1 #
0.01104616436463031273196300219297 1:3.2810915 2:0.31764305 3:2 4:0 5:0 6:3.8338451 7:1 8:0 #
-0.12150780801093348515440339951965 1:0 2:0.15884134 3:1 4:0 5:0 6:2.4277482 7:1 8:0 #
0.099415479281672838873795683412027 1:10.618898 2:2.5415111 3:16 4:0 5:0 6:1.5225011 7:1 8:0 #
-0.055230821823151560190368059011234 1:1.3429444 2:0.15881871 3:1 4:0 5:0 6:2.4277482 7:1 8:0 #
0.088369314917042515733491825358215 1:1.6828153 2:0.31769395 3:2 4:0 5:0 6:3.8338451 7:1 8:0 #
-0.099415479281672838873795683412027 1:0.33798513 2:0.31768495 3:2 4:0 5:0 6:1.9169226 7:0 8:1 #
0.033138493093890941665335958532523 1:0.33798513 2:0.15886733 3:1 4:0 5:0 6:2.4277482 7:1 8:0 #
0.044184657458521250927852008771879 1:4.9639068 2:0.95292491 3:6 4:0 5:0 6:6.7298779 7:1 8:0 #
0.12150780801093348515440339951965 1:10.618898 2:2.5415111 3:16 4:0 5:0 6:1.8508837 7:0 8:1 #
1.7347234759768070944119244813919e-18 1:10.618898 2:2.5415111 3:16 4:0 5:0 6:3.7017674 7:1 8:0 #
-0.077323150552412192593187967304402 1:1.4493957 2:0.47648782 3:3 4:0 5:0 6:4.7413511 7:1 8:0 #
0.055230821823151560190368059011234 1:1.4493957 2:0.31764647 3:2 4:0 5:0 6:3.8338451 7:1 8:0 #
-0.011046164364630309262516050239356 1:1.3429444 2:0.15881871 3:1 4:0 5:0 6:2.4277482 7:1 8:0 #
-0.11046164364630316201409954146584 1:4.6166978 2:0.47643012 3:3 4:0 5:0 6:4.7413511 7:1 8:0 #
0.11046164364630316201409954146584 1:10.618898 2:1.7473596 3:11 4:0 5:0 6:1.5634652 7:0 8:1 #
-0.13255397237556379441691944975901 1:9.9410419 2:2.2237685 3:14 4:0 5:0 6:3.181294 7:0 8:1 #
0.13255397237556379441691944975901 1:10.618898 2:2.5415111 3:16 4:0 5:0 6:3.373385 7:0 8:1 #
0.077323150552412192593187967304402 1:10.618898 2:2.5415111 3:16 4:0 5:0 6:4.2092676 7:0 8:1 #
-0.088369314917042515733491825358215 1:8.8238459 2:2.0649183 3:13 4:0 5:0 6:6.91571 7:1 8:0 #
0.01104616436463031273196300219297 1:0.089989588 2:0.63276941 3:2 4:0 5:0 6:2.3263016 7:1 8:0 #
-0.022092328729260628933372956339554 1:0.042955425 2:0.31624332 3:1 4:0 5:0 6:1.6739764 7:1 8:0 #
0.06627698618778186945288410925059 1:0.045825481 2:0.31645057 3:1 4:0 5:0 6:1.6739764 7:0 8:1 #
0.022092328729260625463926004385939 1:0.71566957 2:0.31636485 3:1 4:0 5:0 6:1.6739764 7:1 8:0 #
1.7347234759768070944119244813919e-18 1:0.047034163 2:0.31652609 3:1 4:0 5:0 6:1.6739764 7:0 8:1 #
-0.011046164364630314466686478169777 1:0.045825481 2:0.31645057 3:1 4:0 5:0 6:1.6739764 7:1 8:0 #
0.044184657458521250927852008771879 1:0.047034163 2:0.31652609 3:1 4:0 5:0 6:1.6739764 7:0 8:1 #
0.033138493093890941665335958532523 1:0.75862497 2:0.63260818 3:2 4:0 5:0 6:2.3263016 7:1 8:0 #
-0.055230821823151560190368059011234 1:2.8758299 2:1.582471 3:5 4:0 5:0 6:1.1240803 7:1 8:0 #
-0.06627698618778186945288410925059 1:2.0211897 2:0.31666628 3:1 4:0 5:0 6:1.6739764 7:1 8:0 #
-0.044184657458521250927852008771879 1:2.9646108 2:2.2151649 3:7 4:0 5:0 6:0.51630819 7:0 8:1 #
0.055230821823151560190368059011234 1:2.9646108 2:2.2151649 3:7 4:0 5:0 6:2.1943097 7:1 8:0 #
-0.033138493093890941665335958532523 1:0.047034163 2:0.31652609 3:1 4:0 5:0 6:1.6739764 7:0 8:1 #
0.038661575276206096296593983652201 1:4.1315832 2:1.4881887 3:8 4:0 5:0 6:2.758724 7:0 8:1 #
0.0055230821823151572333432390848884 1:1.4428048 2:0.18606237 3:1 4:0 5:0 6:2.0794415 7:0 8:1 #
-0.049707739640836405559110033891557 1:0.20003572 2:0.18599662 3:1 4:0 5:0 6:2.0794415 7:1 8:0 #
0.049707739640836405559110033891557 1:5.7937469 2:2.0464644 3:11 4:0 5:0 6:2.7663748 7:1 8:0 #
0.027615410911575787034077933412846 1:0.20705079 2:0.18604289 3:1 4:0 5:0 6:2.0794415 7:0 8:1 #
0.016569246546945470832667979266262 1:0 2:0 3:0 4:0 5:0 6:0 7:0 8:1 #
-0.038661575276206096296593983652201 1:5.7937469 2:2.0464644 3:11 4:0 5:0 6:4.638998 7:1 8:0 #
-0.016569246546945470832667979266262 1:0 2:0.18605916 3:1 4:0 5:0 6:2.0794415 7:1 8:0 #
-0.027615410911575787034077933412846 1:0.89996392 2:0.18596159 3:1 4:0 5:0 6:4.1588831 7:0 8:1 #
-0.0055230821823151554986197631080813 1:2.207267 2:0.18603648 3:1 4:0 5:0 6:2.0794415 7:0 8:1 #
0.033138493093890941665335958532523 1:2.4780045 2:0.12222195 3:1 4:0 5:0 6:1.9924302 7:1 8:0 #
0.055230821823151560190368059011234 1:2.0953779 2:0.24439675 3:2 4:0 5:0 6:2.9632092 7:1 8:0 #
-0.077323150552412192593187967304402 1:0 2:0.12226612 3:1 4:0 5:0 6:1.9924302 7:1 8:0 #
0.088369314917042515733491825358215 1:0 2:0.12226612 3:1 4:0 5:0 6:1.9924302 7:1 8:0 #
-0.099415479281672838873795683412027 1:0 2:0.12221734 3:1 4:0 5:0 6:1.9924302 7:1 8:0 #
0.01104616436463031273196300219297 1:0 2:0.12221734 3:1 4:0 5:0 6:1.9924302 7:1 8:0 #
0.022092328729260625463926004385939 1:0 2:0.12221734 3:1 4:0 5:0 6:1.9924302 7:1 8:0 #
-0.033138493093890941665335958532523 1:0 2:0.12221126 3:1 4:0 5:0 6:1.9924302 7:1 8:0 #
-0.044184657458521250927852008771879 1:5.9823394 2:0.48879811 3:4 4:0 5:0 6:4.4690895 7:1 8:0 #
-0.01104616436463031273196300219297 1:2.4780045 2:0.24440281 3:2 4:0 5:0 6:2.9632092 7:1 8:0 #
-0.088369314917042515733491825358215 1:0 2:0.12226612 3:1 4:0 5:0 6:1.9924302 7:1 8:0 #
0.06627698618778186945288410925059 1:2.0953779 2:0.1221794 3:1 4:0 5:0 6:1.9924302 7:1 8:0 #
-0.06627698618778186945288410925059 1:2.0953779 2:0.1221794 3:1 4:0 5:0 6:1.9924302 7:1 8:0 #
0.077323150552412192593187967304402 1:0 2:0.12226612 3:1 4:0 5:0 6:1.9924302 7:1 8:0 #
-0.022092328729260628933372956339554 1:2.0953779 2:0.24440892 3:2 4:0 5:0 6:2.9632092 7:1 8:0 #
0.099415479281672838873795683412027 1:0 2:0.12221126 3:1 4:0 5:0 6:1.9924302 7:1 8:0 #
-0.055230821823151560190368059011234 1:5.9823394 2:0.48879811 3:4 4:0 5:0 6:4.4690895 7:1 8:0 #
0.044184657458521250927852008771879 1:2.0953779 2:0.24440892 3:2 4:0 5:0 6:2.9632092 7:1 8:0 #
5.2041704279304212832357734441757e-18 1:2.0953779 2:0.1221794 3:1 4:0 5:0 6:1.9924302 7:1 8:0 #
0.071800068370097044900823846091953 1:0.82365328 2:0.2580739 3:1 4:0 5:0 6:3.0910425 7:1 8:0 #
0.13807705455787894210928357097146 1:0.16163588 2:0.25791454 3:1 4:0 5:0 6:3.0910425 7:1 8:0 #
0.24853869820418189595656599522044 1:2.6928639 2:1.2898343 3:5 4:0 5:0 6:14.334076 7:0 8:1 #
0.19330787638103041903292478309595 1:11.65707 2:3.8708248 3:15 4:0 5:0 6:15.113351 7:1 8:0 #
-0.21540020511029100980238126794575 1:0 2:0 3:0 4:0 5:0 6:0 7:0 8:1 #
0.10493856146398801432173542025339 1:0.63493955 2:0.2579295 3:1 4:0 5:0 6:3.0910425 7:1 8:0 #
-0.20435404074566071441765302552085 1:0.16628501 2:0.25809413 3:1 4:0 5:0 6:3.0910425 7:0 8:1 #
0.14912321892250923749401181339636 1:0.74428999 2:0.25763366 3:1 4:0 5:0 6:3.0910425 7:1 8:0 #
-0.23749253383955160057183775279555 1:0.64107955 2:0.25797337 3:1 4:0 5:0 6:3.0910425 7:0 8:1 #
-0.10493856146398800044394761243893 1:0.16326614 2:0.25797856 3:1 4:0 5:0 6:3.0910425 7:1 8:0 #
0.082846232734727368041127704145765 1:23.009865 2:7.9993973 3:31 4:0 5:0 6:6.8849621 7:1 8:0 #
-0.16016938328713953287874005582125 1:1.9251764 2:0.25813064 3:1 4:0 5:0 6:3.0910425 7:0 8:1 #
-0.016569246546945474302114931219876 1:0.32819575 2:0.51602131 3:2 4:0 5:0 6:5.1604338 7:1 8:0 #
-0.0055230821823151520291728111544671 1:0.16492961 2:0.25804272 3:1 4:0 5:0 6:3.0910425 7:1 8:0 #
0.0055230821823151589680667150616955 1:0.49448076 2:0.77411544 3:3 4:0 5:0 6:8.9749784 7:0 8:1 #
-0.11598472582861832358425147049275 1:0.63493955 2:0.2579295 3:1 4:0 5:0 6:3.0910425 7:1 8:0 #
0.11598472582861832358425147049275 1:0 2:0.25801373 3:1 4:0 5:0 6:3.0910425 7:0 8:1 #
0.12703089019324864672455532854656 1:0.16628501 2:0.25809413 3:1 4:0 5:0 6:3.0910425 7:1 8:0 #
0.093892397099357691181431562199577 1:0.63493955 2:0.2579295 3:1 4:0 5:0 6:3.0910425 7:1 8:0 #
0.20435404074566071441765302552085 1:0 2:0.25801373 3:1 4:0 5:0 6:3.0910425 7:1 8:0 #
0.027615410911575783564630981459231 1:22.208298 2:7.4833608 3:29 4:0 5:0 6:4.1483402 7:0 8:1 #
-0.24853869820418189595656599522044 1:19.572653 2:6.4510322 3:25 4:0 5:0 6:6.9613857 7:0 8:1 #
0.038661575276206096296593983652201 1:0 2:0.25801373 3:1 4:0 5:0 6:3.0910425 7:0 8:1 #
-0.093892397099357677303643754385121 1:0.96894664 2:0.5160194 3:2 4:0 5:0 6:5.1604338 7:1 8:0 #
0.18226171201640012364819654067105 1:0.16163588 2:0.25791454 3:1 4:0 5:0 6:3.0910425 7:1 8:0 #
0.23749253383955160057183775279555 1:2.86869 2:1.547807 3:6 4:0 5:0 6:16.247053 7:0 8:1 #
-0.02761541091157579050352488536646 1:0.81865239 2:0.25804821 3:1 4:0 5:0 6:3.0910425 7:0 8:1 #
-0.17121554765176982826346829824615 1:4.3115592 2:0.77415752 3:3 4:0 5:0 6:4.4874892 7:0 8:1 #
0.016569246546945470832667979266262 1:0 2:0 3:0 4:0 5:0 6:0 7:0 8:1 #
-0.22644636947492130518710951037065 1:0.16628501 2:0.25809413 3:1 4:0 5:0 6:3.0910425 7:0 8:1 #
-0.038661575276206096296593983652201 1:23.009865 2:7.9993973 3:31 4:0 5:0 6:15.584206 7:0 8:1 #
0.049707739640836412498003937798785 1:0.16163588 2:0.25791454 3:1 4:0 5:0 6:3.0910425 7:1 8:0 #
-0.18226171201640012364819654067105 1:0.64107955 2:0.25797337 3:1 4:0 5:0 6:3.0910425 7:1 8:0 #
0.060753904005466728699413891945369 1:0.74428999 2:0.25763366 3:1 4:0 5:0 6:3.0910425 7:1 8:0 #
-0.13807705455787894210928357097146 1:0.83384585 2:0.25812536 3:1 4:0 5:0 6:3.0910425 7:0 8:1 #
0.22644636947492130518710951037065 1:2.3599026 2:1.0315953 3:4 4:0 5:0 6:7.9697208 7:1 8:0 #
-0.12703089019324864672455532854656 1:1.6341996 2:0.25798938 3:1 4:0 5:0 6:6.182085 7:1 8:0 #
-0.14912321892250923749401181339636 1:1.7163916 2:0.77361786 3:3 4:0 5:0 6:6.7312336 7:1 8:0 #
-0.19330787638103041903292478309595 1:0.63493955 2:0.2579295 3:1 4:0 5:0 6:3.0910425 7:1 8:0 #
-0.049707739640836412498003937798785 1:14.488254 2:4.9026432 3:19 4:0 5:0 6:12.100142 7:1 8:0 #
-0.082846232734727354163339896331308 1:0.96894664 2:0.5160194 3:2 4:0 5:0 6:5.1604338 7:1 8:0 #
0.21540020511029100980238126794575 1:0.8112669 2:0.2580097 3:1 4:0 5:0 6:3.0910425 7:0 8:1 #
0.17121554765176982826346829824615 1:0.74428999 2:0.25763366 3:1 4:0 5:0 6:3.0910425 7:0 8:1 #
0.16016938328713953287874005582125 1:0 2:0.25801373 3:1 4:0 5:0 6:3.0910425 7:1 8:0 #
-0.060753904005466714821626084130912 1:0.3353315 2:0.51629132 3:2 4:0 5:0 6:2.5802169 7:1 8:0 #
-0.071800068370097031023036038277496 1:0 2:0 3:0 4:0 5:0 6:0 7:0 8:1 #
0.022092328729260628933372956339554 1:0.39400369 2:0.45470566 3:1 4:0 5:0 6:1.5404451 7:1 8:0 #
-0.022092328729260628933372956339554 1:2.3071821 2:0.45465431 3:1 4:0 5:0 6:1.5404451 7:1 8:0 #
-0.011046164364630314466686478169777 1:0.39400369 2:0.45470566 3:1 4:0 5:0 6:1.5404451 7:1 8:0 #
0.01104616436463031273196300219297 1:7.2024822 2:1.3645146 3:3 4:0 5:0 6:1.3862944 7:0 8:1 #
0.033138493093890941665335958532523 1:5.1556473 2:0.3696312 3:2 4:0 5:0 6:4.0562963 7:1 8:0 #
0.022092328729260628933372956339554 1:2.6886308 2:0.18481886 3:1 4:0 5:0 6:2.5389738 7:1 8:0 #
-0.044184657458521250927852008771879 1:4.6217575 2:0.55467057 3:3 4:0 5:0 6:5.0750279 7:1 8:0 #
0.011046164364630314466686478169777 1:0 2:0.18479837 3:1 4:0 5:0 6:2.5389738 7:1 8:0 #
-0.011046164364630314466686478169777 1:0.1313142 2:0.18483643 3:1 4:0 5:0 6:2.5389738 7:0 8:1 #
0.044184657458521250927852008771879 1:20.352882 2:3.3275297 3:18 4:0 5:0 6:2.2134645 7:1 8:0 #
-0.033138493093890941665335958532523 1:20.352882 2:3.3275297 3:18 4:0 5:0 6:4.0802417 7:0 8:1 #
-0.022092328729260628933372956339554 1:2.3998888 2:0.3697913 3:2 4:0 5:0 6:4.0562963 7:1 8:0 #
-0.016569246546945470832667979266262 1:1.8892013 2:0.34203503 3:1 4:0 5:0 6:1.89712 7:1 8:0 #
-0.060753904005466714821626084130912 1:0 2:0.34205925 3:1 4:0 5:0 6:1.89712 7:0 8:1 #
0.016569246546945470832667979266262 1:5.4176679 2:1.3679448 3:4 4:0 5:0 6:2.3955231 7:0 8:1 #
-0.027615410911575783564630981459231 1:0 2:0.34197414 3:1 4:0 5:0 6:1.89712 7:1 8:0 #
0.027615410911575787034077933412846 1:7.2826514 2:2.3942072 3:7 4:0 5:0 6:1.7260925 7:0 8:1 #
-0.0055230821823151572333432390848884 1:1.8649834 2:0.34202442 3:1 4:0 5:0 6:1.89712 7:0 8:1 #
0.049707739640836405559110033891557 1:0.4267056 2:0.34182897 3:1 4:0 5:0 6:1.89712 7:0 8:1 #
-0.049707739640836405559110033891557 1:2.9978194 2:0.68400621 3:2 4:0 5:0 6:2.7725887 7:1 8:0 #
0.060753904005466714821626084130912 1:0.4267056 2:0.34182897 3:1 4:0 5:0 6:1.89712 7:1 8:0 #
0.038661575276206096296593983652201 1:0.4267056 2:0.68380308 3:2 4:0 5:0 6:2.7725887 7:1 8:0 #
0.0055230821823151554986197631080813 1:1.1086181 2:0.34197119 3:1 4:0 5:0 6:1.89712 7:1 8:0 #
-0.038661575276206096296593983652201 1:3.8581264 2:0.68413401 3:2 4:0 5:0 6:2.7725887 7:1 8:0 #
0.082846232734727354163339896331308 1:0.4079935 2:0.10601949 3:1 4:0 5:0 6:2.8526313 7:1 8:0 #
0.093892397099357677303643754385121 1:0 2:0 3:0 4:0 5:0 6:0 7:0 8:1 #
-0.071800068370097031023036038277496 1:0.41537446 2:0.10605642 3:1 4:0 5:0 6:2.8526313 7:0 8:1 #
0.03866157527620610323548788755943 1:0.8170253 2:0.21204425 3:2 4:0 5:0 6:4.6836114 7:1 8:0 #
0.071800068370097031023036038277496 1:1.6456536 2:0.5301314 3:5 4:0 5:0 6:7.7667422 7:1 8:0 #
-0.049707739640836405559110033891557 1:0.40490994 2:0.10600369 3:1 4:0 5:0 6:2.8526313 7:1 8:0 #
-0.0055230821823151554986197631080813 1:0.40490994 2:0.10600369 3:1 4:0 5:0 6:2.8526313 7:1 8:0 #
-0.016569246546945474302114931219876 1:0.4079935 2:0.10601949 3:1 4:0 5:0 6:2.8526313 7:0 8:1 #
-0.093892397099357677303643754385121 1:2.4533036 2:0.74212551 3:7 4:0 5:0 6:9.9455481 7:0 8:1 #
-0.060753904005466714821626084130912 1:0 2:0.2120453 3:2 4:0 5:0 6:2.3418057 7:0 8:1 #
0.049707739640836405559110033891557 1:6.9602952 2:2.6507273 3:25 4:0 5:0 6:2.3884246 7:0 8:1 #
-0.038661575276206096296593983652201 1:0.39206931 2:0.10593982 3:1 4:0 5:0 6:2.8526313 7:0 8:1 #
0.016569246546945470832667979266262 1:0.40490994 2:0.10600369 3:1 4:0 5:0 6:2.8526313 7:1 8:0 #
0.060753904005466714821626084130912 1:0 2:0.10607538 3:1 4:0 5:0 6:2.8526313 7:0 8:1 #
-0.082846232734727354163339896331308 1:0.41537446 2:0.10605642 3:1 4:0 5:0 6:2.8526313 7:0 8:1 #
0.0055230821823151589680667150616955 1:0 2:0.10598049 3:1 4:0 5:0 6:2.8526313 7:1 8:0 #
-0.027615410911575787034077933412846 1:0.40490994 2:0.10600369 3:1 4:0 5:0 6:2.8526313 7:0 8:1 #
0.027615410911575783564630981459231 1:0.81600803 2:0.21203899 3:2 4:0 5:0 6:4.6836114 7:0 8:1 #
-0.016569246546945470832667979266262 1:0.73492491 2:0.21944891 3:1 4:0 5:0 6:1.5404451 7:0 8:1 #
0.016569246546945470832667979266262 1:0.73492491 2:0.21944891 3:1 4:0 5:0 6:1.5404451 7:1 8:0 #
0.049707739640836405559110033891557 1:0.73492491 2:0.21944891 3:1 4:0 5:0 6:1.5404451 7:1 8:0 #
-0.027615410911575787034077933412846 1:0.32482657 2:0.219501 3:1 4:0 5:0 6:1.5404451 7:1 8:0 #
0.0055230821823151572333432390848884 1:0.73492491 2:0.21944891 3:1 4:0 5:0 6:1.5404451 7:1 8:0 #
0.038661575276206096296593983652201 1:0.73492491 2:0.21944891 3:1 4:0 5:0 6:1.5404451 7:1 8:0 #
-0.0055230821823151554986197631080813 1:0.73492491 2:0.21944891 3:1 4:0 5:0 6:1.5404451 7:1 8:0 #
-0.038661575276206096296593983652201 1:0.32482657 2:0.219501 3:1 4:0 5:0 6:1.5404451 7:1 8:0 #
0.027615410911575787034077933412846 1:2.7532635 2:0.87804419 3:4 4:0 5:0 6:1.767331 7:0 8:1 #
-0.049707739640836405559110033891557 1:0.73492491 2:0.21944891 3:1 4:0 5:0 6:1.5404451 7:1 8:0 #
0.055230821823151560190368059011234 1:0.98438591 2:0.66837019 3:1 4:1 5:1 6:2.4277482 7:1 8:0 #
0.06627698618778186945288410925059 1:0.47511944 2:0.66859239 3:1 4:1 5:1 6:2.4277482 7:1 8:0 #
-0.077323150552412192593187967304402 1:1.9068048 2:0.6686551 3:1 4:1 5:1 6:2.4277482 7:1 8:0 #
0.033138493093890941665335958532523 1:0.95023888 2:1.3371848 3:2 4:1 5:1 6:3.8338451 7:1 8:0 #
-0.044184657458521250927852008771879 1:0.4754335 2:0.66843331 3:1 4:0 5:0 6:2.4277482 7:1 8:0 #
0.011046164364630316201409954146584 1:0.4754335 2:0.66843331 3:1 4:1 5:1 6:2.4277482 7:1 8:0 #
-1.7347234759768070944119244813919e-18 1:26.575348 2:10.029271 3:15 4:1 5:1 6:1.3855999 7:1 8:0 #
0.044184657458521250927852008771879 1:12.929597 2:4.0117311 3:6 4:1 5:1 6:5.7684669 7:1 8:0 #
-0.060753904005466714821626084130912 1:0.95023888 2:1.3371848 3:2 4:1 5:1 6:3.8338451 7:1 8:0 #
-0.055230821823151560190368059011234 1:1.8994685 2:0.66862178 3:1 4:1 5:1 6:2.4277482 7:1 8:0 #
-0.016569246546945470832667979266262 1:3.5389047 2:1.3374312 3:2 4:1 5:1 6:3.8338451 7:1 8:0 #
0.077323150552412192593187967304402 1:0.98438591 2:0.66837019 3:1 4:1 5:1 6:2.4277482 7:1 8:0 #
-0.033138493093890941665335958532523 1:15.561378 2:4.6803546 3:7 4:1 5:1 6:5.7281723 7:1 8:0 #
0.022092328729260632402819908293168 1:0.47511944 2:0.66859239 3:1 4:1 5:1 6:2.4277482 7:1 8:0 #
-0.022092328729260625463926004385939 1:1.6813016 2:0.66851681 3:1 4:0 5:0 6:2.4277482 7:0 8:1 #
-0.033138493093890941665335958532523 1:2.0369818 2:0.38807258 3:1 4:1 5:1 6:1.9924302 7:1 8:0 #
0.049707739640836405559110033891557 1:0.9293592 2:0.38816014 3:1 4:1 5:1 6:1.9924302 7:1 8:0 #
0.060753904005466714821626084130912 1:0.9293592 2:0.38816014 3:1 4:1 5:1 6:1.9924302 7:1 8:0 #
0.016569246546945470832667979266262 1:2.048857 2:0.38808995 3:1 4:1 5:1 6:1.9924302 7:1 8:0 #
-1.7347234759768070944119244813919e-18 1:8.8078461 2:1.1643058 3:3 4:1 5:1 6:3.4353969 7:1 8:0 #
-0.06627698618778186945288410925059 1:0.9293592 2:0.38816014 3:1 4:1 5:1 6:1.9924302 7:1 8:0 #
0.038661575276206096296593983652201 1:13.455906 2:1.9399259 3:5 4:0 5:0 6:4.8520303 7:0 8:1 #
-0.022092328729260625463926004385939 1:18.849129 2:3.4924221 3:9 4:0 5:0 6:0.14660348 7:0 8:1 #
-0.027615410911575783564630981459231 1:1.2282716 2:0.38768923 3:1 4:0 5:0 6:1.9924302 7:0 8:1 #
0.022092328729260628933372956339554 1:12.227634 2:1.5522367 3:4 4:0 5:0 6:3.5752716 7:0 8:1 #
-0.049707739640836405559110033891557 1:7.3187604 2:1.1643517 3:3 4:0 5:0 6:3.4353969 7:1 8:0 #
0.071800068370097031023036038277496 1:2.0369818 2:0.38807258 3:1 4:1 5:1 6:1.9924302 7:1 8:0 #
-1.7347234759768070944119244813919e-18 1:1.2282716 2:0.38768923 3:1 4:0 5:0 6:1.9924302 7:0 8:1 #
-0.060753904005466714821626084130912 1:1.2282716 2:0.38768923 3:1 4:0 5:0 6:1.9924302 7:0 8:1 #
0.016569246546945470832667979266262 1:0.063976914 2:0.95957422 3:2 4:0 5:0 6:3.1372318 7:0 8:1 #
-0.0055230821823151572333432390848884 1:0.063976914 2:0.95957422 3:2 4:0 5:0 6:3.1372318 7:1 8:0 #
0.038661575276206096296593983652201 1:0.13440986 2:1.9203162 3:4 4:0 5:0 6:1.9616585 7:0 8:1 #
0.049707739640836405559110033891557 1:0.29835913 2:4.3199787 3:9 4:0 5:0 6:3.9714525 7:0 8:1 #
0.0055230821823151572333432390848884 1:0.033633698 2:0.48008499 3:1 4:0 5:0 6:2.0794415 7:0 8:1 #
-0.027615410911575783564630981459231 1:2.6108603 2:5.2805395 3:11 4:0 5:0 6:0.42559615 7:0 8:1 #
-0.038661575276206096296593983652201 1:0.063976914 2:0.95957422 3:2 4:0 5:0 6:3.1372318 7:0 8:1 #
-0.016569246546945470832667979266262 1:0.033633698 2:0.48008499 3:1 4:0 5:0 6:2.0794415 7:1 8:0 #
-0.049707739640836405559110033891557 1:0.033085667 2:0.4799895 3:1 4:0 5:0 6:2.0794415 7:0 8:1 #
0.027615410911575783564630981459231 1:0.03242524 2:0.47987032 3:1 4:0 5:0 6:2.0794415 7:0 8:1 #
-0.016569246546945470832667979266262 1:0.58948469 2:0.42031699 3:1 4:0 5:0 6:1.2039728 7:0 8:1 #
0.016569246546945470832667979266262 1:1.2940072 2:1.680703 3:4 4:0 5:0 6:1.6857682 7:1 8:0 #
0.0055230821823151572333432390848884 1:1.2164412 2:1.2606058 3:3 4:0 5:0 6:2.1400497 7:0 8:1 #
-0.0055230821823151572333432390848884 1:0.074812204 2:0.42003468 3:1 4:0 5:0 6:1.2039728 7:1 8:0 #
0.044184657458521250927852008771879 1:0.054717656 2:0.31487542 3:2 4:0 5:0 6:3.8338451 7:0 8:1 #
-0.033138493093890941665335958532523 1:0.025207961 2:0.15736715 3:1 4:0 5:0 6:2.4277482 7:1 8:0 #
-0.044184657458521250927852008771879 1:0.027101887 2:0.15742986 3:1 4:0 5:0 6:2.4277482 7:1 8:0 #
-1.7347234759768070944119244813919e-18 1:0.025207961 2:0.15736715 3:1 4:0 5:0 6:2.4277482 7:1 8:0 #
0.033138493093890941665335958532523 1:0.44473124 2:2.5192001 3:16 4:0 5:0 6:0.32838258 7:0 8:1 #
0.01104616436463031273196300219297 1:0.16411217 2:0.94461852 3:6 4:0 5:0 6:5.7684669 7:1 8:0 #
-0.011046164364630314466686478169777 1:0.025207961 2:0.15736715 3:1 4:0 5:0 6:2.4277482 7:1 8:0 #
-0.022092328729260628933372956339554 1:0.025207961 2:0.15736715 3:1 4:0 5:0 6:2.4277482 7:1 8:0 #
0.022092328729260628933372956339554 1:0 2:0 3:0 4:0 5:0 6:0 7:0 8:1 #
0.060753904005466714821626084130912 1:0.035979848 2:0.15334678 3:1 4:0 5:0 6:2.1594841 7:1 8:0 #
0.093892397099357677303643754385121 1:1.3990046 2:0.61335433 3:4 4:0 5:0 6:4.2434878 7:1 8:0 #
0.0055230821823151589680667150616955 1:0.035979848 2:0.15334678 3:1 4:0 5:0 6:2.1594841 7:0 8:1 #
-0.082846232734727354163339896331308 1:1.4718611 2:0.92009366 3:6 4:0 5:0 6:3.4657359 7:1 8:0 #
0.12703089019324864672455532854656 1:3.6478984 2:1.8401477 3:12 4:0 5:0 6:0.27454498 7:0 8:1 #
0.071800068370097031023036038277496 1:0.035257522 2:0.15330867 3:1 4:0 5:0 6:2.1594841 7:1 8:0 #
-0.11598472582861832358425147049275 1:0.036277134 2:0.15336204 3:1 4:0 5:0 6:2.1594841 7:1 8:0 #
-0.060753904005466714821626084130912 1:0.036732391 2:0.15338495 3:1 4:0 5:0 6:2.1594841 7:1 8:0 #
-0.12703089019324864672455532854656 1:1.327572 2:0.30669108 3:2 4:0 5:0 6:1.6486586 7:1 8:0 #
-0.10493856146398800044394761243893 1:1.4004285 2:0.61343044 3:4 4:0 5:0 6:3.182616 7:1 8:0 #
0.049707739640836405559110033891557 1:1.1586616 2:0.15332648 3:1 4:0 5:0 6:2.1594841 7:1 8:0 #
-0.02761541091157579050352488536646 1:0.035257522 2:0.15330867 3:1 4:0 5:0 6:2.1594841 7:1 8:0 #
0.027615410911575787034077933412846 1:0.035979848 2:0.15334678 3:1 4:0 5:0 6:2.1594841 7:0 8:1 #
0.038661575276206096296593983652201 1:0.035979848 2:0.15334678 3:1 4:0 5:0 6:2.1594841 7:0 8:1 #
-0.093892397099357677303643754385121 1:0.034700215 2:0.15327825 3:1 4:0 5:0 6:2.1594841 7:1 8:0 #
-0.0055230821823151589680667150616955 1:1.4717094 2:0.92008603 3:6 4:0 5:0 6:4.1588831 7:1 8:0 #
-0.071800068370097031023036038277496 1:2.6305227 2:1.0734202 3:7 4:0 5:0 6:4.4003706 7:1 8:0 #
0.016569246546945467363221027312647 1:0.071432605 2:0.30666322 3:2 4:0 5:0 6:3.2973173 7:1 8:0 #
-0.049707739640836405559110033891557 1:1.3990046 2:0.61335433 3:4 4:0 5:0 6:4.2434878 7:1 8:0 #
-0.038661575276206096296593983652201 1:2.3446953 2:1.0734036 3:7 4:0 5:0 6:3.8503244 7:0 8:1 #
0.11598472582861832358425147049275 1:0.94523156 2:0.46002635 3:3 4:0 5:0 6:3.9365592 7:0 8:1 #
0.082846232734727354163339896331308 1:0.90880394 2:0.30665669 3:2 4:0 5:0 6:3.2973173 7:0 8:1 #
0.10493856146398800044394761243893 1:1.4717094 2:0.92008603 3:6 4:0 5:0 6:4.1588831 7:1 8:0 #
-0.016569246546945467363221027312647 1:0.035257522 2:0.15330867 3:1 4:0 5:0 6:2.1594841 7:0 8:1 #
-0.022092328729260628933372956339554 1:2.5995936 2:1.018546 3:2 4:0 5:0 6:4.6051702 7:0 8:1 #
0.033138493093890941665335958532523 1:3.4981008 2:1.5286531 3:3 4:0 5:0 6:5.8983388 7:1 8:0 #
-0.011046164364630314466686478169777 1:10.708982 2:4.5846162 3:9 4:0 5:0 6:8.7082558 7:1 8:0 #
-0.033138493093890941665335958532523 1:1.9030323 2:0.50933677 3:1 4:0 5:0 6:2.8134108 7:1 8:0 #
0.022092328729260628933372956339554 1:0.69656134 2:0.50920916 3:1 4:0 5:0 6:2.8134108 7:1 8:0 #
0.011046164364630314466686478169777 1:5.4297695 2:4.075757 3:8 4:0 5:0 6:7.5516677 7:1 8:0 #
-0.0055230821823151572333432390848884 1:1.1415352 2:0.7129311 3:1 4:0 5:0 6:0.98082924 7:0 8:1 #
0.0055230821823151572333432390848884 1:1.0897317 2:0.71283966 3:1 4:0 5:0 6:0.98082924 7:1 8:0 #
-0.11046164364630316201409954146584 1:16.796492 2:2.3438139 3:7 4:0 5:0 6:6.4568367 7:1 8:0 #
0.055230821823151560190368059011234 1:2.653708 2:0.33477116 3:1 4:0 5:0 6:2.6855774 7:1 8:0 #
-0.06627698618778186945288410925059 1:1.90845 2:0.33487904 3:1 4:0 5:0 6:2.6855774 7:1 8:0 #
0.016569246546945474302114931219876 1:1.9101712 2:0.33473036 3:1 4:0 5:0 6:2.6855774 7:0 8:1 #
0.099415479281672838873795683412027 1:3.7928774 2:0.66944504 3:2 4:0 5:0 6:4.3495035 7:1 8:0 #
0.082846232734727354163339896331308 1:0 2:0.33478728 3:1 4:0 5:0 6:2.6855774 7:0 8:1 #
-0.12150780801093348515440339951965 1:11.06988 2:1.6741794 3:5 4:0 5:0 6:5.5451775 7:1 8:0 #
-0.088369314917042515733491825358215 1:1.8129083 2:1.3391577 3:4 4:0 5:0 6:4.7608953 7:0 8:1 #
-0.033138493093890948604229862439752 1:5.7266111 2:1.0040734 3:3 4:0 5:0 6:3.676559 7:1 8:0 #
-0.099415479281672838873795683412027 1:0 2:0.33487067 3:1 4:0 5:0 6:2.6855774 7:0 8:1 #
0.027615410911575787034077933412846 1:2.653708 2:0.33477116 3:1 4:0 5:0 6:2.6855774 7:0 8:1 #
-0.13255397237556379441691944975901 1:0 2:0.33487067 3:1 4:0 5:0 6:2.6855774 7:1 8:0 #
-0.049707739640836405559110033891557 1:3.9265764 2:0.3348887 3:1 4:0 5:0 6:2.6855774 7:0 8:1 #
-0.033138493093890941665335958532523 1:2.7364697 2:1.3386784 3:4 4:1 5:1 6:4.7608953 7:1 8:0 #
0.06627698618778186945288410925059 1:17.984516 2:2.6784494 3:8 4:0 5:0 6:8.5587864 7:0 8:1 #
-0.011046164364630316201409954146584 1:1.9101712 2:0.66948438 3:2 4:0 5:0 6:6.5242553 7:1 8:0 #
0.10493856146398800044394761243893 1:1.9101712 2:0.33473036 3:1 4:0 5:0 6:2.6855774 7:0 8:1 #
-5.2041704279304212832357734441757e-18 1:0 2:0.33475399 3:1 4:0 5:0 6:2.6855774 7:1 8:0 #
-0.022092328729260628933372956339554 1:8.527235 2:1.6739638 3:5 4:0 5:0 6:11.090355 7:1 8:0 #
0.0055230821823151589680667150616955 1:1.90845 2:0.33487904 3:1 4:0 5:0 6:2.6855774 7:0 8:1 #
0.12150780801093348515440339951965 1:1.9101712 2:0.33473036 3:1 4:0 5:0 6:2.6855774 7:1 8:0 #
-0.055230821823151560190368059011234 1:1.8000349 2:0.33474573 3:1 4:0 5:0 6:2.6855774 7:1 8:0 #
0.071800068370097031023036038277496 1:1.8000349 2:0.33474573 3:1 4:0 5:0 6:2.6855774 7:0 8:1 #
0.12703089019324864672455532854656 1:0 2:0.33475399 3:1 4:0 5:0 6:2.6855774 7:0 8:1 #
0.044184657458521250927852008771879 1:1.8129083 2:1.0044537 3:3 4:0 5:0 6:5.5148382 7:0 8:1 #
-0.033138493093890941665335958532523 1:1.0972936 2:0.30962583 3:2 4:0 5:0 6:4.6836114 7:1 8:0 #
-0.055230821823151560190368059011234 1:0.056642938 2:0.15480542 3:1 4:0 5:0 6:0 7:0 8:1 #
0.055230821823151560190368059011234 1:9.8787651 2:2.1673708 3:14 4:0 5:0 6:9.9271145 7:0 8:1 #
0.011046164364630316201409954146584 1:2.1364908 2:0.61920947 3:4 4:0 5:0 6:7.0160766 7:0 8:1 #
1.7347234759768070944119244813919e-18 1:2.1380599 2:0.61924356 3:4 4:0 5:0 6:7.0160766 7:0 8:1 #
-0.011046164364630314466686478169777 1:0.056776751 2:0.15481505 3:1 4:0 5:0 6:2.8526313 7:1 8:0 #
0.033138493093890941665335958532523 1:0.056776751 2:0.15481505 3:1 4:0 5:0 6:2.8526313 7:0 8:1 #
-0.044184657458521250927852008771879 1:3.5900209 2:1.0837774 3:7 4:0 5:0 6:8.7023544 7:1 8:0 #
-0.06627698618778186945288410925059 1:1.226516 2:0.77399415 3:5 4:0 5:0 6:7.7667422 7:0 8:1 #
0.044184657458521250927852008771879 1:0.057318386 2:0.15484396 3:1 4:0 5:0 6:2.8526313 7:0 8:1 #
0.022092328729260628933372956339554 1:1.002043 2:0.15483734 3:1 4:0 5:0 6:2.8526313 7:0 8:1 #
-0.022092328729260628933372956339554 1:2.1364908 2:0.61920947 3:4 4:0 5:0 6:10.524115 7:1 8:0 #
0.06627698618778186945288410925059 1:11.784149 2:3.8703656 3:25 4:0 5:0 6:2.2136617 7:1 8:0 #
0.14912321892250923749401181339636 1:0.60838461 2:1.06703 3:3 4:0 5:0 6:9.2103405 7:1 8:0 #
0.093892397099357677303643754385121 1:2.3887205 2:1.4228723 3:4 4:0 5:0 6:8.2050829 7:1 8:0 #
0.082846232734727354163339896331308 1:2.7648206 2:2.8452716 3:8 4:0 5:0 6:8.4916916 7:0 8:1 #
-0.0055230821823151520291728111544671 1:0.20186959 2:0.35563582 3:1 4:0 5:0 6:3.149883 7:1 8:0 #
0.02761541091157579050352488536646 1:0.20255508 2:0.35566479 3:1 4:0 5:0 6:6.2997661 7:1 8:0 #
0.16016938328713953287874005582125 1:0.19818085 2:0.35544184 3:1 4:0 5:0 6:3.149883 7:1 8:0 #
0.10493856146398800044394761243893 1:0.20289958 2:0.35568246 3:1 4:0 5:0 6:3.149883 7:1 8:0 #
0.038661575276206096296593983652201 1:0.80656546 2:1.4224718 3:4 4:0 5:0 6:8.2050829 7:0 8:1 #
0.060753904005466714821626084130912 1:0.20289958 2:0.35568246 3:1 4:0 5:0 6:3.149883 7:1 8:0 #
-0.16016938328713953287874005582125 1:0.20255508 2:0.35566479 3:1 4:0 5:0 6:3.149883 7:0 8:1 #
-0.049707739640836405559110033891557 1:0.61044604 2:1.067136 3:3 4:0 5:0 6:2.3025851 7:0 8:1 #
0.071800068370097031023036038277496 1:2.156436 2:1.7782416 3:5 4:0 5:0 6:5.5517998 7:0 8:1 #
-0.071800068370097031023036038277496 1:0.035732549 2:0.35557005 3:1 4:0 5:0 6:3.149883 7:1 8:0 #
-0.027615410911575783564630981459231 1:8.4884081 2:10.671345 3:30 4:0 5:0 6:0.13762137 7:0 8:1 #
-0.093892397099357677303643754385121 1:1.7782723 2:0.35572991 3:1 4:0 5:0 6:3.149883 7:1 8:0 #
-0.10493856146398800044394761243893 1:0.40409526 2:0.71127659 3:2 4:0 5:0 6:5.2781148 7:1 8:0 #
0.13807705455787894210928357097146 1:0.20428935 2:0.3557533 3:1 4:0 5:0 6:3.149883 7:1 8:0 #
0.11598472582861832358425147049275 1:1.0534434 2:2.134248 3:6 4:0 5:0 6:10.101275 7:1 8:0 #
0.016569246546945470832667979266262 1:0.20324524 2:0.35570017 3:1 4:0 5:0 6:3.149883 7:1 8:0 #
0.049707739640836405559110033891557 1:0.035732549 2:0.35557005 3:1 4:0 5:0 6:3.149883 7:1 8:0 #
0.12703089019324864672455532854656 1:8.7637053 2:12.094055 3:34 4:0 5:0 6:2.1439219 7:1 8:0 #
-0.14912321892250923749401181339636 1:0.20085002 2:0.35557646 3:1 4:0 5:0 6:3.149883 7:0 8:1 #
0.0055230821823151554986197631080813 1:0.035732549 2:0.35557005 3:1 4:0 5:0 6:3.149883 7:1 8:0 #
-0.13807705455787894210928357097146 1:2.8999789 2:3.2011604 3:9 4:0 5:0 6:11.736506 7:1 8:0 #
-0.038661575276206096296593983652201 1:3.4011984 2:1.7784005 3:5 4:0 5:0 6:7.4024 7:0 8:1 #
-0.016569246546945467363221027312647 1:0.20186959 2:0.35563582 3:1 4:0 5:0 6:3.149883 7:1 8:0 #
-0.11598472582861832358425147049275 1:0.20085002 2:0.35557646 3:1 4:0 5:0 6:3.149883 7:0 8:1 #
-0.12703089019324864672455532854656 1:0.84739697 2:2.1340117 3:6 4:0 5:0 6:11.784822 7:0 8:1 #
-0.082846232734727354163339896331308 1:0.19818085 2:0.35544184 3:1 4:0 5:0 6:3.149883 7:1 8:0 #
-0.060753904005466721760519988038141 1:0.20255508 2:0.35566479 3:1 4:0 5:0 6:3.149883 7:0 8:1 #
-0.022092328729260628933372956339554 1:7.6932082 2:0.75225866 3:4 4:0 5:0 6:4.321085 7:0 8:1 #
0.044184657458521250927852008771879 1:11.746903 2:2.4450042 3:13 4:0 5:0 6:4.1009917 7:1 8:0 #
-0.033138493093890941665335958532523 1:3.5869567 2:0.75219274 3:4 4:0 5:0 6:5.7614465 7:0 8:1 #
-0.01104616436463031273196300219297 1:2.9867446 2:0.18816489 3:1 4:0 5:0 6:2.5389738 7:0 8:1 #
0.011046164364630314466686478169777 1:1.9059838 2:0.18810259 3:1 4:0 5:0 6:2.5389738 7:1 8:0 #
0.06627698618778186945288410925059 1:1.1195067 2:0.18803592 3:1 4:0 5:0 6:2.5389738 7:0 8:1 #
-0.077323150552412192593187967304402 1:1.9059838 2:0.18810259 3:1 4:0 5:0 6:2.5389738 7:0 8:1 #
0.055230821823151560190368059011234 1:20.972893 2:3.3855684 3:18 4:0 5:0 6:2.7468295 7:1 8:0 #
0.022092328729260628933372956339554 1:3.5869567 2:0.37605786 3:2 4:0 5:0 6:4.0562963 7:0 8:1 #
-0.044184657458521250927852008771879 1:3.5869567 2:0.37605786 3:2 4:0 5:0 6:4.0562963 7:0 8:1 #
-0.055230821823151560190368059011234 1:0 2:0.18804874 3:1 4:0 5:0 6:2.5389738 7:0 8:1 #
0.033138493093890941665335958532523 1:0 2:0.3762005 3:2 4:0 5:0 6:4.0562963 7:1 8:0 #
1.7347234759768070944119244813919e-18 1:1.5969933 2:0.18809184 3:1 4:0 5:0 6:2.5389738 7:1 8:0 #
0.077323150552412192593187967304402 1:1.7779249 2:0.18801959 3:1 4:0 5:0 6:2.5389738 7:1 8:0 #
-0.06627698618778186945288410925059 1:16.561384 2:2.8213201 3:15 4:0 5:0 6:1.0179948 7:0 8:1 #
-0.0055230821823151572333432390848884 1:1.7766551 2:0.33658627 3:1 4:0 5:0 6:1.2039728 7:1 8:0 #
0.0055230821823151572333432390848884 1:1.7766551 2:0.33658627 3:1 4:0 5:0 6:1.2039728 7:1 8:0 #
-0.0055230821823151572333432390848884 1:1.171092 2:0.88768142 3:2 4:0 5:0 6:1.7509375 7:1 8:0 #
0.0055230821823151554986197631080813 1:1.171092 2:0.88768142 3:2 4:0 5:0 6:1.7509375 7:1 8:0 #
-0.016569246546945470832667979266262 1:2.8302233 2:1.7752414 3:4 4:0 5:0 6:1.1507283 7:1 8:0 #
-0.027615410911575787034077933412846 1:0.39425597 2:0.44384804 3:1 4:0 5:0 6:1.3862944 7:1 8:0 #
0.016569246546945470832667979266262 1:0.73339689 2:0.44374508 3:1 4:0 5:0 6:1.3862944 7:0 8:1 #
0.027615410911575787034077933412846 1:0.73339689 2:0.44374508 3:1 4:0 5:0 6:1.3862944 7:0 8:1 #
0.016569246546945467363221027312647 1:0.67880601 2:1.2967483 3:5 4:0 5:0 6:1.2058103 7:1 8:0 #
0.038661575276206096296593983652201 1:0.16659909 2:0.25929651 3:1 4:0 5:0 6:1.5404451 7:0 8:1 #
-0.0055230821823151554986197631080813 1:0.67880601 2:1.2967483 3:5 4:0 5:0 6:1.2058103 7:1 8:0 #
-0.071800068370097031023036038277496 1:0.33466333 2:0.51860601 3:2 4:0 5:0 6:2.0592389 7:1 8:0 #
0.049707739640836405559110033891557 1:0.16659909 2:0.25929651 3:1 4:0 5:0 6:1.5404451 7:1 8:0 #
-0.049707739640836405559110033891557 1:0.52321732 2:1.0375552 3:4 4:0 5:0 6:1.3254982 7:1 8:0 #
0.0055230821823151554986197631080813 1:0.17754357 2:0.2594125 3:1 4:0 5:0 6:1.5404451 7:1 8:0 #
0.071800068370097031023036038277496 1:0.51220691 2:0.77801847 3:3 4:0 5:0 6:2.0794415 7:0 8:1 #
-0.038661575276206096296593983652201 1:0.52321732 2:1.0375552 3:4 4:0 5:0 6:1.3254982 7:1 8:0 #
0.060753904005466714821626084130912 1:0.16659909 2:0.25929651 3:1 4:0 5:0 6:1.5404451 7:1 8:0 #
-0.016569246546945470832667979266262 1:0.17754357 2:0.2594125 3:1 4:0 5:0 6:1.5404451 7:1 8:0 #
-0.027615410911575787034077933412846 1:0.17754357 2:0.2594125 3:1 4:0 5:0 6:1.5404451 7:0 8:1 #
0.027615410911575787034077933412846 1:0.17754357 2:0.51884574 3:2 4:0 5:0 6:2.0592389 7:0 8:1 #
-0.060753904005466714821626084130912 1:0.33466333 2:0.51860601 3:2 4:0 5:0 6:2.0592389 7:0 8:1 #
0.0055230821823151572333432390848884 1:0.39229372 2:0.99947613 3:1 4:0 5:0 6:0.28768209 7:1 8:0 #
-0.0055230821823151572333432390848884 1:0.39229372 2:0.99947613 3:1 4:0 5:0 6:0.28768209 7:0 8:1 #
-0.082846232734727354163339896331308 1:6.8781042 2:0.51410848 3:2 4:0 5:0 6:5.3344564 7:0 8:1 #
0.12703089019324864672455532854656 1:50.160568 2:4.1133928 3:16 4:0 5:0 6:12.482537 7:1 8:0 #
0.10493856146398800044394761243893 1:0 2:0.25706932 3:1 4:0 5:0 6:3.1780539 7:1 8:0 #
-0.11598472582861832358425147049275 1:2.532902 2:1.0283424 3:4 4:0 5:0 6:10.397207 7:1 8:0 #
-0.12703089019324864672455532854656 1:3.1445191 2:0.2570222 3:1 4:0 5:0 6:3.1780539 7:1 8:0 #
-0.060753904005466721760519988038141 1:53.786903 2:5.6558266 3:22 4:0 5:0 6:13.160102 7:0 8:1 #
-0.027615410911575787034077933412846 1:33.825645 2:2.3140438 3:9 4:0 5:0 6:11.990045 7:1 8:0 #
-0.049707739640836405559110033891557 1:3.1445191 2:0.2570222 3:1 4:0 5:0 6:3.1780539 7:1 8:0 #
0.071800068370097031023036038277496 1:2.2922957 2:0.25701714 3:1 4:0 5:0 6:3.1780539 7:1 8:0 #
-0.0055230821823151589680667150616955 1:2.8024039 2:0.25707105 3:1 4:0 5:0 6:3.1780539 7:1 8:0 #
-0.016569246546945467363221027312647 1:3.3581438 2:0.25702104 3:1 4:0 5:0 6:3.1780539 7:0 8:1 #
-0.10493856146398800044394761243893 1:16.428913 2:2.0566425 3:8 4:0 5:0 6:11.547622 7:0 8:1 #
0.082846232734727354163339896331308 1:0 2:0.25706932 3:1 4:0 5:0 6:3.1780539 7:1 8:0 #
-0.093892397099357677303643754385121 1:3.9708798 2:0.25705144 3:1 4:0 5:0 6:3.1780539 7:0 8:1 #
0.02761541091157579050352488536646 1:0.87519264 2:0.25712675 3:1 4:0 5:0 6:3.1780539 7:0 8:1 #
