SVM-light Version V6.02
0 # kernel type
3 # kernel parameter -d 
1 # kernel parameter -g 
1 # kernel parameter -s 
1 # kernel parameter -r 
empty# kernel parameter -u 
2 # highest feature index 
6552 # number of training documents 
6357 # number of support vectors plus 1 
0 # threshold b, each following line is a SV (starting with alpha*y)
-14.152137904762033926431286090519 1:0.92239141 2:0.35626575 #
-12.130403918367457904992079420481 1:2.0150459 2:0.35628352 #
-10.108669931972881883552872750442 1:2.1240978 2:0.35637224 #
-8.0869359455783058621136660804041 1:1.5896047 2:0.35613307 #
-6.0652019591837298406744594103657 1:0 2:0.35618308 #
-1.0108669931972884548088131850818 1:2.6423047 2:0.35620385 #
-2.0217339863945769096176263701636 1:1.0630075 2:0.35623625 #
-1.0108669931972884548088131850818 1:0 2:0.35602415 #
2.0217339863945769096176263701636 1:2.1717153 2:0.35640776 #
4.0434679727891538192352527403273 1:1.7107892 2:0.35632783 #
5.0543349659864418299548560753465 1:0 2:0.35644925 #
8.0869359455783058621136660804041 1:1.6424247 2:0.3562215 #
10.108669931972881883552872750442 1:1.7107892 2:0.35632783 #
11.119536925170169894272476085462 1:0 2:0.35628936 #
14.152137904762033926431286090519 1:1.784374 2:0.35622743 #
-20.217339863945770872533103101887 1:1.8650568 2:0.44383642 #
-18.195605877551191298380217631347 1:2.4100966 2:0.44393116 #
-16.173871891156611724227332160808 1:2.3725784 2:0.44385093 #
-14.152137904762033926431286090519 1:2.2839367 2:0.44362596 #
-12.130403918367457904992079420481 1:1.9079401 2:0.44396567 #
-10.108669931972881883552872750442 1:2.3725784 2:0.44383964 #
-8.0869359455783058621136660804041 1:2.4293282 2:0.44397214 #
-6.0652019591837298406744594103657 1:1.3008082 2:0.4438988 #
-4.0434679727891538192352527403273 1:1.3971387 2:0.4438079 #
-2.0217339863945769096176263701636 1:2.4390659 2:0.44400233 #
2.0217339863945769096176263701636 1:2.2924869 2:0.44364148 #
4.0434679727891538192352527403273 1:1.2922668 2:0.44385144 #
6.0652019591837298406744594103657 1:0.51436138 2:0.44388476 #
8.0869359455783058621136660804041 1:0.88454992 2:0.44377932 #
13.1412709115647459157116827555 1:2.6493084 2:0.44403937 #
12.130403918367457904992079420481 1:0.49437353 2:0.4436864 #
13.1412709115647459157116827555 1:0 2:0.44392249 #
16.173871891156611724227332160808 1:1.1482475 2:0.4440909 #
17.184738884353901511303774896078 1:0 2:0.44421047 #
19.206472870748481085456660366617 1:0 2:0.4439888 #
-24.260807836734930020838874042965 1:0.91354764 2:0.21322896 #
-15.163004897959321937150889425538 1:2.9995184 2:0.21318887 #
-20.217339863945770872533103101887 1:2.1720817 2:0.2131597 #
-18.195605877551191298380217631347 1:1.5220499 2:0.21312675 #
1.0108669931972884548088131850818 1:5.1267896 2:0.21324605 #
-15.163004897959321937150889425538 1:0.69699955 2:0.21331322 #
-14.15213790476203570278812549077 1:0 2:0.21324575 #
-11.119536925170169894272476085462 1:0.66965479 2:0.21320701 #
-10.108669931972881883552872750442 1:0 2:0.21318212 #
-7.0760689523810178513940627453849 1:0.65425414 2:0.21314347 #
-5.0543349659864418299548560753465 1:0.65930837 2:0.21316463 #
-4.0434679727891538192352527403273 1:0 2:0.21320331 #
-2.0217339863945769096176263701636 1:0 2:0.21319272 #
11.119536925170169894272476085462 1:4.8936238 2:0.21317187 #
4.0434679727891538192352527403273 1:0.6301024 2:0.21303792 #
7.0760689523810178513940627453849 1:2.4948082 2:0.213164 #
8.0869359455783058621136660804041 1:0.68033111 2:0.21324944 #
9.0978029387755938728332694154233 1:0 2:0.21333082 #
15.163004897959323713507728825789 1:3.6216879 2:0.21317138 #
14.152137904762033926431286090519 1:1.7730051 2:0.2133539 #
19.206472870748481085456660366617 1:4.0719895 2:0.21310477 #
15.163004897959321937150889425538 1:0 2:0.21322452 #
20.217339863945770872533103101887 1:1.9806373 2:0.21307874 #
22.239073850340350446685988572426 1:1.6258649 2:0.21318075 #
-9.0978029387755938728332694154233 1:0.50384194 2:0.39347348 #
-7.0760689523810178513940627453849 1:0.48765308 2:0.39341462 #
-5.0543349659864418299548560753465 1:1.3402834 2:0.39336079 #
-3.0326009795918653644264395552455 1:0.89353299 2:0.39333305 #
-1.0108669931972884548088131850818 1:0.51525241 2:0.39351273 #
1.0108669931972884548088131850818 1:1.4199544 2:0.39341956 #
3.0326009795918653644264395552455 1:0.43632752 2:0.39319944 #
5.0543349659864418299548560753465 1:0.042274214 2:0.39342603 #
7.0760689523810178513940627453849 1:0.041681353 2:0.39338684 #
9.0978029387755938728332694154233 1:0.95620733 2:0.39339179 #
-17.184738884353901511303774896078 1:1.5257928 2:0.38033357 #
-15.163004897959321937150889425538 1:1.0195383 2:0.38065851 #
-13.1412709115647459157116827555 1:1.0087646 2:0.3806017 #
-11.119536925170169894272476085462 1:0 2:0.38085568 #
-9.0978029387755938728332694154233 1:0.90410417 2:0.38048655 #
-7.0760689523810178513940627453849 1:0 2:0.38070375 #
-5.0543349659864418299548560753465 1:1.561464 2:0.38043144 #
-3.0326009795918653644264395552455 1:0 2:0.38076067 #
-1.0108669931972884548088131850818 1:0 2:0.38085568 #
1.0108669931972884548088131850818 1:1.6656193 2:0.38072392 #
3.0326009795918653644264395552455 1:1.6382515 2:0.3806597 #
5.0543349659864418299548560753465 1:1.6586887 2:0.38070494 #
7.0760689523810178513940627453849 1:1.6450056 2:0.38066706 #
9.0978029387755938728332694154233 1:1.6450056 2:0.38067865 #
11.119536925170169894272476085462 1:0 2:0.38077965 #
13.1412709115647459157116827555 1:1.6656193 2:0.38072392 #
15.163004897959321937150889425538 1:0 2:0.38040131 #
17.184738884353901511303774896078 1:1.0050336 2:0.38024557 #
-11.119536925170169894272476085462 1:0 2:0.16476844 #
-9.0978029387755938728332694154233 1:0.77180845 2:0.16470762 #
-7.0760689523810178513940627453849 1:0.19040313 2:0.16477801 #
-5.0543349659864418299548560753465 1:0.19829246 2:0.16482729 #
-3.0326009795918653644264395552455 1:0.19693249 2:0.16481906 #
-1.0108669931972884548088131850818 1:0.19693249 2:0.16481906 #
1.0108669931972884548088131850818 1:0.90029216 2:0.1648155 #
3.0326009795918653644264395552455 1:0.92422605 2:0.16483058 #
5.0543349659864418299548560753465 1:0.86675751 2:0.1647895 #
7.0760689523810178513940627453849 1:0.9495548 2:0.1648484 #
9.0978029387755938728332694154233 1:0.19167414 2:0.16478622 #
11.119536925170169894272476085462 1:0 2:0.16485059 #
-11.119536925170169894272476085462 1:3.9677472 2:0.21538228 #
-10.108669931972881883552872750442 1:3.9289017 2:0.21536082 #
-10.108669931972881883552872750442 1:3.6765826 2:0.21531539 #
-23.249940843537640233762431307696 1:1.826183 2:0.21531744 #
-21.228206857143060659609545837156 1:2.0795596 2:0.21535216 #
-21.228206857143060659609545837156 1:1.3383144 2:0.2152945 #
-17.184738884353901511303774896078 1:2.0594432 2:0.21516114 #
-18.195605877551191298380217631347 1:0.34450898 2:0.21521454 #
-13.1412709115647459157116827555 1:2.4295921 2:0.21535315 #
-11.119536925170169894272476085462 1:2.3776262 2:0.21529055 #
-9.0978029387755938728332694154233 1:2.3692026 2:0.21527821 #
-10.108669931972881883552872750442 1:0.57920134 2:0.21533377 #
-5.0543349659864418299548560753465 1:1.9625562 2:0.21524571 #
-3.0326009795918653644264395552455 1:1.8651196 2:0.21537103 #
-4.0434679727891538192352527403273 1:0.58555019 2:0.21539813 #
-2.0217339863945769096176263701636 1:0.22019967 2:0.21511842 #
4.0434679727891538192352527403273 1:1.3792675 2:0.21541242 #
4.0434679727891538192352527403273 1:0.21915153 2:0.21508819 #
7.0760689523810178513940627453849 1:1.3419281 2:0.21530519 #
11.119536925170169894272476085462 1:2.1630225 2:0.21542731 #
10.108669931972881883552872750442 1:0.57815665 2:0.21532306 #
12.130403918367457904992079420481 1:0.98049164 2:0.21526049 #
14.152137904762033926431286090519 1:0.22670534 2:0.21531044 #
16.173871891156611724227332160808 1:0.2244945 2:0.21524791 #
18.195605877551191298380217631347 1:0 2:0.215266 #
20.217339863945770872533103101887 1:0.57920134 2:0.21533377 #
22.239073850340350446685988572426 1:0.57196707 2:0.21525888 #
24.260807836734930020838874042965 1:0.56791413 2:0.21521617 #
26.282541823129509594991759513505 1:0 2:0.2150213 #
-19.206472870748481085456660366617 1:1.0426273 2:0.31541023 #
-17.184738884353901511303774896078 1:2.5776734 2:0.31539625 #
-15.163004897959321937150889425538 1:1.5517066 2:0.31546226 #
-13.1412709115647459157116827555 1:0.42009214 2:0.31546745 #
-11.119536925170169894272476085462 1:0 2:0.31546295 #
-9.0978029387755938728332694154233 1:1.4574642 2:0.31531537 #
-7.0760689523810178513940627453849 1:0.47100925 2:0.31535771 #
-5.0543349659864418299548560753465 1:1.8266699 2:0.31528068 #
-3.0326009795918653644264395552455 1:1.5030966 2:0.31538847 #
-1.0108669931972884548088131850818 1:0.40379345 2:0.31535736 #
1.0108669931972884548088131850818 1:1.5030966 2:0.31538364 #
4.0434679727891538192352527403273 1:2.7320168 2:0.31549063 #
5.0543349659864418299548560753465 1:0.46548891 2:0.31532633 #
7.0760689523810178513940627453849 1:1.0098889 2:0.3153317 #
8.0869359455783058621136660804041 1:0 2:0.31546295 #
11.119536925170169894272476085462 1:1.0227318 2:0.31536308 #
13.1412709115647459157116827555 1:0.47666213 2:0.31538913 #
15.163004897959321937150889425538 1:1.1364924 2:0.31544405 #
17.184738884353901511303774896078 1:2.5776734 2:0.31539625 #
19.206472870748481085456660366617 1:0.45482749 2:0.3152636 #
-5.0543349659864418299548560753465 1:0 2:0.83275163 #
-3.0326009795918653644264395552455 1:0 2:0.832959 #
-1.0108669931972884548088131850818 1:0 2:0.832959 #
1.0108669931972884548088131850818 1:0.74912447 2:0.83252871 #
3.0326009795918653644264395552455 1:0.80518645 2:0.8327685 #
5.0543349659864418299548560753465 1:0 2:0.83300054 #
-6.0652019591837298406744594103657 1:0.72138512 2:0.22341497 #
-4.0434679727891538192352527403273 1:1.2866509 2:0.223409 #
-2.0217339863945769096176263701636 1:0.6845758 2:0.22338165 #
2.0217339863945769096176263701636 1:0.58702254 2:0.22341171 #
4.0434679727891538192352527403273 1:0 2:0.22342744 #
6.0652019591837298406744594103657 1:0.6121465 2:0.22344506 #
-4.0434679727891538192352527403273 1:0 2:0.23314296 #
-2.0217339863945769096176263701636 1:0.55404258 2:0.23315778 #
2.0217339863945769096176263701636 1:1.1080852 2:0.23316102 #
4.0434679727891538192352527403273 1:0 2:0.23309658 #
-13.1412709115647459157116827555 1:2.888432 2:0.17309603 #
-20.217339863945770872533103101887 1:1.124675 2:0.17304453 #
-19.206472870748481085456660366617 1:0.020420207 2:0.17314427 #
-1.0108669931972884548088131850818 1:4.2973289 2:0.1731043 #
-14.152137904762033926431286090519 1:2.2852864 2:0.17298804 #
-13.1412709115647459157116827555 1:1.1668794 2:0.17291215 #
-11.119536925170169894272476085462 1:1.2786011 2:0.17298922 #
-10.108669931972881883552872750442 1:0.019610502 2:0.17294675 #
-8.0869359455783058621136660804041 1:0.019543117 2:0.17292966 #
-6.0652019591837298406744594103657 1:0.020456932 2:0.17315289 #
3.0326009795918653644264395552455 1:3.6943421 2:0.17303027 #
5.0543349659864418299548560753465 1:2.6128719 2:0.17302319 #
1.0108669931972884548088131850818 1:1.367672 2:0.17316863 #
2.0217339863945769096176263701636 1:0.020456932 2:0.17315289 #
4.0434679727891538192352527403273 1:0.020310823 2:0.17311841 #
6.0652019591837298406744594103657 1:0.020131094 2:0.17307536 #
11.119536925170169894272476085462 1:1.3076184 2:0.17309612 #
13.1412709115647459157116827555 1:1.2268748 2:0.17299308 #
15.163004897959321937150889425538 1:1.1680425 2:0.17310472 #
19.206472870748481085456660366617 1:2.6945403 2:0.17313886 #
15.163004897959321937150889425538 1:0.020166785 2:0.17308396 #
21.228206857143060659609545837156 1:1.161642 2:0.17309612 #
-15.163004897959321937150889425538 1:0 2:0.23306116 #
-13.1412709115647459157116827555 1:0.22047694 2:0.23324011 #
-11.119536925170169894272476085462 1:0.20922533 2:0.23312388 #
-9.0978029387755938728332694154233 1:0.21247835 2:0.23315869 #
-7.0760689523810178513940627453849 1:0.20200893 2:0.23304279 #
-5.0543349659864418299548560753465 1:0.2192976 2:0.23322846 #
-3.0326009795918653644264395552455 1:0.21358529 2:0.23317032 #
-1.0108669931972884548088131850818 1:0 2:0.23322369 #
1.0108669931972884548088131850818 1:0 2:0.2331191 #
3.0326009795918653644264395552455 1:0.20922533 2:0.23312388 #
5.0543349659864418299548560753465 1:0.21813083 2:0.23321682 #
7.0760689523810178513940627453849 1:0.20922533 2:0.23312388 #
9.0978029387755938728332694154233 1:0.20401946 2:0.23306593 #
11.119536925170169894272476085462 1:0.21247835 2:0.23315869 #
13.1412709115647459157116827555 1:2.2826421 2:0.23312791 #
15.163004897959321937150889425538 1:2.6826909 2:0.23322077 #
-16.173871891156611724227332160808 1:0.07969927 2:0.21452637 #
-14.152137904762033926431286090519 1:1.0596746 2:0.21459542 #
-12.130403918367457904992079420481 1:1.0650861 2:0.21460609 #
-10.108669931972881883552872750442 1:1.5072448 2:0.21464048 #
-8.0869359455783058621136660804041 1:0.083030209 2:0.21465451 #
-6.0652019591837298406744594103657 1:2.0954723 2:0.21457872 #
-4.0434679727891538192352527403273 1:0.47493014 2:0.21450724 #
-2.0217339863945769096176263701636 1:1.028352 2:0.21453142 #
2.0217339863945769096176263701636 1:1.9057586 2:0.21450467 #
4.0434679727891538192352527403273 1:0.083320394 2:0.2146652 #
6.0652019591837298406744594103657 1:1.040925 2:0.21458489 #
8.0869359455783058621136660804041 1:2.0584486 2:0.21462199 #
10.108669931972881883552872750442 1:0.079169929 2:0.21450508 #
12.130403918367457904992079420481 1:1.1105068 2:0.21469386 #
14.152137904762033926431286090519 1:0 2:0.21455672 #
16.173871891156611724227332160808 1:1.0437729 2:0.2145634 #
-19.206472870748481085456660366617 1:0.32576314 2:0.16247435 #
-17.184738884353901511303774896078 1:0 2:0.1625603 #
-15.163004897959323713507728825789 1:0.34399804 2:0.1625713 #
-13.1412709115647459157116827555 1:0.32866684 2:0.16249047 #
-11.119536925170169894272476085462 1:0.34081843 2:0.1625551 #
-9.0978029387755938728332694154233 1:0.33312076 2:0.16251469 #
-7.0760689523810178513940627453849 1:2.3280139 2:0.16247247 #
-5.0543349659864418299548560753465 1:0.34723753 2:0.16258749 #
-3.0326009795918653644264395552455 1:0 2:0.16253603 #
-1.0108669931972884548088131850818 1:0 2:0.16256839 #
1.0108669931972884548088131850818 1:0 2:0.16253603 #
3.0326009795918653644264395552455 1:1.7232971 2:0.16264634 #
5.0543349659864418299548560753465 1:1.6571563 2:0.16262197 #
7.0760689523810178513940627453849 1:0.35221282 2:0.16261181 #
13.1412709115647459157116827555 1:3.0477037 2:0.16261794 #
10.108669931972881883552872750442 1:0.34081843 2:0.1625551 #
12.130403918367457904992079420481 1:0.33925056 2:0.16254701 #
14.152137904762033926431286090519 1:0.33162278 2:0.16250661 #
16.173871891156611724227332160808 1:0 2:0.16265766 #
19.206472870748481085456660366617 1:1.2727933 2:0.16260895 #
-24.260807836734930020838874042965 1:0 2:0.093950383 #
-22.239073850340350446685988572426 1:0.58659768 2:0.093967378 #
-20.217339863945770872533103101887 1:0.60264701 2:0.093995415 #
-18.195605877551191298380217631347 1:0 2:0.093992412 #
-16.173871891156611724227332160808 1:0 2:0.093983062 #
-14.152137904762033926431286090519 1:0 2:0.093983062 #
-12.130403918367457904992079420481 1:0.58143616 2:0.09395805 #
-10.108669931972881883552872750442 1:0 2:0.094011143 #
-8.0869359455783058621136660804041 1:0.61670798 2:0.094018839 #
-6.0652019591837298406744594103657 1:0 2:0.09400177 #
-4.0434679727891538192352527403273 1:0.55693376 2:0.093911499 #
-2.0217339863945769096176263701636 1:0.59451407 2:0.093981393 #
2.0217339863945769096176263701636 1:0.60264701 2:0.093995415 #
4.0434679727891538192352527403273 1:0.58400553 2:0.093962714 #
6.0652019591837298406744594103657 1:0.60264701 2:0.093995415 #
8.0869359455783058621136660804041 1:0 2:0.093997091 #
10.108669931972881883552872750442 1:0 2:0.09400177 #
12.130403918367457904992079420481 1:0.59720051 2:0.093986064 #
14.15213790476203570278812549077 1:0.61959928 2:0.094023526 #
16.173871891156611724227332160808 1:0 2:0.094006456 #
18.195605877551191298380217631347 1:0.59720051 2:0.093986064 #
20.217339863945770872533103101887 1:0.59991139 2:0.093990743 #
22.239073850340350446685988572426 1:0 2:0.094025202 #
24.260807836734930020838874042965 1:0 2:0.09403459 #
-41.445546721088852848424721742049 1:0 2:0.22735998 #
-39.42381273469427327427183627151 1:0 2:0.22750686 #
-37.40207874829969370011895080097 1:1.430717 2:0.22743164 #
-35.380344761905114125966065330431 1:1.4613006 2:0.22752905 #
-33.358610775510534551813179859892 1:1.4049954 2:0.22735958 #
-31.336876789115958530373973189853 1:1.4574058 2:0.22751771 #
-29.315142802721378956221087719314 1:0 2:0.22740509 #
-27.293408816326799382068202248774 1:1.4344692 2:0.22744294 #
-25.271674829932219807915316778235 1:0 2:0.22755221 #
-23.249940843537640233762431307696 1:1.3732629 2:0.22725148 #
-21.228206857143060659609545837156 1:1.4691536 2:0.2275448 #
-19.206472870748481085456660366617 1:0 2:0.22746158 #
-17.184738884353901511303774896078 1:1.4458458 2:0.22747685 #
-15.163004897959321937150889425538 1:1.4086128 2:0.22736394 #
-13.141270911564747692068522155751 1:0 2:0.22743897 #
-11.119536925170169894272476085462 1:1.4420334 2:0.22746554 #
-9.0978029387755956491901088156737 1:0 2:0.22747289 #
-7.0760689523810178513940627453849 1:0 2:0.22749554 #
-5.0543349659864418299548560753465 1:1.4731121 2:0.22755615 #
-3.0326009795918653644264395552455 1:0 2:0.22758625 #
-1.0108669931972884548088131850818 1:0 2:0.22750686 #
1.0108669931972884548088131850818 1:1.4691536 2:0.2275448 #
3.0326009795918653644264395552455 1:1.4574058 2:0.22751081 #
5.0543349659864418299548560753465 1:1.4195782 2:0.22739777 #
7.0760689523810196277509021456353 1:1.412249 2:0.22737521 #
9.0978029387755938728332694154233 1:0 2:0.22751819 #
11.119536925170169894272476085462 1:0 2:0.22735998 #
13.1412709115647459157116827555 1:0 2:0.22745028 #
15.163004897959321937150889425538 1:0 2:0.22740509 #
17.184738884353901511303774896078 1:0.70997334 2:0.22751378 #
19.206472870748481085456660366617 1:0 2:0.22754087 #
21.228206857143060659609545837156 1:0 2:0.22733745 #
23.249940843537640233762431307696 1:1.481094 2:0.22757885 #
25.271674829932219807915316778235 1:1.481094 2:0.22757885 #
33.358610775510534551813179859892 1:3.5347211 2:0.22764702 #
28.304275809524089169144644984044 1:0 2:0.22752953 #
36.391211755102403913042508065701 1:3.4883597 2:0.22763565 #
31.336876789115958530373973189853 1:0 2:0.22754087 #
33.358610775510534551813179859892 1:0 2:0.22755221 #
35.380344761905114125966065330431 1:0 2:0.22742768 #
37.40207874829969370011895080097 1:0 2:0.22746158 #
39.42381273469427327427183627151 1:0 2:0.22748421 #
-10.108669931972881883552872750442 1:0.9294284 2:0.35571223 #
-8.0869359455783058621136660804041 1:0.12296987 2:0.35577917 #
-6.0652019591837298406744594103657 1:0.1248051 2:0.3558147 #
-4.0434679727891538192352527403273 1:0.90105528 2:0.35564828 #
-2.0217339863945769096176263701636 1:0.9809792 2:0.35579005 #
2.0217339863945769096176263701636 1:0.12296987 2:0.35577917 #
4.0434679727891538192352527403273 1:0.11533779 2:0.35561976 #
6.0652019591837298406744594103657 1:0.8333261 2:0.3555178 #
8.0869359455783058621136660804041 1:0.11454786 2:0.35560209 #
10.108669931972881883552872750442 1:0 2:0.35577267 #
-12.130403918367457904992079420481 1:1.5779767 2:0.19042307 #
-10.108669931972881883552872750442 1:2.2016246 2:0.19046097 #
-5.0543349659864418299548560753465 1:3.0324333 2:0.19047242 #
-6.0652019591837298406744594103657 1:1.2141023 2:0.1904379 #
-4.0434679727891538192352527403273 1:0.62759012 2:0.19051173 #
-2.0217339863945769096176263701636 1:1.8005189 2:0.19040415 #
2.0217339863945769096176263701636 1:2.0523553 2:0.19036645 #
4.0434679727891538192352527403273 1:0.90467024 2:0.1904747 #
6.0652019591837298406744594103657 1:0.6316973 2:0.19052124 #
7.0760689523810178513940627453849 1:0.26557222 2:0.19050111 #
9.0978029387755938728332694154233 1:0.26218492 2:0.19048324 #
11.119536925170169894272476085462 1:0 2:0.19057611 #
-4.0434679727891538192352527403273 1:3.2148421 2:0.60131997 #
-3.0326009795918653644264395552455 1:2.113132 2:0.60125852 #
-1.0108669931972884548088131850818 1:1.5102324 2:0.60112792 #
1.0108669931972884548088131850818 1:0.87083083 2:0.60118365 #
3.0326009795918653644264395552455 1:0.86374336 2:0.60126781 #
4.0434679727891538192352527403273 1:0.58115023 2:0.60138065 #
-15.163004897959321937150889425538 1:0.84947109 2:0.7063852 #
-13.1412709115647459157116827555 1:0.085733622 2:0.70670116 #
-11.119536925170169894272476085462 1:0.086519167 2:0.70677155 #
-9.0978029387755938728332694154233 1:0.086519167 2:0.70677155 #
-7.0760689523810178513940627453849 1:0.088547491 2:0.70694786 #
-5.0543349659864418299548560753465 1:0.83696294 2:0.7063151 #
-3.0326009795918653644264395552455 1:0.084581688 2:0.7066133 #
-1.0108669931972884548088131850818 1:0.087319247 2:0.70684206 #
1.0108669931972884548088131850818 1:0 2:0.70685965 #
3.0326009795918653644264395552455 1:0.088547491 2:0.70694786 #
5.0543349659864418299548560753465 1:0.088134252 2:0.70691258 #
7.0760689523810178513940627453849 1:0.94109243 2:0.70684206 #
9.0978029387755938728332694154233 1:0.91082287 2:0.70673651 #
11.119536925170169894272476085462 1:0.8893919 2:0.706631 #
13.1412709115647459157116827555 1:0.087724857 2:0.70687729 #
15.163004897959321937150889425538 1:0.89642042 2:0.70663089 #
-3.0326009795918653644264395552455 1:0.77897859 2:0.45416924 #
-1.0108669931972884548088131850818 1:0.67231619 2:0.4540334 #
1.0108669931972884548088131850818 1:0.49233088 2:0.45399323 #
3.0326009795918653644264395552455 1:0.24989964 2:0.45401829 #
-20.217339863945770872533103101887 1:0.36943054 2:0.71341169 #
-18.195605877551191298380217631347 1:0.37924552 2:0.71365952 #
-16.173871891156611724227332160808 1:0 2:0.71378714 #
-14.152137904762033926431286090519 1:0 2:0.71371609 #
-12.130403918367457904992079420481 1:0.38214633 2:0.71373045 #
-10.108669931972881883552872750442 1:0 2:0.71375161 #
-8.0869359455783058621136660804041 1:0.38658169 2:0.71383697 #
-6.0652019591837298406744594103657 1:0.38658169 2:0.71383697 #
-4.0434679727891538192352527403273 1:0.3942073 2:0.71401477 #
-2.0217339863945769096176263701636 1:0.38509184 2:0.71380144 #
2.0217339863945769096176263701636 1:0.38509184 2:0.71380144 #
4.0434679727891538192352527403273 1:0 2:0.71389371 #
6.0652019591837298406744594103657 1:0.38808313 2:0.71387249 #
8.0869359455783058621136660804041 1:0 2:0.7139293 #
10.108669931972881883552872750442 1:0.37357405 2:0.71356761 #
12.130403918367457904992079420481 1:0 2:0.71339732 #
14.152137904762033926431286090519 1:0.39734244 2:0.714086 #
16.173871891156611724227332160808 1:0 2:0.71403605 #
18.195605877551191298380217631347 1:0.39112124 2:0.7139436 #
20.217339863945770872533103101887 1:0.39734244 2:0.714086 #
-5.0543349659864418299548560753465 1:0.17990194 2:0.37231794 #
-3.0326009795918653644264395552455 1:0 2:0.37238079 #
-1.0108669931972884548088131850818 1:0.19633621 2:0.37246609 #
1.0108669931972884548088131850818 1:0.18983315 2:0.37241048 #
3.0326009795918653644264395552455 1:0.21077728 2:0.37257749 #
5.0543349659864418299548560753465 1:1.0334671 2:0.37259614 #
-21.228206857143060659609545837156 1:2.370152 2:0.20777838 #
-19.206472870748481085456660366617 1:2.3034644 2:0.20771652 #
-17.184738884353901511303774896078 1:2.4049871 2:0.20780936 #
-1.0108669931972884548088131850818 1:5.3242369 2:0.20789845 #
-2.0217339863945769096176263701636 1:3.7606502 2:0.20785786 #
-10.108669931972881883552872750442 1:2.0439777 2:0.20775595 #
-10.108669931972881883552872750442 1:0.30351397 2:0.2077492 #
7.0760689523810178513940627453849 1:5.0354023 2:0.2078577 #
-7.0760689523810178513940627453849 1:0.30054989 2:0.20771828 #
-5.0543349659864418299548560753465 1:0.31276768 2:0.20784217 #
9.0978029387755938728332694154233 1:3.2285843 2:0.20776308 #
-2.0217339863945769096176263701636 1:0.30858621 2:0.20780081 #
2.0217339863945769096176263701636 1:0.30653709 2:0.20778015 #
4.0434679727891538192352527403273 1:0 2:0.20780936 #
9.0978029387755938728332694154233 1:2.0038898 2:0.20771474 #
8.0869359455783058621136660804041 1:0.31597894 2:0.20787324 #
13.1412709115647459157116827555 1:1.7953292 2:0.20788275 #
12.130403918367457904992079420481 1:0.31066287 2:0.20782147 #
14.152137904762033926431286090519 1:0.32036462 2:0.20791471 #
16.173871891156611724227332160808 1:0 2:0.20792331 #
-10.108669931972881883552872750442 1:0.60822117 2:0.37781793 #
-8.0869359455783058621136660804041 1:0.63446707 2:0.37800583 #
-6.0652019591837298406744594103657 1:0 2:0.37733513 #
-4.0434679727891538192352527403273 1:0.2858246 2:0.37756708 #
-2.0217339863945769096176263701636 1:0.31235096 2:0.37790313 #
2.0217339863945769096176263701636 1:0.57946354 2:0.37760103 #
4.0434679727891538192352527403273 1:0.62370074 2:0.37793058 #
6.0652019591837298406744594103657 1:0.62106621 2:0.37791178 #
8.0869359455783058621136660804041 1:0.29918218 2:0.3776969 #
10.108669931972881883552872750442 1:0.62370074 2:0.37793058 #
-14.152137904762033926431286090519 1:0.29980043 2:0.2799533 #
-12.130403918367457904992079420481 1:2.1921945 2:0.28011459 #
-10.108669931972881883552872750442 1:1.7264334 2:0.27999893 #
-8.0869359455783058621136660804041 1:1.8123772 2:0.27982634 #
-6.0652019591837298406744594103657 1:0.30361682 2:0.27999505 #
-4.0434679727891538192352527403273 1:1.991918 2:0.27997512 #
-2.0217339863945769096176263701636 1:0.30106184 2:0.27996722 #
2.0217339863945769096176263701636 1:0.30361682 2:0.27999505 #
4.0434679727891538192352527403273 1:0 2:0.27993536 #
6.0652019591837298406744594103657 1:0.30491066 2:0.280009 #
8.0869359455783058621136660804041 1:1.0381501 2:0.27996203 #
10.108669931972881883552872750442 1:0.29980043 2:0.2799533 #
12.130403918367457904992079420481 1:0 2:0.2799632 #
14.152137904762033926431286090519 1:0 2:0.28011665 #
-23.249940843537640233762431307696 1:0 2:0.41311732 #
-21.228206857143060659609545837156 1:0.14210391 2:0.41277519 #
-19.206472870748481085456660366617 1:0.88949066 2:0.41288733 #
-17.184738884353901511303774896078 1:0.9631561 2:0.41285491 #
-15.163004897959321937150889425538 1:1.024199 2:0.41312581 #
-13.141270911564747692068522155751 1:0.14502592 2:0.41302097 #
-11.119536925170169894272476085462 1:0.7834093 2:0.41308609 #
-9.0978029387755938728332694154233 1:0.97139955 2:0.41287321 #
-7.0760689523810178513940627453849 1:0.90492541 2:0.41296929 #
-5.0543349659864418299548560753465 1:1.7373933 2:0.41293818 #
-3.0326009795918653644264395552455 1:0.93336397 2:0.41311303 #
-1.0108669931972884548088131850818 1:0.92094481 2:0.41305137 #
1.0108669931972884548088131850818 1:0.14653246 2:0.41314429 #
3.0326009795918653644264395552455 1:1.0335999 2:0.41315418 #
5.0543349659864418299548560753465 1:0.14653246 2:0.41314429 #
7.0760689523810178513940627453849 1:0.79130459 2:0.41312721 #
9.0978029387755938728332694154233 1:0.94614726 2:0.41317478 #
11.119536925170169894272476085462 1:1.024199 2:0.41311941 #
13.141270911564747692068522155751 1:1.7861037 2:0.41306126 #
15.163004897959321937150889425538 1:0.14577529 2:0.41308898 #
17.184738884353901511303774896078 1:1.7944987 2:0.4130882 #
19.206472870748481085456660366617 1:0.14355005 2:0.41289791 #
21.228206857143060659609545837156 1:0.14602681 2:0.41310951 #
23.249940843537640233762431307696 1:1.0383694 2:0.41317478 #
-16.173871891156611724227332160808 1:0 2:0.07403551 #
-14.152137904762033926431286090519 1:0 2:0.074046537 #
-12.130403918367457904992079420481 1:0 2:0.074064955 #
-10.108669931972881883552872750442 1:0 2:0.074068643 #
-8.0869359455783058621136660804041 1:0 2:0.074061267 #
-6.0652019591837298406744594103657 1:0 2:0.07403551 #
-4.0434679727891538192352527403273 1:0 2:0.074079715 #
-2.0217339863945769096176263701636 1:0 2:0.074076019 #
2.0217339863945769096176263701636 1:1.4680159 2:0.074097581 #
4.0434679727891538192352527403273 1:0 2:0.074046537 #
6.0652019591837298406744594103657 1:0 2:0.074057586 #
8.0869359455783058621136660804041 1:0 2:0.074046537 #
10.108669931972881883552872750442 1:0 2:0.074061267 #
12.130403918367457904992079420481 1:0 2:0.07403551 #
14.152137904762033926431286090519 1:0.75233877 2:0.074001394 #
16.173871891156611724227332160808 1:1.4382628 2:0.074093886 #
-11.119536925170169894272476085462 1:0.10877499 2:0.91616786 #
-9.0978029387755938728332694154233 1:0.1138162 2:0.91644192 #
-7.0760689523810178513940627453849 1:0.11208467 2:0.91635048 #
-5.0543349659864418299548560753465 1:0.11123851 2:0.91630483 #
-3.0326009795918653644264395552455 1:0.1129438 2:0.9163962 #
-1.0108669931972884548088131850818 1:0.10877499 2:0.91616786 #
1.0108669931972884548088131850818 1:0.10565517 2:0.91598552 #
3.0326009795918653644264395552455 1:0.11123851 2:0.91630483 #
5.0543349659864418299548560753465 1:0.11040504 2:0.91625917 #
7.0760689523810178513940627453849 1:0.11208467 2:0.91635048 #
9.0978029387755938728332694154233 1:0.11040504 2:0.91625917 #
11.119536925170169894272476085462 1:0 2:0.91616362 #
-13.1412709115647459157116827555 1:4.1947474 2:0.2420325 #
-24.260807836734930020838874042965 1:0 2:0.24199709 #
-18.195605877551191298380217631347 1:2.5979195 2:0.24188256 #
-7.0760689523810178513940627453849 1:4.2789865 2:0.24206863 #
-20.217339863945770872533103101887 1:0 2:0.24196103 #
-15.163004897959321937150889425538 1:2.260911 2:0.24210382 #
-11.119536925170169894272476085462 1:2.9601963 2:0.24203557 #
-9.0978029387755938728332694154233 1:2.910321 2:0.24210367 #
-9.0978029387755938728332694154233 1:2.260911 2:0.24210645 #
-7.0760689523810178513940627453849 1:2.0610454 2:0.24205829 #
-7.0760689523810178513940627453849 1:1.3452637 2:0.24205253 #
-4.0434679727891538192352527403273 1:1.6266512 2:0.24213259 #
-3.0326009795918653644264395552455 1:0.76750362 2:0.24191828 #
-1.0108669931972884548088131850818 1:1.3299644 2:0.24195749 #
1.0108669931972884548088131850818 1:0.58406937 2:0.24209668 #
3.0326009795918653644264395552455 1:0.85584497 2:0.24207383 #
7.0760689523810178513940627453849 1:2.1970899 2:0.24203676 #
4.0434679727891538192352527403273 1:0 2:0.24210554 #
11.119536925170169894272476085462 1:2.2642477 2:0.2421294 #
13.1412709115647459157116827555 1:2.2285225 2:0.24206764 #
15.163004897959323713507728825789 1:2.0689747 2:0.24196157 #
17.184738884353901511303774896078 1:2.0253029 2:0.24203421 #
17.184738884353901511303774896078 1:0.79778963 2:0.2421217 #
19.206472870748481085456660366617 1:1.4469361 2:0.24204814 #
21.228206857143060659609545837156 1:1.4175335 2:0.24214764 #
20.217339863945770872533103101887 1:0 2:0.24206935 #
-4.0434679727891538192352527403273 1:0.064645305 2:0.39505559 #
-2.0217339863945769096176263701636 1:1.2075106 2:0.39526486 #
2.0217339863945769096176263701636 1:3.0683088 2:0.39537022 #
4.0434679727891538192352527403273 1:0.74131364 2:0.39557397 #
-9.0978029387755938728332694154233 1:0.23212689 2:0.39338806 #
-7.0760689523810178513940627453849 1:0.21415798 2:0.39311451 #
-5.0543349659864418299548560753465 1:1.4064072 2:0.39332977 #
-3.0326009795918653644264395552455 1:0.22669244 2:0.39330974 #
-1.0108669931972884548088131850818 1:1.7050474 2:0.39341426 #
1.0108669931972884548088131850818 1:1.7511951 2:0.39334407 #
3.0326009795918653644264395552455 1:0.22669244 2:0.39330974 #
5.0543349659864418299548560753465 1:0.79495609 2:0.39331955 #
7.0760689523810178513940627453849 1:2.105406 2:0.39317846 #
9.0978029387755938728332694154233 1:0.21655275 2:0.39315349 #
-6.0652019591837298406744594103657 1:0.42668951 2:0.57076758 #
-4.0434679727891538192352527403273 1:0.44099766 2:0.57088089 #
-2.0217339863945769096176263701636 1:0.40688735 2:0.57059801 #
2.0217339863945769096176263701636 1:0 2:0.57111496 #
4.0434679727891538192352527403273 1:0 2:0.57085943 #
6.0652019591837298406744594103657 1:0 2:0.57097286 #
-7.0760689523810178513940627453849 1:1.3840227 2:0.48301271 #
-5.0543349659864418299548560753465 1:1.3507034 2:0.48296463 #
-3.0326009795918653644264395552455 1:0.7102924 2:0.48302391 #
-1.0108669931972884548088131850818 1:0.72320229 2:0.48307204 #
1.0108669931972884548088131850818 1:0.69106948 2:0.48301908 #
3.0326009795918653644264395552455 1:0.69177669 2:0.48295179 #
5.0543349659864418299548560753465 1:0.70401031 2:0.48300469 #
7.0760689523810178513940627453849 1:0.15353394 2:0.48286691 #
-11.119536925170169894272476085462 1:0.75105977 2:0.32599506 #
-9.0978029387755938728332694154233 1:0.85296237 2:0.32612497 #
-7.0760689523810178513940627453849 1:0.68134755 2:0.32605672 #
-5.0543349659864418299548560753465 1:0.80286741 2:0.32595187 #
-3.0326009795918653644264395552455 1:0 2:0.32619005 #
-1.0108669931972884548088131850818 1:0.79877418 2:0.32605997 #
1.0108669931972884548088131850818 1:0.91282529 2:0.32606539 #
3.0326009795918653644264395552455 1:1.7749902 2:0.32617596 #
5.0543349659864418299548560753465 1:0.71983367 2:0.32612172 #
7.0760689523810178513940627453849 1:0.67236054 2:0.32604048 #
9.0978029387755938728332694154233 1:1.4175254 2:0.32602429 #
11.119536925170169894272476085462 1:0 2:0.32617378 #
-15.163004897959321937150889425538 1:0.66800845 2:0.17229323 #
-13.1412709115647459157116827555 1:1.7275362 2:0.17231707 #
-11.119536925170169894272476085462 1:0.94355243 2:0.17225063 #
-9.0978029387755938728332694154233 1:0.68600863 2:0.17231895 #
-7.0760689523810178513940627453849 1:1.4126141 2:0.17227912 #
-5.0543349659864418299548560753465 1:0 2:0.17231239 #
-3.0326009795918653644264395552455 1:0.7115742 2:0.17235327 #
-1.0108669931972884548088131850818 1:0 2:0.17232955 #
1.0108669931972884548088131850818 1:1.8544242 2:0.17235997 #
3.0326009795918653644264395552455 1:0 2:0.1723897 #
5.0543349659864418299548560753465 1:0 2:0.17235531 #
7.0760689523810178513940627453849 1:0 2:0.17238109 #
9.0978029387755938728332694154233 1:0.70500582 2:0.17234468 #
11.119536925170169894272476085462 1:0 2:0.17234671 #
13.1412709115647459157116827555 1:0 2:0.17238109 #
15.163004897959321937150889425538 1:0 2:0.1723983 #
-14.152137904762033926431286090519 1:0 2:0.10956156 #
-12.130403918367457904992079420481 1:0 2:0.10952877 #
-10.108669931972881883552872750442 1:0 2:0.10941464 #
-8.0869359455783058621136660804041 1:1.2133696 2:0.10952061 #
-6.0652019591837298406744594103657 1:1.2461635 2:0.10948522 #
-4.0434679727891538192352527403273 1:2.1568003 2:0.10946079 #
-2.0217339863945769096176263701636 1:0 2:0.10947975 #
2.0217339863945769096176263701636 1:0 2:0.10952332 #
4.0434679727891538192352527403273 1:0 2:0.10951786 #
6.0652019591837298406744594103657 1:0 2:0.10956156 #
8.0869359455783058621136660804041 1:1.1272472 2:0.10949881 #
10.108669931972881883552872750442 1:0 2:0.10950696 #
12.130403918367457904992079420481 1:0 2:0.10952332 #
14.152137904762033926431286090519 1:0.98711979 2:0.10945533 #
-11.119536925170169894272476085462 1:0.25642237 2:0.7491169 #
-9.0978029387755938728332694154233 1:0.27521971 2:0.74952632 #
-7.0760689523810178513940627453849 1:0.27159971 2:0.74945176 #
-5.0543349659864418299548560753465 1:0 2:0.74966311 #
-3.0326009795918653644264395552455 1:0.27159971 2:0.74945176 #
-1.0108669931972884548088131850818 1:0 2:0.74962574 #
1.0108669931972884548088131850818 1:0.2827571 2:0.74967563 #
3.0326009795918653644264395552455 1:0.27706611 2:0.74956363 #
5.0543349659864418299548560753465 1:0.26982519 2:0.7494145 #
7.0760689523810178513940627453849 1:0.28470641 2:0.749713 #
9.0978029387755938728332694154233 1:0 2:0.74955106 #
11.119536925170169894272476085462 1:0.28868675 2:0.74978781 #
-14.152137904762033926431286090519 1:2.5302885 2:0.25972354 #
-5.0543349659864418299548560753465 1:2.6348007 2:0.25977525 #
-10.108669931972881883552872750442 1:1.487113 2:0.25973761 #
-1.0108669931972884548088131850818 1:2.6077323 2:0.2597737 #
-8.0869359455783058621136660804041 1:0 2:0.25974768 #
-4.0434679727891538192352527403273 1:1.4773294 2:0.25973162 #
-4.0434679727891538192352527403273 1:0 2:0.25977358 #
2.0217339863945769096176263701636 1:0.55490929 2:0.2596488 #
4.0434679727891538192352527403273 1:0.59298217 2:0.25981686 #
4.0434679727891538192352527403273 1:0 2:0.25974768 #
6.0652019591837298406744594103657 1:0 2:0.2596702 #
8.0869359455783058621136660804041 1:0 2:0.25965729 #
10.108669931972881883552872750442 1:0 2:0.25959286 #
12.130403918367457904992079420481 1:0 2:0.25979948 #
-6.0652019591837298406744594103657 1:0.28712142 2:0.71383697 #
-4.0434679727891538192352527403273 1:0.29102403 2:0.71387249 #
-2.0217339863945769096176263701636 1:0.30339551 2:0.71397918 #
2.0217339863945769096176263701636 1:0.30339551 2:0.71397918 #
4.0434679727891538192352527403273 1:0.32653025 2:0.71415728 #
6.0652019591837298406744594103657 1:0 2:0.7139293 #
-40.434679727891563061348279006779 1:1.0150176 2:0.12414928 #
-38.41294574149698348719539353624 1:0 2:0.12408908 #
-7.0760689523810178513940627453849 1:3.9429271 2:0.12410153 #
-35.380344761905114125966065330431 1:0.96255577 2:0.12406895 #
-33.358610775510534551813179859892 1:0 2:0.12407675 #
-31.336876789115954977660294389352 1:0 2:0.12414473 #
-28.304275809524089169144644984044 1:2.3287678 2:0.12403378 #
-27.293408816326799382068202248774 1:0 2:0.12406442 #
3.0326009795918653644264395552455 1:4.1631989 2:0.12414304 #
-22.239073850340350446685988572426 1:2.4450057 2:0.1240892 #
-22.239073850340350446685988572426 1:0 2:0.1241138 #
-20.217339863945770872533103101887 1:0.97811091 2:0.12409362 #
-18.195605877551191298380217631347 1:0.99827647 2:0.12412451 #
-14.15213790476203570278812549077 1:1.618974 2:0.12413056 #
-14.15213790476203570278812549077 1:0 2:0.12414473 #
-12.130403918367459681348918820731 1:0 2:0.12413235 #
-10.108669931972881883552872750442 1:0 2:0.12409526 #
-8.0869359455783058621136660804041 1:0 2:0.1241138 #
-6.0652019591837298406744594103657 1:0 2:0.12403364 #
-4.0434679727891538192352527403273 1:0 2:0.12409526 #
-2.0217339863945769096176263701636 1:0.98607856 2:0.12410597 #
1.0108669931972884548088131850818 1:1.4845037 2:0.12409085 #
2.0217339863945769096176263701636 1:0 2:0.12405826 #
4.0434679727891538192352527403273 1:0.9257496 2:0.12400744 #
8.0869359455783058621136660804041 1:2.5006819 2:0.1241139 #
8.0869359455783058621136660804041 1:0 2:0.12413854 #
10.108669931972881883552872750442 1:0 2:0.12408908 #
23.249940843537640233762431307696 1:2.9765291 2:0.12408908 #
13.1412709115647459157116827555 1:0 2:0.1240521 #
15.163004897959321937150889425538 1:0 2:0.12405826 #
17.184738884353901511303774896078 1:0 2:0.12408292 #
19.206472870748481085456660366617 1:0 2:0.12407058 #
29.315142802721378956221087719314 1:2.6359115 2:0.12414129 #
22.239073850340350446685988572426 1:0 2:0.12409526 #
24.260807836734930020838874042965 1:0 2:0.12404595 #
28.304275809524089169144644984044 1:1.0065775 2:0.12413689 #
30.326009795918668743297530454583 1:1.019291 2:0.12415547 #
30.326009795918668743297530454583 1:0 2:0.12412617 #
32.347743782313244764736737124622 1:0 2:0.12399065 #
37.40207874829969370011895080097 1:1.5369583 2:0.12409349 #
36.391211755102403913042508065701 1:0 2:0.12415713 #
-4.0434679727891538192352527403273 1:0.70264328 2:0.28592539 #
-2.0217339863945769096176263701636 1:0.061710197 2:0.2855182 #
2.0217339863945769096176263701636 1:0.81126159 2:0.28602493 #
4.0434679727891538192352527403273 1:0.077862531 2:0.28606763 #
-11.119536925170169894272476085462 1:0.91333956 2:0.12011754 #
-9.0978029387755938728332694154233 1:0 2:0.12012151 #
-7.0760689523810178513940627453849 1:0 2:0.12013946 #
-5.0543349659864418299548560753465 1:0 2:0.12009759 #
-3.0326009795918653644264395552455 1:0 2:0.12016345 #
-1.0108669931972884548088131850818 1:0 2:0.12013347 #
1.0108669931972884548088131850818 1:0.8664794 2:0.1200996 #
3.0326009795918653644264395552455 1:0 2:0.12015145 #
5.0543349659864418299548560753465 1:0 2:0.12013946 #
7.0760689523810178513940627453849 1:0.83782226 2:0.12008767 #
9.0978029387755938728332694154233 1:0 2:0.12011553 #
11.119536925170169894272476085462 1:0.7778396 2:0.12009766 #
-27.293408816326799382068202248774 1:0.92028457 2:0.2539362 #
-25.271674829932219807915316778235 1:0.93162698 2:0.25396153 #
-23.249940843537640233762431307696 1:0.87248415 2:0.25382257 #
-21.228206857143060659609545837156 1:0.42649439 2:0.25394359 #
-19.206472870748481085456660366617 1:1.3312252 2:0.25391749 #
-17.184738884353901511303774896078 1:0.43262392 2:0.25399426 #
-15.163004897959321937150889425538 1:0.89840871 2:0.25388566 #
-13.141270911564747692068522155751 1:0 2:0.25394967 #
-11.119536925170169894272476085462 1:1.271634 2:0.25380391 #
-9.0978029387755938728332694154233 1:0.42498907 2:0.25393096 #
-7.0760689523810178513940627453849 1:0.42349431 2:0.25391832 #
-5.0543349659864418299548560753465 1:0.94325238 2:0.25398684 #
-3.0326009795918653644264395552455 1:0 2:0.25391173 #
-1.0108669931972884548088131850818 1:0.42801043 2:0.25395626 #
1.0108669931972884548088131850818 1:0.93740362 2:0.25397417 #
3.0326009795918653644264395552455 1:0.41761902 2:0.25386778 #
5.0543349659864418299548560753465 1:2.0015299 2:0.25397742 #
7.0760689523810178513940627453849 1:0.40910548 2:0.25379211 #
9.0978029387755938728332694154233 1:0.41907251 2:0.25388041 #
11.119536925170169894272476085462 1:0.93162698 2:0.25396153 #
13.1412709115647459157116827555 1:0.42498907 2:0.25393096 #
15.163004897959321937150889425538 1:0.41190448 2:0.25381732 #
17.184738884353901511303774896078 1:0.42349431 2:0.25391832 #
19.206472870748481085456660366617 1:0.42349431 2:0.25391832 #
21.228206857143060659609545837156 1:0.42349431 2:0.25391832 #
23.249940843537640233762431307696 1:1.9009377 2:0.25393948 #
25.271674829932219807915316778235 1:0.82940418 2:0.25370932 #
27.293408816326799382068202248774 1:0.41761902 2:0.25386778 #
-18.195605877551191298380217631347 1:0.45028374 2:0.6122939 #
-16.173871891156611724227332160808 1:0.76159185 2:0.61308664 #
-14.152137904762033926431286090519 1:0.5003556 2:0.61305219 #
-12.130403918367457904992079420481 1:1.264183 2:0.61310422 #
-10.108669931972881883552872750442 1:0.74955779 2:0.61301666 #
-8.0869359455783058621136660804041 1:0.44509888 2:0.61319929 #
-6.0652019591837298406744594103657 1:1.7431352 2:0.61326897 #
-4.0434679727891538192352527403273 1:1.7271156 2:0.61320788 #
-2.0217339863945769096176263701636 1:0.96823454 2:0.61330861 #
2.0217339863945769096176263701636 1:0.42862472 2:0.61283362 #
4.0434679727891538192352527403273 1:0.48524687 2:0.6128391 #
6.0652019591837298406744594103657 1:0.89711672 2:0.61272347 #
8.0869359455783058621136660804041 1:0.44367781 2:0.61316872 #
10.108669931972881883552872750442 1:0.44086275 2:0.61310768 #
12.130403918367457904992079420481 1:1.7271156 2:0.61320788 #
14.15213790476203570278812549077 1:1.2769542 2:0.61316526 #
16.173871891156611724227332160808 1:0.43533844 2:0.61299789 #
18.195605877551191298380217631347 1:0.4494172 2:0.61330307 #
-6.0652019591837298406744594103657 1:0.76191241 2:0.45150286 #
-4.0434679727891538192352527403273 1:0.058208361 2:0.45151392 #
-2.0217339863945769096176263701636 1:0.057102252 2:0.4514465 #
2.0217339863945769096176263701636 1:0.057466254 2:0.45146894 #
4.0434679727891538192352527403273 1:0.059358172 2:0.45158932 #
6.0652019591837298406744594103657 1:0.057102252 2:0.45145437 #
-13.1412709115647459157116827555 1:0.82096213 2:0.1937896 #
-11.119536925170169894272476085462 1:0 2:0.19372272 #
-9.0978029387755938728332694154233 1:0 2:0.19375163 #
-7.0760689523810178513940627453849 1:0.92895365 2:0.1937822 #
-5.0543349659864418299548560753465 1:0.94234741 2:0.19379185 #
-3.0326009795918653644264395552455 1:0.82096213 2:0.1937896 #
-1.0108669931972884548088131850818 1:0.89096332 2:0.19375327 #
1.0108669931972884548088131850818 1:0.85595822 2:0.19372436 #
3.0326009795918653644264395552455 1:0.84125066 2:0.19380891 #
5.0543349659864418299548560753465 1:0.81118041 2:0.19377995 #
7.0760689523810178513940627453849 1:0.78318572 2:0.19375101 #
9.0978029387755938728332694154233 1:0 2:0.19379988 #
11.119536925170169894272476085462 1:0 2:0.19378057 #
13.1412709115647459157116827555 1:0 2:0.19382888 #
-2.0217339863945769096176263701636 1:0.7123341 2:0.36766073 #
2.0217339863945769096176263701636 1:0.30024803 2:0.36781347 #
-7.0760689523810178513940627453849 1:0.818928 2:0.16813324 #
-5.0543349659864418299548560753465 1:0 2:0.16817033 #
-3.0326009795918653644264395552455 1:0.6083023 2:0.16799144 #
-1.0108669931972884548088131850818 1:1.4864752 2:0.16809623 #
1.0108669931972884548088131850818 1:0 2:0.16812009 #
3.0326009795918653644264395552455 1:0 2:0.16815357 #
5.0543349659864418299548560753465 1:0 2:0.16817033 #
7.0760689523810178513940627453849 1:1.671909 2:0.16814642 #
-10.108669931972881883552872750442 1:0.28610426 2:0.28839481 #
-8.0869359455783058621136660804041 1:0.3046602 2:0.28849533 #
-6.0652019591837298406744594103657 1:0.29911736 2:0.28846657 #
-4.0434679727891538192352527403273 1:1.1301515 2:0.28855172 #
-2.0217339863945769096176263701636 1:1.0653056 2:0.28849414 #
2.0217339863945769096176263701636 1:1.0215691 2:0.28845105 #
4.0434679727891538192352527403273 1:0 2:0.28847435 #
6.0652019591837298406744594103657 1:0 2:0.28841689 #
8.0869359455783058621136660804041 1:0.2964209 2:0.28845221 #
10.108669931972881883552872750442 1:0 2:0.2885319 #
-39.42381273469427327427183627151 1:2.2199273 2:0.47300467 #
-36.391211755102403913042508065701 1:2.7846622 2:0.47312775 #
-35.380344761905114125966065330431 1:0.30884245 2:0.47312587 #
-33.358610775510534551813179859892 1:1.8816432 2:0.47286072 #
-30.326009795918668743297530454583 1:2.7988789 2:0.4731749 #
-29.315142802721375403507408918813 1:1.2232301 2:0.47311017 #
-15.163004897959321937150889425538 1:3.5822916 2:0.47269779 #
-26.282541823129509594991759513505 1:0.97722566 2:0.47317946 #
-23.249940843537640233762431307696 1:1.25216 2:0.47299522 #
-20.217339863945770872533103101887 1:2.7988789 2:0.4731749 #
-18.195605877551191298380217631347 1:2.7846622 2:0.47312775 #
-17.184738884353901511303774896078 1:1.991993 2:0.47251552 #
-16.173871891156611724227332160808 1:0.81875408 2:0.47296765 #
-13.1412709115647459157116827555 1:1.9268913 2:0.47311932 #
-9.0978029387755938728332694154233 1:1.918499 2:0.47307223 #
-9.0978029387755938728332694154233 1:0.84562474 2:0.47313127 #
-5.0543349659864418299548560753465 1:2.1277466 2:0.47314489 #
-3.0326009795918653644264395552455 1:1.8036839 2:0.47299948 #
-1.0108669931972884548088131850818 1:2.1223648 2:0.47312132 #
1.0108669931972884548088131850818 1:2.0958881 2:0.47300366 #
-3.0326009795918653644264395552455 1:0.16804664 2:0.47309867 #
5.0543349659864418299548560753465 1:1.6455147 2:0.47281602 #
7.0760689523810178513940627453849 1:2.7846622 2:0.47312775 #
9.0978029387755938728332694154233 1:1.2595903 2:0.47306579 #
11.119536925170169894272476085462 1:1.3357257 2:0.47267812 #
11.119536925170169894272476085462 1:0.95011806 2:0.47303486 #
13.1412709115647459157116827555 1:0.84399062 2:0.4731077 #
15.163004897959321937150889425538 1:0.82487541 2:0.47283107 #
17.184738884353901511303774896078 1:0.55984497 2:0.47308019 #
24.260807836734930020838874042965 1:3.5087929 2:0.47302088 #
20.217339863945770872533103101887 1:0.30560726 2:0.47296476 #
25.271674829932219807915316778235 1:1.599985 2:0.47299424 #
27.293408816326799382068202248774 1:1.4187036 2:0.4731122 #
29.315142802721378956221087719314 1:1.262087 2:0.47308934 #
31.336876789115958530373973189853 1:1.262087 2:0.47308934 #
32.347743782313244764736737124622 1:1.2094268 2:0.47299251 #
33.358610775510534551813179859892 1:0.97503132 2:0.47315586 #
34.369477768707824338889622595161 1:0.7036612 2:0.47310406 #
36.391211755102403913042508065701 1:0.30837607 2:0.4731023 #
-16.173871891156611724227332160808 1:1.2399135 2:0.27556762 #
-14.152137904762033926431286090519 1:1.2356534 2:0.27555397 #
-12.130403918367457904992079420481 1:0.68650341 2:0.27556378 #
-10.108669931972881883552872750442 1:0.68857044 2:0.27557746 #
-8.0869359455783058621136660804041 1:0.026684206 2:0.27573809 #
-6.0652019591837298406744594103657 1:0.026145495 2:0.27562851 #
-2.0217339863945769096176263701636 1:2.7421489 2:0.27572471 #
-3.0326009795918653644264395552455 1:0.02581971 2:0.2755602 #
2.0217339863945769096176263701636 1:0.68240887 2:0.27553651 #
3.0326009795918653644264395552455 1:0.026753109 2:0.27575183 #
6.0652019591837298406744594103657 1:3.2505767 2:0.27579692 #
8.0869359455783058621136660804041 1:3.2505767 2:0.27579692 #
10.108669931972881883552872750442 1:2.015749 2:0.27566576 #
12.130403918367457904992079420481 1:1.9816258 2:0.27561489 #
14.152137904762033926431286090519 1:1.6645072 2:0.27575937 #
16.173871891156611724227332160808 1:2.6959214 2:0.27582183 #
-1.0108669931972884548088131850818 1:0.71165007 2:0.6297195 #
1.0108669931972884548088131850818 1:0.40159166 2:0.62947911 #
-5.0543349659864418299548560753465 1:0.40558127 2:0.48057786 #
-3.0326009795918653644264395552455 1:0.41372874 2:0.48060185 #
-1.0108669931972884548088131850818 1:0.065107778 2:0.48063779 #
1.0108669931972884548088131850818 1:0.42221421 2:0.48062581 #
3.0326009795918653644264395552455 1:0.057923473 2:0.48044616 #
5.0543349659864418299548560753465 1:0.37599471 2:0.48048207 #
-3.0326009795918653644264395552455 1:0.24006967 2:0.36040843 #
-1.0108669931972884548088131850818 1:0.58122826 2:0.36047837 #
1.0108669931972884548088131850818 1:0.27138311 2:0.36048034 #
3.0326009795918653644264395552455 1:0.24720046 2:0.3604264 #
-9.0978029387755938728332694154233 1:0.65414965 2:0.37278244 #
-7.0760689523810178513940627453849 1:2.2706547 2:0.37276834 #
-5.0543349659864418299548560753465 1:2.2498653 2:0.37274987 #
-3.0326009795918653644264395552455 1:0.3455379 2:0.37278232 #
-1.0108669931972884548088131850818 1:0.3550621 2:0.37287492 #
1.0108669931972884548088131850818 1:0.23483786 2:0.37303823 #
3.0326009795918653644264395552455 1:0.37150529 2:0.37302151 #
5.0543349659864418299548560753465 1:0.13940595 2:0.37305731 #
7.0760689523810178513940627453849 1:1.7635621 2:0.37304989 #
9.0978029387755938728332694154233 1:2.7019811 2:0.37307736 #
-20.217339863945770872533103101887 1:0.74480325 2:0.7137199 #
-18.195605877551191298380217631347 1:0.76365221 2:0.71387249 #
-16.173871891156611724227332160808 1:0.73038101 2:0.71355325 #
-14.15213790476203570278812549077 1:0 2:0.7139293 #
-12.130403918367457904992079420481 1:0.77146161 2:0.7139436 #
-10.108669931972881883552872750442 1:0 2:0.71403605 #
-8.0869359455783058621136660804041 1:0.77943248 2:0.71401477 #
-6.0652019591837298406744594103657 1:0.78347993 2:0.71405035 #
-4.0434679727891538192352527403273 1:0 2:0.71407169 #
-2.0217339863945769096176263701636 1:0.77943248 2:0.71401477 #
2.0217339863945769096176263701636 1:0 2:0.71414298 #
4.0434679727891538192352527403273 1:0 2:0.71414298 #
6.0652019591837298406744594103657 1:0.7484982 2:0.71373045 #
8.0869359455783058621136660804041 1:0.76753706 2:0.71390808 #
10.108669931972881883552872750442 1:0.76365221 2:0.71387249 #
12.130403918367457904992079420481 1:0.73752165 2:0.71362406 #
14.15213790476203570278812549077 1:0.76753706 2:0.71390808 #
16.173871891156611724227332160808 1:0 2:0.71375161 #
18.195605877551191298380217631347 1:0.76753706 2:0.71393299 #
20.217339863945770872533103101887 1:0 2:0.71428573 #
-6.0652019591837298406744594103657 1:0 2:0.14280722 #
-4.0434679727891538192352527403273 1:0 2:0.14275032 #
-2.0217339863945769096176263701636 1:0 2:0.14280722 #
2.0217339863945769096176263701636 1:0 2:0.14279297 #
4.0434679727891538192352527403273 1:0 2:0.14276452 #
6.0652019591837298406744594103657 1:0 2:0.14270777 #
-9.0978029387755938728332694154233 1:2.2638004 2:0.25104335 #
-7.0760689523810178513940627453849 1:0.53856456 2:0.25101832 #
-5.0543349659864418299548560753465 1:1.1049739 2:0.25104833 #
-1.0108669931972884548088131850818 1:2.8578157 2:0.25106087 #
-2.0217339863945769096176263701636 1:0 2:0.2510758 #
1.0108669931972884548088131850818 1:0.53186327 2:0.25100583 #
3.0326009795918653644264395552455 1:0.56714827 2:0.25106832 #
4.0434679727891538192352527403273 1:0 2:0.25108832 #
7.0760689523810178513940627453849 1:0.59893614 2:0.25111839 #
9.0978029387755938728332694154233 1:0.56714827 2:0.25106832 #
-11.119536925170169894272476085462 1:0.48766664 2:0.17151323 #
-9.0978029387755938728332694154233 1:0 2:0.17152745 #
-7.0760689523810178513940627453849 1:0.48011786 2:0.17149052 #
-5.0543349659864418299548560753465 1:1.6677984 2:0.1715773 #
-3.0326009795918653644264395552455 1:1.5545632 2:0.17153744 #
-1.0108669931972884548088131850818 1:0 2:0.17129825 #
1.0108669931972884548088131850818 1:0 2:0.17150186 #
3.0326009795918653644264395552455 1:0.48512414 2:0.17150471 #
5.0543349659864418299548560753465 1:0.50623882 2:0.17157301 #
7.0760689523810178513940627453849 1:0 2:0.17151891 #
9.0978029387755938728332694154233 1:0 2:0.17155306 #
11.119536925170169894272476085462 1:0.48011786 2:0.17148766 #
-15.163004897959321937150889425538 1:0 2:0.5618282 #
-13.1412709115647459157116827555 1:0 2:0.56202352 #
-11.119536925170169894272476085462 1:0 2:0.56205142 #
-9.0978029387755938728332694154233 1:0 2:0.56210732 #
-7.0760689523810178513940627453849 1:0 2:0.56216329 #
-5.0543349659864418299548560753465 1:0 2:0.56221932 #
-3.0326009795918653644264395552455 1:0.52494079 2:0.5622412 #
-1.0108669931972884548088131850818 1:0.52172279 2:0.56221318 #
1.0108669931972884548088131850818 1:0.48876396 2:0.56190586 #
3.0326009795918653644264395552455 1:0.51854396 2:0.56218517 #
5.0543349659864418299548560753465 1:0 2:0.56235951 #
7.0760689523810178513940627453849 1:0.48876396 2:0.56190586 #
9.0978029387755938728332694154233 1:0.53483754 2:0.5623253 #
11.119536925170169894272476085462 1:0.53149742 2:0.56229722 #
13.1412709115647459157116827555 1:0.48597303 2:0.56187797 #
15.163004897959321937150889425538 1:0.51854396 2:0.56218517 #
-2.0217339863945769096176263701636 1:0.27551937 2:0.37376747 #
2.0217339863945769096176263701636 1:0.33222711 2:0.37397197 #
-4.0434679727891538192352527403273 1:1.4097909 2:0.19995341 #
-2.0217339863945769096176263701636 1:0 2:0.19991016 #
2.0217339863945769096176263701636 1:0 2:0.19985045 #
4.0434679727891538192352527403273 1:0 2:0.1999301 #
-3.0326009795918653644264395552455 1:0.084821574 2:0.35332859 #
-1.0108669931972884548088131850818 1:0.071500108 2:0.35301316 #
1.0108669931972884548088131850818 1:0.089451015 2:0.35341662 #
3.0326009795918653644264395552455 1:0.080647744 2:0.35324073 #
-19.206472870748481085456660366617 1:0.8523891 2:0.17177133 #
-17.184738884353901511303774896078 1:0 2:0.17176576 #
-15.163004897959321937150889425538 1:0.82450867 2:0.17171156 #
-13.1412709115647459157116827555 1:0.61644524 2:0.17174356 #
-11.119536925170169894272476085462 1:0.22376098 2:0.17174228 #
-9.0978029387755938728332694154233 1:0.88228238 2:0.17183127 #
-7.0760689523810178513940627453849 1:2.0441418 2:0.1717315 #
-5.0543349659864418299548560753465 1:0.21707477 2:0.17166555 #
-3.0326009795918653644264395552455 1:0.63995731 2:0.17180341 #
-1.0108669931972884548088131850818 1:1.4544532 2:0.17173661 #
1.0108669931972884548088131850818 1:0.2245294 2:0.17175081 #
3.0326009795918653644264395552455 1:0.22530311 2:0.17175935 #
5.0543349659864418299548560753465 1:0.820678 2:0.17170304 #
7.0760689523810178513940627453849 1:0 2:0.17177431 #
9.0978029387755938728332694154233 1:0.8649413 2:0.17179701 #
11.119536925170169894272476085462 1:0.84422714 2:0.17175424 #
13.1412709115647459157116827555 1:0.85653126 2:0.17177989 #
15.163004897959323713507728825789 1:1.4041495 2:0.17171103 #
17.184738884353901511303774896078 1:0.2276566 2:0.17178501 #
19.206472870748481085456660366617 1:0.22148694 2:0.17171668 #
-46.499881687075301783806935418397 1:0 2:0.14142948 #
-44.478147700680722209654049947858 1:0 2:0.14144354 #
-42.456413714286142635501164477319 1:0 2:0.14142247 #
-40.434679727891563061348279006779 1:0 2:0.14146465 #
-38.41294574149698348719539353624 1:0 2:0.14149283 #
-36.391211755102403913042508065701 1:0 2:0.14147873 #
-34.369477768707824338889622595161 1:2.4711485 2:0.14141855 #
-32.347743782313244764736737124622 1:2.4938676 2:0.14143962 #
-30.326009795918668743297530454583 1:2.5015371 2:0.14144665 #
-28.304275809524089169144644984044 1:1.4314431 2:0.14137374 #
-26.282541823129509594991759513505 1:0 2:0.14140843 #
-24.260807836734930020838874042965 1:0 2:0.14142948 #
-22.239073850340350446685988572426 1:0 2:0.14141545 #
-20.217339863945770872533103101887 1:0 2:0.14146465 #
-18.195605877551191298380217631347 1:0 2:0.14141545 #
-16.173871891156611724227332160808 1:2.5248415 2:0.14146775 #
-14.15213790476203570278812549077 1:0 2:0.14146465 #
-12.130403918367459681348918820731 1:0 2:0.14147168 #
-10.108669931972881883552872750442 1:0 2:0.1414576 #
-8.0869359455783058621136660804041 1:0 2:0.14145057 #
-6.0652019591837298406744594103657 1:0 2:0.14142247 #
-4.0434679727891538192352527403273 1:0 2:0.14143652 #
-2.0217339863945769096176263701636 1:2.4786739 2:0.14142556 #
2.0217339863945769096176263701636 1:2.5406296 2:0.14148183 #
4.0434679727891555955920921405777 1:2.5646994 2:0.14150298 #
6.0652019591837298406744594103657 1:0.72671306 2:0.14148939 #
8.0869359455783058621136660804041 1:0 2:0.14143652 #
10.108669931972881883552872750442 1:1.4995551 2:0.1415002 #
12.130403918367459681348918820731 1:2.5486007 2:0.14148888 #
14.15213790476203570278812549077 1:2.5406296 2:0.14148183 #
16.173871891156611724227332160808 1:2.4786739 2:0.14143294 #
25.271674829932219807915316778235 1:2.6058857 2:0.14153826 #
19.206472870748481085456660366617 1:0 2:0.14142247 #
21.228206857143060659609545837156 1:0 2:0.14148578 #
24.260807836734930020838874042965 1:1.4838645 2:0.14147203 #
31.336876789115954977660294389352 1:3.0357871 2:0.1415064 #
26.282541823129509594991759513505 1:0 2:0.14147168 #
28.304275809524089169144644984044 1:0 2:0.14152105 #
35.380344761905114125966065330431 1:2.5892475 2:0.14152414 #
34.369477768707824338889622595161 1:1.5035298 2:0.14150725 #
36.391211755102403913042508065701 1:1.5035298 2:0.14150725 #
35.380344761905114125966065330431 1:0 2:0.14147168 #
37.40207874829969370011895080097 1:0 2:0.14151399 #
39.42381273469427327427183627151 1:0 2:0.14147873 #
44.478147700680722209654049947858 1:2.5975389 2:0.1415312 #
46.499881687075301783806935418397 1:2.5975389 2:0.1415312 #
-7.0760689523810178513940627453849 1:2.6725194 2:0.30251938 #
-7.0760689523810178513940627453849 1:1.1545483 2:0.30246156 #
-5.0543349659864418299548560753465 1:2.1960897 2:0.30240098 #
-1.0108669931972884548088131850818 1:2.6725194 2:0.30251938 #
-1.0108669931972884548088131850818 1:0.41504484 2:0.30233493 #
1.0108669931972884548088131850818 1:1.1545483 2:0.30246156 #
3.0326009795918653644264395552455 1:0.41504484 2:0.30233493 #
3.0326009795918653644264395552455 1:0 2:0.30243602 #
7.0760689523810178513940627453849 1:2.2311406 2:0.302416 #
7.0760689523810178513940627453849 1:0 2:0.30243602 #
-9.0978029387755938728332694154233 1:0 2:0.28250492 #
-7.0760689523810178513940627453849 1:0 2:0.28267342 #
-5.0543349659864418299548560753465 1:1.6621313 2:0.28272632 #
-3.0326009795918653644264395552455 1:0 2:0.28263122 #
-1.0108669931972884548088131850818 1:0.70264268 2:0.28269106 #
1.0108669931972884548088131850818 1:0 2:0.28264529 #
3.0326009795918653644264395552455 1:1.4348135 2:0.28259978 #
5.0543349659864418299548560753465 1:0 2:0.28272974 #
7.0760689523810178513940627453849 1:0 2:0.28264529 #
9.0978029387755938728332694154233 1:0.77245259 2:0.28278974 #
-11.119536925170169894272476085462 1:0 2:0.30302435 #
-9.0978029387755938728332694154233 1:0.85599595 2:0.30298588 #
-7.0760689523810178513940627453849 1:0.86319125 2:0.30301595 #
2.0217339863945769096176263701636 1:4.3143487 2:0.30312443 #
-2.0217339863945769096176263701636 1:1.4827992 2:0.30290291 #
-1.0108669931972884548088131850818 1:0.51036859 2:0.30315104 #
2.0217339863945769096176263701636 1:0.89715642 2:0.30315307 #
4.0434679727891538192352527403273 1:0.88937521 2:0.30312139 #
6.0652019591837298406744594103657 1:0.84196538 2:0.3029258 #
7.0760689523810178513940627453849 1:0.52700859 2:0.30327049 #
9.0978029387755938728332694154233 1:0.32472286 2:0.30328381 #
-13.1412709115647459157116827555 1:1.8360853 2:0.28766149 #
-11.119536925170169894272476085462 1:1.0816188 2:0.28773269 #
-9.0978029387755938728332694154233 1:2.0874653 2:0.28765944 #
-7.0760689523810178513940627453849 1:1.0986923 2:0.28776133 #
-5.0543349659864418299548560753465 1:0.23001352 2:0.28759572 #
-3.0326009795918653644264395552455 1:0 2:0.28770545 #
-1.0108669931972884548088131850818 1:0 2:0.28777707 #
1.0108669931972884548088131850818 1:0.24287349 2:0.28775296 #
3.0326009795918653644264395552455 1:0.24791376 2:0.28781033 #
5.0543349659864418299548560753465 1:1.0986923 2:0.28776133 #
7.0760689523810178513940627453849 1:2.235455 2:0.28771555 #
9.0978029387755938728332694154233 1:0.24287349 2:0.28775296 #
11.119536925170169894272476085462 1:0.24663419 2:0.28779599 #
13.1412709115647459157116827555 1:0.2345292 2:0.28765282 #
-4.0434679727891538192352527403273 1:0 2:0.19987033 #
-2.0217339863945769096176263701636 1:0 2:0.1999002 #
2.0217339863945769096176263701636 1:0.46786162 2:0.19983888 #
4.0434679727891538192352527403273 1:0 2:0.19994007 #
-12.130403918367457904992079420481 1:0.033406496 2:1.0736096 #
-10.108669931972881883552872750442 1:0.13399799 2:1.0733054 #
-8.0869359455783058621136660804041 1:0.14217681 2:1.0739005 #
-6.0652019591837298406744594103657 1:0.13661732 2:1.0734725 #
-4.0434679727891538192352527403273 1:0.13335884 2:1.0732056 #
-2.0217339863945769096176263701636 1:0.13934143 2:1.0736864 #
2.0217339863945769096176263701636 1:0.1359529 2:1.0734191 #
4.0434679727891538192352527403273 1:0.14363836 2:1.0740077 #
6.0652019591837298406744594103657 1:0.13865024 2:1.0736328 #
8.0869359455783058621136660804041 1:0.14145716 2:1.0738469 #
10.108669931972881883552872750442 1:0.14003958 2:1.0737399 #
12.130403918367457904992079420481 1:0.13934143 2:1.0736864 #
-4.0434679727891538192352527403273 1:0.066061683 2:0.37715289 #
-2.0217339863945769096176263701636 1:0.071650654 2:0.37733701 #
2.0217339863945769096176263701636 1:0.66275674 2:0.37744033 #
4.0434679727891538192352527403273 1:1.0473653 2:0.37748736 #
-6.0652019591837298406744594103657 1:0.44504613 2:0.2342325 #
-4.0434679727891538192352527403273 1:0.46937931 2:0.23427917 #
-2.0217339863945769096176263701636 1:1.1577237 2:0.23422669 #
1.0108669931972884548088131850818 1:3.0236819 2:0.23424132 #
1.0108669931972884548088131850818 1:0.43380171 2:0.23420919 #
4.0434679727891538192352527403273 1:0.44504613 2:0.2342325 #
6.0652019591837298406744594103657 1:1.1599382 2:0.23422088 #
-27.293408816326799382068202248774 1:1.9396641 2:0.26575097 #
-25.271674829932219807915316778235 1:1.0051067 2:0.26576191 #
-23.249940843537640233762431307696 1:1.9838881 2:0.26581699 #
-21.228206857143060659609545837156 1:0 2:0.26584437 #
-19.206472870748481085456660366617 1:1.621544 2:0.26582018 #
-17.184738884353901511303774896078 1:0.37145624 2:0.2658096 #
-15.163004897959323713507728825789 1:0.36918187 2:0.26578316 #
-13.1412709115647459157116827555 1:0.37375879 2:0.26583603 #
-11.119536925170169894272476085462 1:0.37964204 2:0.26590222 #
-9.0978029387755938728332694154233 1:1.011462 2:0.26579863 #
-7.0760689523810178513940627453849 1:0.37609008 2:0.26586249 #
-5.0543349659864418299548560753465 1:0.37031555 2:0.26579636 #
-3.0326009795918653644264395552455 1:0.3784506 2:0.26588899 #
-1.0108669931972884548088131850818 1:0.37609008 2:0.26586249 #
1.0108669931972884548088131850818 1:1.9748671 2:0.26579863 #
3.0326009795918653644264395552455 1:1.9748671 2:0.26579863 #
5.0543349659864418299548560753465 1:1.6377447 2:0.26584661 #
7.0760689523810178513940627453849 1:0 2:0.26581791 #
9.0978029387755938728332694154233 1:1.0444838 2:0.26592067 #
11.119536925170169894272476085462 1:0.64854306 2:0.26582307 #
13.1412709115647459157116827555 1:2.04967 2:0.26590446 #
15.163004897959323713507728825789 1:1.9058063 2:0.26569313 #
17.184738884353901511303774896078 1:1.6296009 2:0.26583338 #
19.206472870748481085456660366617 1:0.37031555 2:0.26579636 #
21.228206857143060659609545837156 1:0 2:0.26589733 #
23.249940843537640233762431307696 1:0 2:0.26587084 #
25.271674829932219807915316778235 1:1.047905 2:0.26593393 #
27.293408816326799382068202248774 1:0 2:0.26593712 #
-11.119536925170169894272476085462 1:3.8724239 2:0.21243219 #
-17.184738884353901511303774896078 1:1.0869799 2:0.21269806 #
-14.152137904762033926431286090519 1:1.9926614 2:0.21273245 #
-12.130403918367457904992079420481 1:1.6068139 2:0.21263692 #
-4.0434679727891538192352527403273 1:4.6570892 2:0.21272855 #
-10.108669931972881883552872750442 1:0.78243059 2:0.2126749 #
-8.0869359455783058621136660804041 1:0.87340093 2:0.21268611 #
-6.0652019591837298406744594103657 1:0.80911249 2:0.21257031 #
-4.0434679727891538192352527403273 1:0 2:0.21264154 #
-2.0217339863945769096176263701636 1:0 2:0.21264154 #
3.0326009795918653644264395552455 1:3.4266753 2:0.21265416 #
5.0543349659864418299548560753465 1:3.0247786 2:0.21259364 #
7.0760689523810178513940627453849 1:4.2398171 2:0.212632 #
9.0978029387755938728332694154233 1:3.4088023 2:0.21265101 #
13.1412709115647459157116827555 1:6.4824557 2:0.21260209 #
5.0543349659864418299548560753465 1:0 2:0.21272616 #
13.1412709115647459157116827555 1:3.0102017 2:0.21265788 #
16.173871891156611724227332160808 1:4.2187057 2:0.21262144 #
17.184738884353901511303774896078 1:2.9826493 2:0.21264502 #
-4.0434679727891538192352527403273 1:2.6004024 2:0.40116256 #
-3.0326009795918653644264395552455 1:1.754509 2:0.40091151 #
-1.0108669931972884548088131850818 1:0.53836673 2:0.40117851 #
1.0108669931972884548088131850818 1:0.50182599 2:0.40107864 #
3.0326009795918653644264395552455 1:0.54632288 2:0.40119851 #
4.0434679727891538192352527403273 1:0 2:0.40087157 #
-10.108669931972881883552872750442 1:1.2126418 2:0.25292626 #
-8.0869359455783058621136660804041 1:1.6012712 2:0.25288165 #
-6.0652019591837298406744594103657 1:0.57928997 2:0.25269634 #
-4.0434679727891538192352527403273 1:0.1165807 2:0.25277835 #
-2.0217339863945769096176263701636 1:0.67149824 2:0.25293517 #
2.0217339863945769096176263701636 1:0.63422698 2:0.25284696 #
4.0434679727891538192352527403273 1:0.63422698 2:0.25284696 #
6.0652019591837298406744594103657 1:0.60095513 2:0.25275901 #
8.0869359455783058621136660804041 1:0.12242318 2:0.25289154 #
10.108669931972881883552872750442 1:0 2:0.25288808 #
-6.0652019591837298406744594103657 1:0.054377668 2:0.27300823 #
-4.0434679727891538192352527403273 1:0.055385645 2:0.27304894 #
-2.0217339863945769096176263701636 1:0.055385645 2:0.27304894 #
2.0217339863945769096176263701636 1:0.056078654 2:0.27307609 #
4.0434679727891538192352527403273 1:0.051860783 2:0.27289996 #
6.0652019591837298406744594103657 1:0.055729996 2:0.2730625 #
-16.173871891156611724227332160808 1:0 2:0.32942158 #
-14.152137904762033926431286090519 1:0.6201188 2:0.32929647 #
-12.130403918367457904992079420481 1:2.007129 2:0.32945809 #
-10.108669931972881883552872750442 1:1.899101 2:0.32949936 #
-8.0869359455783058621136660804041 1:1.2145059 2:0.32915813 #
-6.0652019591837298406744594103657 1:0 2:0.32945436 #
-4.0434679727891538192352527403273 1:1.3486171 2:0.32945225 #
-2.0217339863945769096176263701636 1:0.67714483 2:0.32950944 #
2.0217339863945769096176263701636 1:0.57726681 2:0.32943004 #
4.0434679727891538192352527403273 1:0.67714483 2:0.32950944 #
6.0652019591837298406744594103657 1:0.66307342 2:0.3294602 #
8.0869359455783058621136660804041 1:0.658512 2:0.32944378 #
10.108669931972881883552872750442 1:0.74281275 2:0.32936189 #
12.130403918367457904992079420481 1:1.3739601 2:0.32950732 #
14.152137904762033926431286090519 1:3.5161383 2:0.32960322 #
16.173871891156611724227332160808 1:3.2594759 2:0.32946178 #
-15.163004897959321937150889425538 1:0.48953256 2:0.1298345 #
-13.1412709115647459157116827555 1:0 2:0.12991449 #
-11.119536925170169894272476085462 1:0.50670552 2:0.12987959 #
-9.0978029387755938728332694154233 1:0 2:0.12988865 #
-7.0760689523810178513940627453849 1:0.51443988 2:0.12989895 #
-5.0543349659864418299548560753465 1:0 2:0.12996629 #
-3.0326009795918653644264395552455 1:0.47127846 2:0.12978314 #
-1.0108669931972884548088131850818 1:0.51707071 2:0.1299054 #
1.0108669931972884548088131850818 1:0.51443988 2:0.12989895 #
3.0326009795918653644264395552455 1:0.51443988 2:0.12989895 #
5.0543349659864418299548560753465 1:0 2:0.12993389 #
7.0760689523810178513940627453849 1:0.50925767 2:0.12988605 #
9.0978029387755938728332694154233 1:0.53343874 2:0.12994421 #
11.119536925170169894272476085462 1:0 2:0.12994036 #
13.1412709115647459157116827555 1:0 2:0.12982425 #
15.163004897959321937150889425538 1:0 2:0.12992096 #
-18.195605877551191298380217631347 1:1.8863401 2:0.13756396 #
-16.173871891156611724227332160808 1:1.7701778 2:0.13760339 #
-14.152137904762033926431286090519 1:2.0712643 2:0.13763259 #
-3.0326009795918653644264395552455 1:2.8039246 2:0.13757388 #
-11.119536925170169894272476085462 1:0 2:0.13756348 #
-8.0869359455783058621136660804041 1:2.452945 2:0.13758351 #
2.0217339863945769096176263701636 1:2.9133351 2:0.13740906 #
4.0434679727891538192352527403273 1:3.0088861 2:0.13763542 #
-5.0543349659864418299548560753465 1:0 2:0.13765241 #
-3.0326009795918653644264395552455 1:0 2:0.1375908 #
2.0217339863945769096176263701636 1:0.98305482 2:0.13764866 #
1.0108669931972884548088131850818 1:0 2:0.13763185 #
6.0652019591837298406744594103657 1:0.93452245 2:0.13760073 #
8.0869359455783058621136660804041 1:0.92797768 2:0.1375939 #
7.0760689523810178513940627453849 1:0 2:0.13767986 #
9.0978029387755938728332694154233 1:0 2:0.13765927 #
11.119536925170169894272476085462 1:0 2:0.13764556 #
13.1412709115647459157116827555 1:0 2:0.13758396 #
15.163004897959321937150889425538 1:0 2:0.1376387 #
-21.228206857143060659609545837156 1:0 2:0.28750393 #
-19.206472870748481085456660366617 1:0 2:0.28748962 #
-10.108669931972881883552872750442 1:3.1944063 2:0.28751612 #
-15.163004897959323713507728825789 1:2.499084 2:0.28754023 #
-14.152137904762033926431286090519 1:0 2:0.28761846 #
-5.0543349659864418299548560753465 1:3.2774632 2:0.28758767 #
-9.0978029387755938728332694154233 1:1.0869548 2:0.28755736 #
-9.0978029387755938728332694154233 1:0 2:0.28736126 #
-5.0543349659864418299548560753465 1:2.1220129 2:0.28748155 #
-3.0326009795918653644264395552455 1:2.1053877 2:0.28746444 #
-3.0326009795918653644264395552455 1:0 2:0.28747535 #
1.0108669931972884548088131850818 1:2.1823497 2:0.28758165 #
9.0978029387755938728332694154233 1:3.3836553 2:0.28767371 #
5.0543349659864418299548560753465 1:2.0971735 2:0.28743422 #
4.0434679727891538192352527403273 1:0 2:0.28734702 #
9.0978029387755938728332694154233 1:1.4280871 2:0.28752971 #
8.0869359455783058621136660804041 1:0 2:0.28753254 #
10.108669931972881883552872750442 1:0 2:0.28731859 #
14.152137904762033926431286090519 1:0.71808577 2:0.28746557 #
14.152137904762033926431286090519 1:0 2:0.28760412 #
18.195605877551191298380217631347 1:0.73303723 2:0.28755587 #
21.228206857143060659609545837156 1:2.9569082 2:0.28728813 #
-4.0434679727891538192352527403273 1:2.9176695 2:0.14756013 #
-8.0869359455783058621136660804041 1:0 2:0.14768742 #
-1.0108669931972884548088131850818 1:2.9512987 2:0.14767352 #
-3.0326009795918653644264395552455 1:1.9623408 2:0.14767781 #
-1.0108669931972884548088131850818 1:2.5380602 2:0.14761144 #
1.0108669931972884548088131850818 1:2.2514594 2:0.14758842 #
1.0108669931972884548088131850818 1:0 2:0.14767268 #
3.0326009795918653644264395552455 1:0 2:0.14759918 #
5.0543349659864418299548560753465 1:0 2:0.14761385 #
7.0760689523810178513940627453849 1:0 2:0.14768004 #
-6.0652019591837298406744594103657 1:3.528923 2:0.1549105 #
-10.108669931972881883552872750442 1:0 2:0.15498483 #
-7.0760689523810178513940627453849 1:2.0169775 2:0.15493578 #
-6.0652019591837298406744594103657 1:0 2:0.15505433 #
-3.0326009795918653644264395552455 1:2.0759008 2:0.15501216 #
-1.0108669931972884548088131850818 1:2.0240538 2:0.15498902 #
3.0326009795918653644264395552455 1:1.3766878 2:0.15490408 #
5.0543349659864418299548560753465 1:2.2135315 2:0.15492873 #
6.0652019591837298406744594103657 1:0 2:0.15500797 #
9.0978029387755938728332694154233 1:1.6141907 2:0.15501957 #
10.108669931972881883552872750442 1:0 2:0.15500025 #
-10.108669931972881883552872750442 1:2.9629002 2:0.28840569 #
-9.0978029387755938728332694154233 1:0.86358404 2:0.28839859 #
-7.0760689523810178513940627453849 1:1.2771399 2:0.28859913 #
-5.0543349659864418299548560753465 1:1.5910746 2:0.28865749 #
-3.0326009795918653644264395552455 1:1.2349226 2:0.28868359 #
-1.0108669931972884548088131850818 1:1.8073119 2:0.28855798 #
1.0108669931972884548088131850818 1:0.94459081 2:0.2885977 #
3.0326009795918653644264395552455 1:1.5947986 2:0.28854409 #
5.0543349659864418299548560753465 1:2.5048797 2:0.28856328 #
7.0760689523810178513940627453849 1:1.7373562 2:0.28867447 #
9.0978029387755938728332694154233 1:1.5989255 2:0.28858814 #
10.108669931972881883552872750442 1:0.29905155 2:0.28869414 #
-12.130403918367457904992079420481 1:0.62652159 2:0.24600518 #
-10.108669931972881883552872750442 1:2.3490791 2:0.24604218 #
-8.0869359455783058621136660804041 1:1.6802961 2:0.24601239 #
-6.0652019591837298406744594103657 1:0 2:0.24596322 #
-4.0434679727891538192352527403273 1:2.2862732 2:0.24601801 #
-2.0217339863945769096176263701636 1:0 2:0.24607329 #
2.0217339863945769096176263701636 1:2.2462978 2:0.24588303 #
4.0434679727891538192352527403273 1:1.308865 2:0.24605867 #
6.0652019591837298406744594103657 1:0 2:0.24614689 #
8.0869359455783058621136660804041 1:0.65247989 2:0.24602887 #
10.108669931972881883552872750442 1:0 2:0.2460978 #
12.130403918367457904992079420481 1:0.68632972 2:0.24613994 #
-5.0543349659864418299548560753465 1:4.6131067 2:0.23511207 #
-20.217339863945770872533103101887 1:2.0842371 2:0.23508012 #
-10.108669931972881883552872750442 1:3.534502 2:0.23514993 #
-16.173871891156611724227332160808 1:2.0842371 2:0.23508012 #
-16.173871891156611724227332160808 1:0.24436024 2:0.23505686 #
-14.152137904762033926431286090519 1:0.24436024 2:0.23505686 #
-11.119536925170169894272476085462 1:1.4022865 2:0.23514631 #
-9.0978029387755938728332694154233 1:1.2975761 2:0.2350293 #
-7.0760689523810178513940627453849 1:0.98740768 2:0.23506095 #
-5.0543349659864418299548560753465 1:0.9783895 2:0.23503757 #
-3.0326009795918653644264395552455 1:1.7935452 2:0.23496659 #
-1.0108669931972884548088131850818 1:1.3767469 2:0.23502147 #
2.0217339863945769096176263701636 1:2.5223715 2:0.23499532 #
3.0326009795918653644264395552455 1:1.2050613 2:0.23508687 #
6.0652019591837298406744594103657 1:2.3483968 2:0.235119 #
7.0760689523810178513940627453849 1:1.0059711 2:0.23510775 #
9.0978029387755938728332694154233 1:0.98287719 2:0.23504925 #
10.108669931972881883552872750442 1:0.25055414 2:0.23515055 #
12.130403918367457904992079420481 1:0.24360748 2:0.23504516 #
14.152137904762033926431286090519 1:0.23284785 2:0.23487039 #
16.173871891156611724227332160808 1:0 2:0.23518337 #
18.195605877551191298380217631347 1:0 2:0.2351013 #
20.217339863945770872533103101887 1:0 2:0.23513645 #
-15.163004897959321937150889425538 1:0 2:0.20415621 #
-13.1412709115647459157116827555 1:0 2:0.20419674 #
-11.119536925170169894272476085462 1:0 2:0.20428818 #
-9.0978029387755938728332694154233 1:0 2:0.20425767 #
-7.0760689523810178513940627453849 1:0 2:0.20423734 #
-5.0543349659864418299548560753465 1:0 2:0.20429836 #
1.0108669931972884548088131850818 1:3.5517397 2:0.20423391 #
3.0326009795918653644264395552455 1:3.5232391 2:0.20422375 #
5.0543349659864418299548560753465 1:4.047616 2:0.20409076 #
5.0543349659864418299548560753465 1:1.7906116 2:0.20418809 #
4.0434679727891538192352527403273 1:0 2:0.20434932 #
6.0652019591837298406744594103657 1:0 2:0.20428818 #
12.130403918367457904992079420481 1:4.3804045 2:0.204189 #
14.152137904762033926431286090519 1:4.3804045 2:0.204189 #
10.108669931972881883552872750442 1:0 2:0.20422718 #
-12.130403918367457904992079420481 1:1.0880159 2:0.28690279 #
-10.108669931972881883552872750442 1:1.2156081 2:0.28685176 #
-8.0869359455783058621136660804041 1:0.17403202 2:0.28672129 #
-6.0652019591837298406744594103657 1:0.17825995 2:0.2868208 #
-4.0434679727891538192352527403273 1:0.18076944 2:0.28687778 #
-2.0217339863945769096176263701636 1:1.2473017 2:0.28687903 #
2.0217339863945769096176263701636 1:0.17764343 2:0.28681132 #
4.0434679727891538192352527403273 1:0.18205088 2:0.28690633 #
6.0652019591837298406744594103657 1:0.18269843 2:0.28692538 #
8.0869359455783058621136660804041 1:0.18205088 2:0.28690633 #
10.108669931972881883552872750442 1:0 2:0.28693011 #
12.130403918367457904992079420481 1:0.17888077 2:0.28683504 #
-26.282541823129509594991759513505 1:1.221319 2:0.10676672 #
-24.260807836734930020838874042965 1:0 2:0.10677999 #
-22.239073850340350446685988572426 1:0 2:0.1067163 #
-20.217339863945770872533103101887 1:0 2:0.10672159 #
-18.195605877551191298380217631347 1:0 2:0.10673749 #
-16.173871891156611724227332160808 1:0 2:0.10677467 #
-14.152137904762033926431286090519 1:1.2886391 2:0.10679863 #
-12.130403918367457904992079420481 1:0 2:0.1067428 #
-10.108669931972881883552872750442 1:0 2:0.10675342 #
-8.0869359455783058621136660804041 1:1.2769083 2:0.10679331 #
-6.0652019591837298406744594103657 1:0 2:0.1067163 #
9.0978029387755938728332694154233 1:2.7136073 2:0.10675745 #
-3.0326009795918653644264395552455 1:0 2:0.10672159 #
-1.0108669931972884548088131850818 1:0 2:0.10677999 #
2.0217339863945769096176263701636 1:2.4865248 2:0.10672172 #
3.0326009795918653644264395552455 1:0 2:0.10676404 #
5.0543349659864418299548560753465 1:0 2:0.10675873 #
17.184738884353901511303774896078 1:2.7414861 2:0.10676277 #
8.0869359455783058621136660804041 1:0 2:0.1067481 #
10.108669931972881883552872750442 1:0 2:0.10677999 #
12.130403918367457904992079420481 1:0 2:0.10679596 #
14.152137904762033926431286090519 1:0 2:0.10679064 #
16.173871891156611724227332160808 1:0 2:0.10668985 #
18.195605877551191298380217631347 1:0 2:0.10680662 #
20.217339863945770872533103101887 1:0 2:0.10679064 #
22.239073850340350446685988572426 1:0 2:0.10678531 #
24.260807836734930020838874042965 1:0 2:0.10676935 #
-3.0326009795918653644264395552455 1:3.6875072 2:0.1344142 #
-1.0108669931972884548088131850818 1:4.3643198 2:0.13455531 #
-19.206472870748481085456660366617 1:0.3730858 2:0.13452716 #
2.0217339863945769096176263701636 1:3.8573191 2:0.13446672 #
-16.173871891156611724227332160808 1:0 2:0.13450605 #
-14.152137904762033926431286090519 1:0.37593853 2:0.13454723 #
6.0652019591837298406744594103657 1:6.1888461 2:0.1346156 #
-11.119536925170169894272476085462 1:0.3749828 2:0.13454054 #
-9.0978029387755938728332694154233 1:0.3749828 2:0.13454054 #
-7.0760689523810178513940627453849 1:0.37689918 2:0.13455394 #
-5.0543349659864418299548560753465 1:0.35857391 2:0.13442047 #
-3.0326009795918653644264395552455 1:0 2:0.13454619 #
-1.0108669931972884548088131850818 1:0.37786475 2:0.13456064 #
1.0108669931972884548088131850818 1:0.37883526 2:0.13456734 #
3.0326009795918653644264395552455 1:0.37786475 2:0.13456064 #
5.0543349659864418299548560753465 1:0.37214449 2:0.13452047 #
7.0760689523810178513940627453849 1:0.37120789 2:0.13451378 #
9.0978029387755938728332694154233 1:0 2:0.13453279 #
11.119536925170169894272476085462 1:0 2:0.13453948 #
13.1412709115647459157116827555 1:0 2:0.13448602 #
15.163004897959321937150889425538 1:0 2:0.13448602 #
17.184738884353901511303774896078 1:0 2:0.13455959 #
-2.0217339863945769096176263701636 1:0.5385046 2:0.4196701 #
2.0217339863945769096176263701636 1:0 2:0.41982689 #
-32.347743782313244764736737124622 1:0 2:0.11053449 #
-30.326009795918668743297530454583 1:0 2:0.11046865 #
-28.304275809524089169144644984044 1:1.9799173 2:0.11047917 #
-7.0760689523810178513940627453849 1:3.5260956 2:0.11050728 #
-25.271674829932219807915316778235 1:0 2:0.11052349 #
-23.249940843537640233762431307696 1:0 2:0.11057304 #
-20.217339863945770872533103101887 1:2.025296 2:0.11051755 #
-19.206472870748481085456660366617 1:0 2:0.11048508 #
-17.184738884353901511303774896078 1:0 2:0.11053449 #
-15.163004897959323713507728825789 1:0 2:0.11052899 #
-13.1412709115647459157116827555 1:0 2:0.11055099 #
-10.108669931972881883552872750442 1:1.7953424 2:0.11056864 #
-8.0869359455783058621136660804041 1:1.9736052 2:0.11047772 #
-7.0760689523810178513940627453849 1:0 2:0.11051799 #
-5.0543349659864418299548560753465 1:0 2:0.11053449 #
-3.0326009795918653644264395552455 1:0.82729244 2:0.11041603 #
-1.0108669931972884548088131850818 1:0.86152971 2:0.11050355 #
1.0108669931972884548088131850818 1:0 2:0.11054549 #
3.0326009795918653644264395552455 1:0 2:0.1104577 #
5.0543349659864418299548560753465 1:0 2:0.11052349 #
7.0760689523810178513940627453849 1:0.87281758 2:0.11053101 #
10.108669931972883659909712150693 1:2.0121131 2:0.11050658 #
12.130403918367457904992079420481 1:1.6434488 2:0.11058188 #
13.1412709115647459157116827555 1:0 2:0.11049604 #
15.163004897959321937150889425538 1:0 2:0.11057304 #
18.195605877551191298380217631347 1:2.0454078 2:0.11053909 #
23.249940843537640233762431307696 1:3.4844987 2:0.1105594 #
20.217339863945770872533103101887 1:0 2:0.11054549 #
24.260807836734930020838874042965 1:2.0319543 2:0.11052608 #
26.282541823129509594991759513505 1:1.8893934 2:0.11039927 #
28.304275809524089169144644984044 1:2.4692595 2:0.11052115 #
28.304275809524089169144644984044 1:0 2:0.11053999 #
30.326009795918668743297530454583 1:0 2:0.11052349 #
-28.304275809524089169144644984044 1:0 2:0.054718837 #
-26.282541823129509594991759513505 1:0 2:0.054705203 #
-24.260807836734930020838874042965 1:0 2:0.054664467 #
-22.239073850340350446685988572426 1:0 2:0.054691598 #
-20.217339863945770872533103101887 1:0 2:0.054650944 #
-18.195605877551191298380217631347 1:0 2:0.054702479 #
-16.173871891156611724227332160808 1:0 2:0.054699756 #
-14.152137904762033926431286090519 1:0 2:0.054691598 #
-12.130403918367457904992079420481 1:0 2:0.054710653 #
-10.108669931972881883552872750442 1:0 2:0.054697037 #
-8.0869359455783058621136660804041 1:0 2:0.054678019 #
-6.0652019591837298406744594103657 1:0 2:0.054694317 #
-4.0434679727891538192352527403273 1:1.2980173 2:0.054676466 #
-2.0217339863945769096176263701636 1:0 2:0.054718837 #
2.0217339863945769096176263701636 1:0 2:0.054716107 #
4.0434679727891538192352527403273 1:1.5236896 2:0.054714527 #
6.0652019591837298406744594103657 1:0 2:0.054707926 #
8.0869359455783058621136660804041 1:0 2:0.054702479 #
10.108669931972881883552872750442 1:0 2:0.054688878 #
12.130403918367457904992079420481 1:0 2:0.054691598 #
14.15213790476203570278812549077 1:0 2:0.054686163 #
16.173871891156611724227332160808 1:1.4018291 2:0.054695468 #
18.195605877551191298380217631347 1:0 2:0.054705203 #
20.217339863945770872533103101887 1:0 2:0.054716107 #
22.239073850340350446685988572426 1:0 2:0.054716107 #
24.260807836734930020838874042965 1:0 2:0.054735232 #
26.282541823129509594991759513505 1:0 2:0.054702479 #
28.304275809524089169144644984044 1:2.5963328 2:0.054719098 #
-6.0652019591837298406744594103657 1:1.2831875 2:0.1602425 #
-4.0434679727891538192352527403273 1:0.70884538 2:0.16026041 #
-2.0217339863945769096176263701636 1:0 2:0.16028768 #
2.0217339863945769096176263701636 1:1.3218833 2:0.16024581 #
4.0434679727891538192352527403273 1:0 2:0.16026372 #
6.0652019591837298406744594103657 1:0 2:0.16028768 #
-3.0326009795918653644264395552455 1:1.2522691 2:0.63683778 #
-1.0108669931972884548088131850818 1:1.5036176 2:0.63762176 #
1.0108669931972884548088131850818 1:0.087412819 2:0.63734609 #
3.0326009795918653644264395552455 1:2.1968148 2:0.63701612 #
-29.315142802721378956221087719314 1:1.779881 2:0.087782994 #
-27.293408816326799382068202248774 1:0.22605249 2:0.087749101 #
-25.271674829932219807915316778235 1:0.2273905 2:0.087762199 #
-23.249940843537640233762431307696 1:0.2242928 2:0.087731659 #
-21.228206857143060659609545837156 1:0 2:0.087761633 #
-14.152137904762033926431286090519 1:2.6121194 2:0.087715782 #
-17.184738884353901511303774896078 1:0.22473015 2:0.087736584 #
-15.163004897959323713507728825789 1:0.22560999 2:0.087744735 #
-13.1412709115647459157116827555 1:0.22473015 2:0.087736018 #
-12.130403918367457904992079420481 1:0 2:0.087761633 #
-9.0978029387755938728332694154233 1:2.388279 2:0.087668031 #
6.0652019591837298406744594103657 1:2.8147078 2:0.087767541 #
-5.0543349659864418299548560753465 1:1.3761989 2:0.087764256 #
-3.0326009795918653644264395552455 1:1.3761989 2:0.087764256 #
-2.0217339863945769096176263701636 1:0.2273905 2:0.087762199 #
13.1412709115647459157116827555 1:3.88732 2:0.087719053 #
15.163004897959321937150889425538 1:2.8147078 2:0.087767541 #
2.0217339863945769096176263701636 1:0.22649674 2:0.087753467 #
4.0434679727891538192352527403273 1:0.22605249 2:0.087749101 #
6.0652019591837298406744594103657 1:0.22605249 2:0.087749101 #
15.163004897959321937150889425538 1:2.7498677 2:0.087754436 #
10.108669931972881883552872750442 1:0.21959195 2:0.087684959 #
12.130403918367457904992079420481 1:0.22649674 2:0.087754034 #
12.130403918367457904992079420481 1:0 2:0.087766007 #
14.152137904762033926431286090519 1:0 2:0.087779127 #
16.173871891156611724227332160808 1:0 2:0.087783508 #
18.195605877551191298380217631347 1:0 2:0.08777038 #
22.239073850340350446685988572426 1:0.22649674 2:0.087753467 #
24.260807836734930020838874042965 1:0.22605249 2:0.087749101 #
26.282541823129509594991759513505 1:0.22829133 2:0.087770946 #
-15.163004897959321937150889425538 1:2.215549 2:0.32452786 #
-13.1412709115647459157116827555 1:0.5885576 2:0.32449731 #
-11.119536925170169894272476085462 1:2.2557635 2:0.3245602 #
-9.0978029387755938728332694154233 1:0.59765017 2:0.3245458 #
-7.0760689523810178513940627453849 1:2.0681114 2:0.3245281 #
-5.0543349659864418299548560753465 1:1.4386027 2:0.3245692 #
-3.0326009795918653644264395552455 1:1.960288 2:0.32443452 #
-1.0108669931972884548088131850818 1:0.60386974 2:0.32457817 #
1.0108669931972884548088131850818 1:1.2230884 2:0.32445991 #
3.0326009795918653644264395552455 1:2.0428827 2:0.32419693 #
5.0543349659864418299548560753465 1:2.2557635 2:0.3245602 #
7.0760689523810178513940627453849 1:0.14743754 2:0.32451013 #
9.0978029387755938728332694154233 1:0.15109366 2:0.32459104 #
11.119536925170169894272476085462 1:1.2047676 2:0.32444379 #
13.1412709115647459157116827555 1:0.14887854 2:0.32454246 #
15.163004897959321937150889425538 1:0.14463764 2:0.32444555 #
-8.0869359455783058621136660804041 1:4.052247 2:0.32900983 #
-9.0978029387755938728332694154233 1:1.9140029 2:0.32915422 #
-7.0760689523810178513940627453849 1:1.695805 2:0.32899517 #
-5.0543349659864418299548560753465 1:1.9321117 2:0.32915619 #
-3.0326009795918653644264395552455 1:2.4856226 2:0.32912949 #
2.0217339863945769096176263701636 1:3.7737255 2:0.32925165 #
1.0108669931972884548088131850818 1:1.9174289 2:0.3291398 #
1.0108669931972884548088131850818 1:1.1005411 2:0.32887092 #
3.0326009795918653644264395552455 1:0.61092055 2:0.32917857 #
7.0760689523810178513940627453849 1:1.9174289 2:0.32914332 #
9.0978029387755938728332694154233 1:1.5538423 2:0.32914114 #
9.0978029387755938728332694154233 1:0.6342299 2:0.32926062 #
-39.42381273469427327427183627151 1:1.861576 2:0.30650344 #
-37.40207874829969370011895080097 1:0.49534285 2:0.30661878 #
-35.380344761905114125966065330431 1:0.99796605 2:0.30669197 #
-33.358610775510534551813179859892 1:2.3560617 2:0.30652505 #
-31.336876789115958530373973189853 1:2.0971327 2:0.30660361 #
-29.315142802721378956221087719314 1:1.4840416 2:0.30647609 #
-27.293408816326799382068202248774 1:0.49175006 2:0.30660424 #
-25.271674829932219807915316778235 1:1.0028473 2:0.30671689 #
-23.249940843537640233762431307696 1:2.3435328 2:0.30650982 #
-21.228206857143060659609545837156 1:0.99073291 2:0.30664045 #
-19.206472870748481085456660366617 1:0.98360413 2:0.30659464 #
-17.184738884353901511303774896078 1:0 2:0.30659786 #
-15.163004897959323713507728825789 1:0.49989042 2:0.3066799 #
-13.141270911564747692068522155751 1:0 2:0.30664366 #
-11.119536925170171670629315485712 1:0 2:0.30661312 #
-9.0978029387755938728332694154233 1:2.1147888 2:0.30662453 #
-7.0760689523810178513940627453849 1:0.49198613 2:0.306573 #
-5.0543349659864418299548560753465 1:1.9319813 2:0.30660054 #
-3.0326009795918653644264395552455 1:0.4875806 2:0.30651206 #
-1.0108669931972884548088131850818 1:0 2:0.30641517 #
1.0108669931972884548088131850818 1:1.8679994 2:0.30637544 #
3.0326009795918653644264395552455 1:0.50194973 2:0.30672652 #
5.0543349659864418299548560753465 1:1.0028473 2:0.30671689 #
7.0760689523810178513940627453849 1:1.0004008 2:0.3067016 #
9.0978029387755938728332694154233 1:0.49679756 2:0.30666533 #
11.119536925170169894272476085462 1:0.49679756 2:0.30666533 #
13.1412709115647459157116827555 1:0.49426094 2:0.30663478 #
15.163004897959321937150889425538 1:0.49426094 2:0.30663478 #
17.184738884353901511303774896078 1:0.98834515 2:0.30662516 #
19.206472870748481085456660366617 1:2.1488199 2:0.3066501 #
21.228206857143060659609545837156 1:0.4930023 2:0.3066195 #
23.249940843537640233762431307696 1:0.49175006 2:0.30660424 #
25.271674829932219807915316778235 1:0.98596895 2:0.3066099 #
27.293408816326799382068202248774 1:0.49175006 2:0.30660424 #
29.315142802721378956221087719314 1:2.4348171 2:0.30661649 #
31.336876789115958530373973189853 1:2.3946495 2:0.30657074 #
33.358610775510534551813179859892 1:2.2949941 2:0.306449 #
35.380344761905114125966065330431 1:0.95165294 2:0.30638164 #
37.40207874829969370011895080097 1:0.50335628 2:0.3067258 #
39.42381273469427327427183627151 1:0 2:0.30653685 #
-5.0543349659864418299548560753465 1:0.33220509 2:0.23135588 #
-2.0217339863945769096176263701636 1:2.7966774 2:0.23152016 #
-1.0108669931972884548088131850818 1:1.1033655 2:0.23149703 #
1.0108669931972884548088131850818 1:0.36973453 2:0.23146901 #
2.0217339863945769096176263701636 1:0 2:0.2313749 #
5.0543349659864418299548560753465 1:0.62165701 2:0.23141436 #
-16.173871891156611724227332160808 1:0.27086389 2:0.13827537 #
-14.152137904762033926431286090519 1:0 2:0.13815548 #
-12.130403918367457904992079420481 1:0 2:0.13821726 #
-10.108669931972881883552872750442 1:0.26281872 2:0.1382409 #
-8.0869359455783058621136660804041 1:0.25089544 2:0.1381859 #
-6.0652019591837298406744594103657 1:0 2:0.13826546 #
-4.0434679727891538192352527403273 1:0 2:0.13818976 #
-2.0217339863945769096176263701636 1:0.27422157 2:0.13828918 #
2.0217339863945769096176263701636 1:0.26438931 2:0.13824779 #
4.0434679727891538192352527403273 1:0.27422157 2:0.13828918 #
6.0652019591837298406744594103657 1:0.27253237 2:0.13828227 #
8.0869359455783058621136660804041 1:0.27593181 2:0.13829608 #
10.108669931972881883552872750442 1:0.26126671 2:0.13823402 #
12.130403918367457904992079420481 1:0.25089544 2:0.1381859 #
14.152137904762033926431286090519 1:0.26758742 2:0.13826157 #
16.173871891156611724227332160808 1:0.25821701 2:0.13822027 #
-26.282541823129509594991759513505 1:0 2:0.20514069 #
-24.260807836734930020838874042965 1:1.4411935 2:0.20504723 #
-22.239073850340350446685988572426 1:1.6310031 2:0.20514026 #
-20.217339863945770872533103101887 1:1.3346981 2:0.20513839 #
-16.173871891156611724227332160808 1:2.754837 2:0.20509584 #
-16.173871891156611724227332160808 1:0.91448063 2:0.20513934 #
-14.152137904762033926431286090519 1:1.8648198 2:0.20514961 #
-12.130403918367459681348918820731 1:0.29938936 2:0.20517322 #
-10.108669931972881883552872750442 1:2.3449032 2:0.20520392 #
4.0434679727891538192352527403273 1:3.6001914 2:0.20510474 #
6.0652019591837298406744594103657 1:3.6385694 2:0.20514423 #
-4.0434679727891538192352527403273 1:1.6717626 2:0.20517091 #
-2.0217339863945769096176263701636 1:2.3084135 2:0.20501259 #
-2.0217339863945769096176263701636 1:0.63208961 2:0.20520669 #
14.152137904762033926431286090519 1:5.9325962 2:0.20515567 #
3.0326009795918653644264395552455 1:0.29403335 2:0.20510177 #
4.0434679727891538192352527403273 1:0 2:0.20518157 #
17.199388302626957170105015393347 1:3.5057454 2:0.20507419 #
8.0869359455783058621136660804041 1:0.91448063 2:0.20513469 #
10.108669931972881883552872750442 1:0.29478672 2:0.20511197 #
12.130403918367457904992079420481 1:0.9199273 2:0.20515512 #
14.152137904762033926431286090519 1:0.90909857 2:0.20511617 #
16.173871891156611724227332160808 1:0.89075398 2:0.20504299 #
18.195605877551191298380217631347 1:0.86338711 2:0.20493136 #
19.206472870748481085456660366617 1:0 2:0.20519181 #
23.235291425264581022247512009926 1:0.92543983 2:0.20517555 #
-2.0217339863945769096176263701636 1:0.25041178 2:0.43938264 #
2.0217339863945769096176263701636 1:0.3293826 2:0.4396669 #
-5.0543349659864418299548560753465 1:0.76406145 2:0.47122806 #
-3.0326009795918653644264395552455 1:0.31963199 2:0.4707658 #
-1.0108669931972884548088131850818 1:0.33844265 2:0.47092921 #
1.0108669931972884548088131850818 1:0.3661474 2:0.47114 #
3.0326009795918653644264395552455 1:0.59082431 2:0.47080672 #
5.0543349659864418299548560753465 1:0.32478964 2:0.47081244 #
-11.119536925170169894272476085462 1:0.36484477 2:0.18430334 #
-9.0978029387755938728332694154233 1:0 2:0.18433659 #
-7.0760689523810178513940627453849 1:1.1952314 2:0.18429427 #
-5.0543349659864418299548560753465 1:0.37772334 2:0.18434921 #
-3.0326009795918653644264395552455 1:2.1704507 2:0.18440095 #
-1.0108669931972884548088131850818 1:0.37772334 2:0.18434921 #
1.0108669931972884548088131850818 1:0.8494733 2:0.1842633 #
3.0326009795918653644264395552455 1:0.35993594 2:0.18428503 #
5.0543349659864418299548560753465 1:0 2:0.18432741 #
7.0760689523810178513940627453849 1:0.38313296 2:0.18436758 #
9.0978029387755938728332694154233 1:1.2458441 2:0.18429421 #
11.119536925170169894272476085462 1:0.3750754 2:0.18434003 #
-11.119536925170169894272476085462 1:0.43377993 2:0.58259982 #
-9.0978029387755938728332694154233 1:0 2:0.5825789 #
-7.0760689523810178513940627453849 1:0 2:0.58275235 #
-5.0543349659864418299548560753465 1:0.45471433 2:0.58280212 #
-3.0326009795918653644264395552455 1:0.48125803 2:0.58303404 #
-1.0108669931972884548088131850818 1:0 2:0.58304226 #
1.0108669931972884548088131850818 1:0 2:0.58304226 #
3.0326009795918653644264395552455 1:0.48479548 2:0.58306307 #
5.0543349659864418299548560753465 1:0 2:0.58312947 #
7.0760689523810178513940627453849 1:0.46760979 2:0.58291799 #
9.0978029387755938728332694154233 1:0.46107191 2:0.58286005 #
11.119536925170169894272476085462 1:0.49572691 2:0.58315027 #
-22.239073850340350446685988572426 1:0.65051866 2:0.14817564 #
-20.217339863945770872533103101887 1:1.6743129 2:0.14822471 #
-18.195605877551191298380217631347 1:0 2:0.14820938 #
-16.173871891156611724227332160808 1:0.66266882 2:0.1482051 #
-14.152137904762033926431286090519 1:0.66577762 2:0.14821248 #
-12.130403918367457904992079420481 1:0 2:0.14820938 #
-10.108669931972881883552872750442 1:0 2:0.14821675 #
-8.0869359455783058621136660804041 1:0.99143475 2:0.14820687 #
-6.0652019591837298406744594103657 1:0 2:0.14828324 #
-4.0434679727891538192352527403273 1:0.95178121 2:0.14816271 #
-2.0217339863945769096176263701636 1:1.8581901 2:0.14815021 #
2.0217339863945769096176263701636 1:0.68176967 2:0.14824937 #
4.0434679727891538192352527403273 1:0.68176967 2:0.14824937 #
6.0652019591837298406744594103657 1:0 2:0.14828324 #
8.0869359455783058621136660804041 1:1.8718466 2:0.14816321 #
10.108669931972881883552872750442 1:0 2:0.14814316 #
12.130403918367457904992079420481 1:0.98459798 2:0.1481995 #
14.152137904762033926431286090519 1:1.0197586 2:0.14823636 #
16.173871891156611724227332160808 1:0.64460915 2:0.14816093 #
18.195605877551191298380217631347 1:2.1492183 2:0.14825334 #
21.228206857143060659609545837156 1:4.1833057 2:0.14820145 #
21.228206857143060659609545837156 1:0 2:0.14822413 #
-5.0543349659864418299548560753465 1:0.90489191 2:0.29306936 #
-2.0217339863945769096176263701636 1:2.9960058 2:0.29316661 #
-1.0108669931972884548088131850818 1:1.4012409 2:0.29310173 #
1.0108669931972884548088131850818 1:1.4480791 2:0.2931309 #
3.0326009795918653644264395552455 1:1.8276854 2:0.29323477 #
4.0434679727891538192352527403273 1:0 2:0.29322338 #
-43.467280707483432422577607212588 1:0 2:0.13629781 #
-41.445546721088852848424721742049 1:1.8718522 2:0.1362782 #
-39.42381273469427327427183627151 1:0.50085354 2:0.13631326 #
-37.40207874829969370011895080097 1:0.50327027 2:0.1363268 #
-35.380344761905114125966065330431 1:2.2257802 2:0.13635173 #
-33.358610775510534551813179859892 1:0.50327027 2:0.1363268 #
-31.336876789115954977660294389352 1:0 2:0.13633846 #
-29.315142802721378956221087719314 1:1.9009181 2:0.13629849 #
-27.293408816326799382068202248774 1:0 2:0.13635203 #
-25.271674829932219807915316778235 1:0 2:0.13629104 #
-23.249940843537640233762431307696 1:0.50817442 2:0.13635395 #
-21.228206857143060659609545837156 1:0 2:0.13635881 #
-19.206472870748481085456660366617 1:0.50693947 2:0.13634716 #
-17.184738884353901511303774896078 1:1.763351 2:0.13637559 #
-15.163004897959323713507728825789 1:0 2:0.13635881 #
-13.141270911564747692068522155751 1:0.5106625 2:0.13636753 #
-11.119536925170169894272476085462 1:0.50817442 2:0.13635395 #
-9.0978029387755938728332694154233 1:0.51191574 2:0.13637432 #
-7.0760689523810196277509021456353 1:0 2:0.13637921 #
-5.0543349659864418299548560753465 1:2.016623 2:0.13637307 #
-3.0326009795918653644264395552455 1:0 2:0.13637921 #
17.184738884353901511303774896078 1:4.9433393 2:0.13628905 #
2.0217339863945769096176263701636 1:0.51317513 2:0.13638112 #
4.0434679727891538192352527403273 1:0 2:0.13633846 #
22.239073850340350446685988572426 1:5.4326916 2:0.13634801 #
7.0760689523810178513940627453849 1:1.8695807 2:0.13637698 #
9.0978029387755938728332694154233 1:0.50817442 2:0.13635395 #
11.119536925170169894272476085462 1:0.50571048 2:0.13634038 #
13.1412709115647459157116827555 1:0 2:0.13631812 #
15.163004897959323713507728825789 1:0.5044874 2:0.13633358 #
17.184738884353901511303774896078 1:2.1753256 2:0.13634357 #
19.206472870748481085456660366617 1:0 2:0.13637921 #
21.228206857143060659609545837156 1:0.51699066 2:0.13640153 #
23.249940843537640233762431307696 1:0.49845988 2:0.13629971 #
33.358610775510534551813179859892 1:5.2945828 2:0.13639362 #
26.282541823129509594991759513505 1:1.6035355 2:0.13631454 #
28.304275809524089169144644984044 1:0.51317513 2:0.13638112 #
35.380344761905114125966065330431 1:3.5207458 2:0.13631094 #
32.347743782313244764736737124622 1:2.2740135 2:0.13637751 #
39.42381273469427327427183627151 1:3.9483221 2:0.13638306 #
36.391211755102403913042508065701 1:1.8239452 2:0.13639599 #
36.391211755102403913042508065701 1:0 2:0.13637921 #
38.41294574149698348719539353624 1:0 2:0.13636561 #
-48.521615673469881357959820888937 1:1.016106 2:0.20054002 #
-39.42381273469427327427183627151 1:2.6612823 2:0.20057893 #
-37.40207874829969370011895080097 1:3.0529926 2:0.20044354 #
-42.456413714286142635501164477319 1:2.0234079 2:0.20056403 #
-40.434679727891563061348279006779 1:2.0196171 2:0.20055547 #
-38.41294574149698348719539353624 1:1.0416851 2:0.20062965 #
-10.108669931972881883552872750442 1:4.8894863 2:0.20063511 #
-35.380344761905114125966065330431 1:1.488735 2:0.20058113 #
-33.358610775510534551813179859892 1:1.9100517 2:0.20074104 #
-33.358610775510534551813179859892 1:0 2:0.2005768 #
-5.0543349659864418299548560753465 1:4.869308 2:0.20062514 #
-28.304275809524089169144644984044 1:1.6727453 2:0.20060578 #
10.108669931972881883552872750442 1:6.9910226 2:0.20044063 #
-25.271674829932219807915316778235 1:1.1579473 2:0.20062977 #
-5.0543349659864418299548560753465 1:4.2096248 2:0.2006105 #
-10.108669931972881883552872750442 1:3.2229176 2:0.20066595 #
-3.0326009795918653644264395552455 1:4.168221 2:0.20057067 #
-19.206472870748481085456660366617 1:1.1562016 2:0.2006198 #
-20.217339863945770872533103101887 1:0 2:0.20060667 #
-3.0326009795918653644264395552455 1:3.2073162 2:0.20064738 #
-4.0434679727891538192352527403273 1:2.8165858 2:0.20067866 #
-13.141270911564747692068522155751 1:0.54958516 2:0.20067795 #
-11.119536925170171670629315485712 1:0.54591841 2:0.20062801 #
2.0217339863945769096176263701636 1:2.8069413 2:0.20064741 #
-3.0326009795918653644264395552455 1:2.0701044 2:0.2006823 #
6.0652019591837298406744594103657 1:3.1842241 2:0.20061605 #
8.0869359455783058621136660804041 1:3.1465402 2:0.20057423 #
3.0326009795918653644264395552455 1:2.2259538 2:0.20058377 #
13.1412709115647459157116827555 1:3.1995778 2:0.200636 #
14.15213790476203570278812549077 1:2.6606684 2:0.20064458 #
-3.0326009795918653644264395552455 1:0 2:0.20067655 #
